year	month	ABC	CCU	DAR	DECK	EPC	JBSS	KO	LEXR	LTRE	MED	MGPI	MIDD	MTEX	MVL	PPC	REV	SUP	SWY	TEN	USNA	ANDE	CHE	F	JAH	NATR	NLS	SBUX	SEB	SPTN	STKL	TAP	TIVO	TOM	VC	CL	MNST	MTH	PTRY	TPX	TRW	TSCO	BID	CRI	ELY	EXPE	FDP	KCP	NAFC	RDEN	SNMX	DPZ	JNJ	OATS	RAI	SXT	WBD	HLF	JAKK	MCK	SKX	VGR	CAA	MOD	NTRI	PBH	CTB	LEA	THS	GT	ICON	TUP	ARDNA	CQB	IMKTA	SEED	ADY	CROX	GRMN	JSDA	WWW	AMZN	BG	BZH	COKE	PAS	RCII	SAM	CENTA	TBL	TR	BARE	FACE	HBI	SUSS	WINN	HOG	IBA	WRC	BGS	ALCO	G	KTII	OME	WBC	ETP	ADM	DAN	HOGS	PNRA	SMG	BC	ATVI	AXL	STMP	DL	FLO	SENEA	CHBT	BRFS	CZZ	GM	PRGO	SVM	CSKI	DOLE	FOSL	LO	DPS	JNY	FARM	MDC	CLX	PRMW	SPB	TTWO	IPAR	SODA	TSLA	WFM	INGR	URI	BTH	CHEF	EA	ZNGA	RNDY	HSH	CG	PEP	RGS	SYY	LFVN	NGVC	WWAV	BDBD	LKQ	PF	CSG	COTY	ENZY	POST	SFM	VFC	ESI	CPG	FGL	MJN	ABEV	GPRO	SC	WES	KATE	NHTC	DPLO	PFGC	FRPT	SFS	VSTO	BETR	BLD	ENR	KHC	NOMD	UAA	RRR	TPB	USFD	ELF	ADNT	TWNK	NBEV	WOW	CELH	ROKU	APTV	DLPH	CRON	HFFG	VNE	WMK	CPRI	EL	PM
2005	3	-4.034731918411683e-05	-0.13504250662081208	0.0453626148748847	0.1393780998250285	-0.15412600489954606	3.0134062015227313e-06	-0.5000599471997091	3.838268474754811e-05	-0.1989534196800859	-0.0767705830440557	2.5065388297518733e-05	0.03219964837408859	0.013156069077193508	0.061170220977308946	0.4742582986249145	-0.15873262929749077	-0.49148871142728695	-0.05219583929725275	0.0018728549463979261	2.0591360592011972e-05																																																																																																																																																																																							
2005	6			0.04154286998947518	0.24480671762758963	-0.2676051486629245			-6.414359301422672e-07		-0.26446218147862555			-1.417962449063206e-07								0.01285632315307012	-3.205299426350618e-07	-0.36014073565109705	0.2914925191776163	8.548133567569549e-07	1.3472766123752916e-06	8.287424014418757e-07	0.23281989740637804	0.05873121705653402	4.478640277106193e-08	-0.49999864850202336	-0.008357018952176812	-0.213915708293214	-0.2677733325354472																																																																																																																																																																									
2005	9								2.489140477007939e-07	-0.21512813535960973	-0.08352255580490282		0.0244829388096249	1.3716116434807043e-07	0.028967008714334237	0.2118352077506964		-0.5000007599132151	-0.004709890850568658	0.003489947595188927	5.927127467458531e-08											-0.45672789025797866			-0.03680328503274815	-0.04810875947705944	1.1390410064539496e-06	0.12823126386027905	0.027689452217028843	-7.885695877626147e-08	-0.07969486634545299	1.457482944829554e-07																																																																																																																																																																		
2005	12					-0.34900055300738114			1.5027576593567085e-07		5.8940825798796365e-08			9.499898432398237e-08	0.05079969922937507	0.5000000622850028					8.929479042142007e-08												6.889977189846475e-08				-3.3750868039211044e-07			-0.08205339086015793	-7.118120423876229e-08		-0.05717679306693648	-1.6409911344712106e-07	-0.20352463259020273	6.241711739591038e-08	1.3977980877035136e-07	-0.3590438012818759	-2.1598057148320995e-08	-0.500000426910964	-2.820747978729784e-08																																																																																																																																																									
2006	3												0.12049974328874322	0.015464548315888508		0.2973928970741537			-0.13703833007193236	0.045665465373694585	0.003729189065739078						7.145931017015724e-08									-0.29887567344734994				-0.04889362230903784		0.06597593668605724		-5.632541314127171e-09		2.1863635165762082e-07				-0.4999974422086853	0.01705602772072741	-2.2643560132053956e-06	-0.08097951437867593	-4.274527517913893e-07	1.4362002969592956e-06	-0.4999997446447648	-1.6026193309331033e-06																																																																																																																																																			
2006	6					-0.49999945716016336	-0.01692834926607716				0.055923473300248425										-3.399152110085298e-07								0.15286885057904712								0.17957590049030625		0.10271677588226606	-0.10751300449372124					-0.36709293493627304	2.0751626552799878e-07		-0.5000009869288095		-0.49999705944692513	-9.106202807672419e-07			-4.3754485380893506e-07	0.0914011332204082			0.4090479627042874	-4.355091273453945e-07	1.6235274257993489e-06	-3.4182768909814604e-07	-4.895907497434083e-07																																																																																																																																														
2006	9										1.4380326491204771e-07	3.8595709792026337e-08		-0.011305613863312927				-0.499999952261601			3.77333804162437e-08								-3.9273027141701805e-08	-2.413933546771427e-08	-0.04816821840519076		-0.08359780850251569								-2.3236224713076584e-07			-3.0496905023068325e-08		-0.03494845447488691	-0.3865117687308728				0.06510271889663342	3.194137123570641e-07						-9.717485405873517e-08					-0.5000001760413721	-5.478785370195815e-08	0.49942932394750433	4.3070277984536544e-08																																																																																																																																										
2006	12		-0.26787302404556396		0.1266926468078626					-0.29905038017858077	-0.05868733522017666		0.1067879433283706	0.03121421685182581				-0.5000005350386434			-7.280559023341982e-07	0.05153557101477884					-0.028549737888988562														-0.09207300446485535			0.007595662739077352		3.0216174840007287e-07					-3.271298926292038e-07					-0.28004695813690494					0.030752256864127834				0.4164349065906035		-0.1607773984909581	-0.0839526034254422	-1.0930922320914052e-06																																																																																																																																							
2007	3										1.0256817310182151e-07			0.0018370323440514789					-0.14426128706237132		0.045165235602739696						-0.233844129340851				4.479274655290006e-06		3.7778619301879516e-06		-0.03961043844359986		0.03896264320026988			-1.6328085848178596e-05		0.02549807583676274				0.0004957866919762031		-0.08548234543681461					-0.36217577807082724											-0.5000151031402338	0.27307100523465316	4.097178796537473e-06				-1.7378391148980334e-05	0.11753803715196498	-0.13716000690619784																																																																																																																																				
2007	6						2.2393164707165199e-07			-0.24760658087399484		0.013175595486732588				0.0023507089560347	-0.11758456735754359				-1.2466456785951353e-07			-0.21481419330315651					0.0708349141200061	0.047774237227546576			-0.04243860840523262												-0.058140669404253956					-0.23307867675188246							0.11094184601393907	1.1820912981399087e-07							1.951616680122603e-08						0.19254226704181973		1.788737896939082e-07	-0.1192479619858755	0.0952906528018712	-0.4999994765154066																																																																																																																																
2007	9						-0.06491719096207							-4.707027695596972e-07		0.14196882419200904					-0.0032500156313058567								0.23015932227465513	0.16069696571871647		-0.5000101111331895			0.008612567156616223							-0.1820690479548431								-0.5000018888778875			-1.4240182955560555e-05								-4.833389119220529e-06				-2.0407387105396928e-06				-0.49999061345135903				0.05276729842803067				-0.2571130543339425	0.11667907048677045	0.12394599227284282	2.690156109052705e-07	0.17255927487823994																																																																																																																											
2007	12						-0.33246226552173314				-0.16421823480916065			-0.04241833312271094							-0.02821554266199568												-0.2811737983764277						-0.14553170803260965	0.4120184344490316		-0.5000062792592811											5.80603825663595e-06											-9.036229644703738e-06														1.7671060710439757e-06	0.5000025935068595	5.064341896938866e-07		0.08199225759934928	0.4999934373293333	-0.4999994517018224	1.2533821472385261e-05	7.787799420794914e-06	-0.5000034551630416	-4.714621684145537e-06																																																																																																																				
2008	3			0.08790926249196183							0.062380359319840144										0.021904634465646916	0.07822110264602114		-0.08893653299240716							0.15067375891242474				-0.022553946501983554											0.05473667768344741											0.21533422170709332							-0.1023510323215945	-2.8512857201221556e-07				-0.012520000168692803		0.19797375932924682					-0.4999972455564449	5.875164212023687e-07	0.012099902902793343		5.02060576781862e-07									-0.4508610840053241	-0.20401527648176052	-0.500002452182977																																																																																																																	
2008	6			0.3320571774572867								-0.5000302043534328		-0.12762189421452455																0.11665065451795299		-6.98213569244018e-05																			-0.0001030785031291007						0.4999116564759467	-5.38791951693561e-05								-3.6139992934781774e-05			-0.5000411982111747		-0.4999977584889928						-0.47415014597079136	1.2789371037194183e-05		5.034136375835397e-07									4.403800386588326e-06			-0.13140950730666576	6.332812103314103e-06	-0.21514260109156497	-4.000037565957905e-06	0.4999744604994212																																																																																																												
2008	9										0.0010288800481747056																-7.08187498523535e-08						1.200070462450781e-07													9.455763084540185e-08	1.2628148869057753e-07				-0.012445782533661449							-4.513947355481232e-08								-2.5183180625671386e-07			1.31499646965971e-07		-5.5749974305824625e-08					-0.48188055365970284		-5.347637027961636e-08	2.3174773060891297e-07														-2.701570449696144e-07	1.039265999571138e-06	-2.3351927853393036e-07	-5.716069139362398e-08	-0.08005044288950335	-2.013273676209961e-07	-0.4266531002553988																																																																																																									
2008	12										0.11597474913898034	-0.10552797215296815									0.13325760547119184										0.06435977878714022	0.29989922101097943	0.027475343626457795							-0.2133194185488658	0.2106881617359488	0.4902287048338911																								0.03179083539067592				-0.1961648394776674	-0.29744222051458397					-1.2660430944544074e-06		-0.18203293291227557											-1.228550728533075e-07			-0.4999996827177268		-0.3791847997910392		-2.2015889049993828e-08		-0.5000008309500575		-5.984917255042749e-07																																																																																																								
2009	3			0.0962248612988755										-0.10633876722171039																		2.890066313157705e-05							-0.007648410837847391	1.2879232551753836e-05	-0.26722798633884987									-0.14257271884382725		-0.5000228402532747					0.1341967207787134							-0.19768220339650855		3.6260339029818425e-06																	0.14456948340368786						-0.33428502481700445				-2.4649326607620995e-05		-0.3476422316012616						-4.68904822030177e-06	1.4950862982409264e-05	0.5000409930819693	0.028277246807774013	3.500468760055158e-05																																																																																																			
2009	6									-0.020343985062126254				-9.552735890719493e-08						-5.304805033063186e-07	-2.3786769963614283e-07																		-3.368897080009323e-07			-1.3664011595114212e-07							-1.251347595704055e-07	1.2660420362328235e-07											-1.1030986242592791e-07															-0.0721303437273099	-0.0658790667745942	-0.019355600166305623		4.352713172173673e-08			-2.3359492814418254e-08						-0.02525756247187568						-0.06556253596006983	-1.5750046539080837e-07					0.02545678903116265	-0.2569265248036833				-0.4999996177267961																																																																																																		
2009	9											1.2703988968199912e-05								-4.358850659255431e-06			-0.1637992818329917									-0.1937851324570762									0.007254574089319331						-0.13599939465823316											0.05915792413056094																		0.011212912851046152		0.022672978109493817		0.021190362931363543					-0.040318433189778756							-5.911336542745666e-05			-0.04249704636909544			0.17695399484798235			-0.3346730201809533						-0.04250162484064156	0.4137357909009333	-0.500105039587226	-0.15403181551079184	-0.104392426091149																																																																																													
2009	12										0.0626219787657126	0.05073690764126821								0.03396445608668565													-2.1078830530781168e-07						0.007933639648935746	0.2026210648912504	0.08772754150857497							-0.3371367419095692			-0.03971539841755633	-0.09469024551608035						0.11658690213988541																			0.06277072903993865			-0.030098856314521194			-0.0772892570716305										-0.499999691610301								-1.4001611868281132e-06	-0.32604784684964916						-4.904857761227519e-08	-0.21998361724507717			3.385535745678087e-07																																																																																												
2010	3										0.04416754006354561	0.011479184504385086				-0.18841528553568507	0.06172509198478588		-0.2461417997811828	0.0065075327662894355																					0.018017521466263238																							-2.715053509507683e-07				-0.3490258508838084										-5.18915338004545e-07		-0.022270093724191167			-0.022611105482613074	-2.921873522246743e-07	5.533161054144137e-07		-0.18271576465875447								-0.09185182892329713													0.19784449188752104					-0.10686952889082753	-5.314576063175312e-08	-0.1298397340482083																																																																																									
2010	6											4.948521607750394e-07					-0.033868268595609506			-9.316710243455341e-08	0.05258829709920599						-0.31764161440399447			2.395259662917622e-07		0.04168794891338842									-9.821434132250572e-07									-0.49999976231026033														-0.4618618540928757				-0.4999984118154753									0.08483752660347918			0.014133212418047212				-0.08437127786389731					2.8972302514443625e-06																	-9.37686873579114e-07		0.2458130142243351						-0.041328299860601374		0.5000016239836295	9.761282892084267e-07																																																																																							
2010	9											0.0815557231881357					0.13524126566675793			0.053309987488133426												-0.11837961572833597									0.12893507071375696																							0.18894804364423773													-9.03777736039772e-06	0.09169363875298865		-0.01972954746780609				-1.1378228194651367e-05											-0.015500260538052705	-0.4999929952453388					-0.5000073191143284						-2.8618813475773863e-05	0.1366973952447652				-5.829373526935263e-06		0.0044443518491065264	-0.263124060884745	-0.30614518381156014		-0.09789125506750089																																																																																						
2010	12										0.07580045800356366	0.058692868507801706				-0.16484978629814928	0.043155827632758416			0.03935178465689651																					0.11722974520639057																	0.19285735288481698						0.1862870154620214				-0.3019357587518486										0.11034324599873946		-1.1690738609718394e-08			2.3463988459622606e-07										-0.18946215183463472		-9.507809364456379e-07	-0.45171274253889643												0.06171260692186556					-0.2808439108539106	0.02963207685490356	-0.0262579301875538				-0.5000000575109271																																																																																					
2011	3				0.34520549880966633									-0.14742418355648182		-0.4135657784323619	0.02596139138912184			0.1267069498133439																				0.257266903822902																									4.4062429087897687e-07			-0.4999993912041809								0.028788905761658296				-0.009921978422261196		0.02375799546717267		2.817441843190056e-07									-0.49671524670812023			-0.49999997541922203												1.0078713629844435e-07												0.34783684310567536	-0.08789960976166256	-0.49999934172536165	-1.110447393569482e-06	0.5000002242365614																																																																																
2011	6													-0.22651847539040498			0.1670897214970534			1.5808328360350772e-06	-0.08406140849701937																			0.3132702764268052																																				0.046749286835823224	-0.3248558266575885	4.081744021494633e-06				0.028653836982753353														-0.49999225838661915	-4.024438502207097e-06		-1.6706359026166028e-05									2.6179123530226105e-06												0.2051777481201611	-0.49999705087344404		0.06865235526768312		-0.4999957402580808	-0.025409562591727722	0.33126552891083627	-1.531016549974675e-05																																																																												
2011	9																			-6.375079474792124e-07						0.5000050725267462	-0.4999977612048728														1.73325813631979e-06																							-0.13685856165211813			-0.4623504728232377													4.762823966554625e-07		0.36588729344831217	1.4277525772679446e-06	-0.4682115680763709	-5.386506208369531e-07										-1.0073277259344615e-06													1.2293882815205212e-06						-0.5000037613467996			-2.694146012168274e-06						0.5000098052743556	-0.4999993168248791				0.5000171072527229	0.20149738515277169	-0.4999931878806043																																																																										
2011	12													-0.11221036737133835		-0.22657006154314957	0.07421928646608521			0.04375162728116613												-0.0679047274483219								0.23831323497854429	0.11264381953543288									0.3837699846621795								0.3100773517025054						0.022482931690972693													-0.084110379936202	0.12886282463526358		-0.020844594529515273													-0.23844844341538982															0.07311098865267525	-0.31181907114071206					1.7318477517124996e-05				-0.3252493969633046													-0.5000636769867807	-0.5000193190094074																																																																								
2012	3									-0.4245416356857061	0.07822727191240339	0.12092227875041273								0.09579337536116103																					0.22147541775359628												-0.5000524899163908												-0.0769843893285683		0.10135380548246087						-0.10424747050122095					0.191921358174768						-5.2338385578245906e-05	-0.027455979519403276										0.0001869860293987297													0.20968686568666117					-0.4999539977534668	0.13395708103597634		-0.4998131331374719								0.47966209525787346				-9.495609952994309e-05					-0.4999345233153493																																																																							
2012	6											0.013915161669351144					-0.00013841284307559832			0.013715365663928893																					0.04263629540962857																								-0.04458673806785328											-0.045013059870536665	-0.1329644237806519	0.07239849354501886						0.002660145895603649	-0.03256640004594956																-0.5000988539837756							0.057534455783754386				0.06500633055282266		7.132541828666747e-06						-0.11269414955419968	0.4739435772696283					-0.18892862873440375								-0.4999783618276039	0.2650644149023741	-0.4498340224122866																																																																				
2012	9																3.931612566759767e-06									0.048526204751590224																				0.07529610742960316						0.12009071189768096													-0.05614158493659254											-0.029755204288602732		0.035956608138519024						0.04585536591007695											0.03999925225760909													0.028997875486088717				0.08275213186993204								-0.2444864868023959				-0.0996590287565538		-0.23568071087985623					-0.2626409507352747			-0.4999924016940451		-0.05320807740268522	0.004082945519698946	-4.207856551516405e-06	7.275546523736282e-06																																																																	
2012	12																5.166926177072949e-07			2.0294963627017853e-07						0.095455145588902							-0.02832020730742441													0.1390009017883219			-0.1971152388245419																-0.13158178127680806											-0.0769412182902206	-3.92407177848083e-07	0.05844994524034489						0.13166443916811196											0.0656571210534261													0.05348568839046191																		0.08578229241287207					-0.35083206602653905			-0.4999915058507621		-0.204303105444221	0.1377412368128648		-0.4398076000707142	0.1616584794416829																																																																
2013	3									-0.10388873037614595		0.05085486694492452					0.0664739671738976			0.03871670976939795																					0.1121937300703389												-0.5000013080115662														0.10916249953756091		-0.25707565269208227									0.06737092440949417						0.16590600149736995											-5.518960221121552e-07													0.07061048302558766					-0.5000017718623526	0.14842974062021266	-0.0044578406943619345		-0.1195466493574282			5.906479100860704e-07														-0.4999978386697603							-0.035039728671856604	0.19029019851136345																																																														
2013	6									-0.49999909767746603	0.1274946918123009						-2.05634086677175e-08			0.10573565587701425	0.15142303006164637														-0.0362203330978781		-0.4742627534545787			0.141041847719972	0.3076530460760403										6.536677858636308e-07													4.107096020302291e-07				-0.15191007595711656																																																						-0.17592198688775815												-0.49999890431313926					0.11476450654836048	-5.201364850373148e-07			3.124459111442231e-08	1.381000655536196e-06	-8.535528251980266e-08	-0.10980105511220625																																																										
2013	9									-0.5000027180862087		0.11404775431533457								0.08533337410780234	0.05590692420300951					-0.0035832957288443146									-0.023695952996479478						0.18032422886915375				-0.21335313010869675																							-0.12158695970804338											-0.03438617308134667																																					0.14586367201931713						-0.17956535485058453		-0.38104477972753015										1.5608595608799982e-06		-0.04854292588615068		0.08680924694586774	0.08349374433388157				-0.5000018025546907		0.25206933642010887		0.0019153895292664223																																																									
2013	12											0.06076059100625713								0.057533024291340495							0.13783660360894676										-0.27287590683205476			0.06257343798432208	0.10891741554111507																		-0.2647342975851422					0.04285816700161649	-0.07329950158923325																			0.05838722645464531																								0.04607959535427881				0.09881571594450538		0.15493858708202665										-0.17302600008152852										-6.637069107479316e-07					-2.90126229393594e-07	-8.084532563571138e-07			-0.4999992054912711			-0.04476256010169574		-0.5000015152448926																																																								
2014	3									-0.4999959246066407		0.14296200227046055		0.07391162708057834						0.11571013545045652	0.16383244405730207					1.0324280304353711e-05									6.892911309720789e-06						0.304731361522467												-0.49998948758500816															1.8806672607636155e-05																	-0.4999877148264026																							0.20643236227968215								0.5000003771039356																		0.052797372069043544					0.39014115517082043							-2.6746835466835016e-06			1.0891065637621208e-05	-0.5000053947131938	-0.4999829899302338	-0.45058653283927147																																																				
2014	6												0.12880753663143463				-7.086239683515831e-09																													0.022498613586508207						0.05808885548895362																								-0.010804417421257123		0.005063342594585152						0.011154369949760774																								0.010084761465833003				0.04742380889920957												-0.2758054762582743										4.2595919670994345e-07			0.004363773037253487		8.538265106233455e-08				-0.4999996820766242			-0.0009992100632041949	8.119370609747847e-08		-5.802275109850076e-07				-0.49999995588848944	4.4434941380470265e-07	0.0001235476524317505																																																	
2014	9											1.035431009129757e-06		-0.027442615649924527						-1.6242419439687233e-07						1.4973349950461343e-06																				0.15063874928656462					6.997869384586095e-07	0.14486574861747764																								-0.03423571275497157			-7.14952886695684e-07			1.1150009519623178e-06																																-8.115921840934325e-07										-0.4385229324019262												-2.282821692918573e-06			0.10627320281599377				-0.49999920425046224	0.03861146709357661		-0.4401909236088181										1.3065995002940812e-06	-1.684328997613165e-06	3.3940892782058863e-06																																														
2014	12									-0.0934703601195551		0.02022316111401445								0.013526195696070796							0.03228131126240167														0.038885464923828356										0.04783201252061222																																	0.008144257501680827																								0.015101913843002654				0.03053019092389264		0.02263532330712827										-0.06274803212883084														-0.0023283103742306414		1.48019298112479e-07		0.06517296606707135	-0.29304037413256434										-0.23485252718713273	-0.10789090871005767		-1.570673951436877e-06	1.6903271059013387e-07		-0.5000006561033223																																													
2015	3																			3.2700247831270866e-08						-1.516777331969637e-06																				0.26596720675236524						0.3852041667955199																														-8.760900066817937e-07																										2.293865082231321e-07															0.02933579452411824																0.012463095548646894								1.438823926979733e-06						-0.5000019469404134	-1.292916544945886e-06	-2.4963157597279454e-06	-4.010279049630894e-06	-2.067562753018747e-06		-0.4999987498978159	-3.3283708180149713e-06	-0.13029791628972068	-0.2829818108506206	-0.5000036580787538	0.22032973319503596																																								
2015	6																																		-0.17765510498821943																																	-0.2881213841790303																-1.0455199839799654e-05																								-3.6263256496281563e-06								0.1755852485591387					-0.4999967972245499	-0.4999999891913575												1.90430308708254e-05				1.4621407726339984e-05	0.088074439564173	-8.28183796562487e-06					0.47334478123110946	-1.0402038698443909e-05	1.4106073148421648e-06						-0.5000083641913566		0.2789331898566906	3.397038334645031e-06		3.6334374752406897e-05			-0.05022081352978089				5.736207430596987e-07																																							
2015	9											0.061448760322673664								0.03379027795272927	0.05826542343460828					-0.022745380039299847									7.580331294471005e-06																																	4.886980970273513e-06											-3.5215214859784124e-06																																										-0.10372462211636226	-0.018509296877048158												0.10543529086784365					0.052266446467449455							-8.029963842977889e-06							-0.2853816045844938	-3.811929370982725e-06							5.843786414972043e-07		-0.4999961743280314		-8.930549293792621e-07	-0.4740076433323838	0.49999018780625176	-0.4068302696137383																																				
2015	12											0.06700355091012683					-9.956764809646327e-07			0.025951421718004814							0.12035779707108343													0.1077918267294229																							-0.19070576642801454																																																			0.10367026331340623							-0.22210937758428098													-1.237747882216204e-06				-0.2201701518588616															-0.2702454796939605	6.763829391908837e-07							3.8348575970796215e-08				4.7567383167239996e-08	-0.23113235429865112	-2.231980857059007e-07		-0.2904101714642436	-1.019286186284059e-08	-4.020799811686386e-07	-5.163905512002622e-08																																
2016	3											0.04750039839185909					0.019143140288418424			0.005649718076751138							0.08194868956809295													0.11380248364167438																							-0.23259101504919863																																																	0.14398725605046767		0.0359986519283824						5.614908083960368e-05	-0.00907679845249354																	-0.03946624225642201				0.10761186391104202											-1.4971958568107627e-05												3.0356460737334675e-07	-0.3230216026745628			-0.4756306847496002	6.584601699674267e-07	-1.2489996910752659e-05		-0.46432829834109607	-0.011562066670537604																														
2016	6											0.07752973715439754		-1.3185200550126086e-07												-4.7418284670756616e-08																				0.10713783809450807					-0.06209082285604232	0.33194701430429835											-0.4999999182786878													-0.07807616645406901						0.16159191472819476																																																														-6.787946416333884e-08									-0.12306473273472733	-0.2031821962956243	0.4999996946573057					0.4356324461335431	-0.40496373373206085					-1.6903348146791185e-07				-0.2424605714553186	-0.4999999696515569				4.068665609596969e-09	-0.4999999883803392																												
2016	9																3.829605680040565e-06																																																																																											2.6205656280485855e-05																										0.19169975892352623					0.06796937933609502					-0.09155754224516169	0.5000250601337668	-0.3025676560974633							1.6791722639387262e-06		0.49999484568680186					3.78075800227967e-05	-0.5000175978693164		-0.5000064378452741			-0.15919702126967794				8.536653030758437e-06	3.040697105807054e-05			-0.12133037202681478	-0.08518852423308218		5.2502134642003174e-05	-0.5000014241490279	2.0238035501344775e-05																									
2016	12																-1.3059689868807342e-05			-2.3478337925401952e-06						0.14520869465761663																																																																																								1.5224824349703056e-05																								9.027253741697614e-06	2.1538549868872302e-07					-0.0491191980333226	0.49994554055988166								3.074657604405295e-05	-0.4013625166028525				0.2524383995606824			-0.4999648854712878		-0.3289407419051243							-1.0874771367172123e-05	-4.268053455597411e-05		-0.11818697890651453	4.838141030681937e-07	-9.885195298405443e-06		2.0450529021285693e-05		-0.5000190854221617																									
2017	3											0.14156647563085512		4.3012258718479745e-07			0.001762521526335469																							0.14956051568394033											-0.052011039401669935	0.4999992958952116											-0.48633381327794767																			0.2649465619448839																										2.2091119263848792e-07												-0.1867697989041359																		0.16416971196440303						0.031122230474137483									-4.440347489620107e-07	-0.22738292857037076												4.788159907506688e-07	-0.4999985940461077			-0.22494528197519567	-0.5000016615036432						2.623665940924619e-07			-0.07568439141345161																								
2017	6													-0.0757961735407887						2.5743884869627963e-06																															-0.16885053006874537	0.5000108346640363													-4.474985526385251e-06																	0.09992706569487313																										8.862681815692913e-06						-0.030716899084468542	0.05596510416310182																							0.08824209820810473	0.06468594771765203														-0.29606587344970414	-0.5000008272009199				0.03098661091281045												-0.271358226625536				-4.063682319706797e-06			-5.289513560151476e-06		-0.500005544766829	-0.11826958824737001	0.12124639066337405																							
2017	9																-0.08051962824654402			-0.011924799356597543						0.10057332773190018																									-0.06300500944525766							-0.0729919194750152																																																		0.03298695144999311						-0.12357369915897604																								0.22229362454061097															-0.20602080467097492	-0.27351308785041445																-3.0127526984523155e-06	0.11078531246976411	1.1366972747406473e-05			-0.5000117629402815		0.2529068868863831				6.786590183457092e-06	2.1925920988659136e-06	-1.4800130246040968e-05	4.82916259419476e-06	-0.3879710457630569																			
2017	12											-5.683347876601676e-08								1.3455820272280116e-08																																																																1.1887217120314414e-07																								6.512724192927987e-08				2.0568937723079435e-07												-0.4020761888729361																														-0.47959774872089944																	-3.545491486837829e-08			-0.024042367705458045	4.310027383295131e-08		-1.2531416133586922e-07	-0.49999965450942613	-0.24244342417704656		0.4999993288903639	8.727394819021229e-08		0.48505657886782244	-0.1050286508183117	2.541717865518558e-07	5.311103916559286e-08	-0.23186785489681463																
2018	3																			-0.08542742045473979							-0.3028353022169893																																																									-1.210812685682515e-06																												-0.03968591949913544		-0.35139512220470226																				6.429984286298279e-07				0.5000003213206337	6.69639756296287e-07						0.33630434008905147								-0.500000465681671	-0.5000004542024836									-0.4999980766329228							-2.1791028932804256e-07				1.1822044844740473e-06	-0.10543235996286995				1.8469593630358792e-06					0.499999749195742	0.048468414154089805	-4.1293712172184283e-07			-9.9223550278706e-07															
2018	6																			-5.806694354408371e-07	3.8337307021774495e-07																																																																																																				-1.8111335708041743e-06													1.4664102127177807e-08					-4.269285689538144e-07										-2.6470086630607323e-06														-0.45304984326954745			-0.4585599841722054				-0.09526842650539959					-0.039693446841038316		-3.2693854097615875e-06	-0.5000014741997435			3.5593395058353775e-07	-5.153517013179171e-07		0.17709979227026015	-1.2218889016051095e-06	0.4569351865404306		0.0985370523487959		-0.18598743228205597	1.7991330158639597e-07													
2018	9						-1.1300096554445229e-05					-8.518229942272592e-06					-0.03211160205431557			-1.1407494406200532e-06																																																																-9.586622580019452e-06																								-1.2040654311947312e-05				-8.125806833037462e-06												-0.19553012682576976																														1.915804208967913e-06															-0.05079761905204682					-2.351869990470586e-05					-0.16825504943174474			-1.3605381262826402e-05		0.023783696395591608	-0.24850014071877655	-8.549050165998884e-07	0.17149444165331956		-0.5000188007585371		-8.287593875949386e-06	1.5491461250537888e-05												
2018	12																			-0.06284362747694244							-0.31635934015910994																																																									-0.1476881934380344																								3.428414335126472e-05				-0.27389749790789736		-0.3661010609866558	0.028101635668715277																			0.42231045491323854					-1.2366034812316813e-06						0.11200541693005822								2.5961582343604266e-06																					6.053326311738789e-06	2.9668425889082018e-05			-0.5000127159042291			3.442501678303416e-05	1.0915330906619825e-06			0.45550606816384903			-1.0962456704757194e-06				-8.167864601044222e-06	-0.3511015608765531											
2019	3											1.25560534405822e-07					1.8337432296466837e-07			2.6107328028625916e-07																		4.010099710291007e-07																																																																																						-0.3129279285913195																		4.26040972159639e-07												6.506832211206035e-07									-2.0808811501663247e-07							-1.292778827659128e-07	6.717534039701847e-07								-0.10709656409151598		-2.8075582390887e-07				-0.018379436891659776	6.31956722334965e-07				-0.4053037623605619	-2.2051413464873313e-07	8.16354046163592e-08	-0.5000002728811778	-0.10655495710319891	0.45026051752431573									
2019	6													-0.16219944751385598						-1.027431139192678e-06						6.584671080005381e-06																																																					0.07757706221937233			0.22087745525461566																																							0.041058989752747424																							9.534847969726595e-06					-2.1464070406916494e-06				-2.8323798125199815e-06	-0.3069747652870042						0.4870698692342343					-0.49999789624344687				4.602082388361581e-06					-0.4999904541125125							0.5000035762532927				-0.3550646600984882							0.16599748644459741	-5.406210605070824e-06			-0.1683770341815862	-0.4999979383813279							
2019	9											1.229484304026965e-07					9.499818223804465e-08			-1.7952841771430136e-08																																																																																																				-0.05514980515454675																			0.042214708061647364					6.517853849632116e-08									-9.731228292349664e-08												-0.1795376587035649	-0.2590128026665294			-0.02655086003490925										-0.13657239479869845				-0.5000000394868748			-2.379399106831637e-07	0.07366570051559886		-0.26746178158667533	-0.008468881890061399		5.996145634786545e-08	-2.604413444650803e-07		0.30325500205616285			0.013619409798603758						
2019	12											0.013335790489488887								3.114399523153503e-06																																																			-0.008649174315132969																																																																																		0.017109173329073742	1.1060436378384768e-05											-0.09564010537619995				-0.08688305065374348								0.07158524267316844		-0.20158885584260525				-0.461516447757474				0.000773915022115244		6.570516384420183e-06	-0.03714128781913129	-0.13764395509204908	-6.064547256026527e-06		-0.14191649328833145	0.18354686940368076		-0.1781261752441517	-2.525331204623336e-06	0.06274681922482117					
2020	3																			-0.005215362678076052																																						6.50894616486578e-08																										-0.06859827542706519	-6.21850814775362e-08																							-0.04940323403517286																															0.023564816506403807							-2.1174509459048315e-07																			-0.18567399760538902									1.7793811537944777e-07							0.029243957460580235						-0.0012363562029790525	-1.2658971510118242e-07	8.440953228470411e-08		-2.505756070127782e-07	-0.03829883703352481	-0.22471197093154435		-1.1438290456008652e-08			-0.07299837801465264	0.09332823203489633	-0.5000002313644477				
2020	6											0.09296689309381281																																															-0.15567710914940333										-0.3874070065024435															0.006841090319185604																								0.02390092272723978							-1.9962862564442526e-06									-0.08190969679581708															5.188450630126654e-06			0.13471404219774613												-1.5781938660572464e-05						1.0916886575038898e-05														-0.10012467839370182					-0.49999627463064944		1.4079726807747913e-05		-0.4999944884980738				0.12916603211352967			-4.978205382456647e-06					0.5000055847293047				0.15157226259457116		-0.3140697549633014			
2020	9																																					0.06887782751987984																																															-1.348561205086951e-05																							-0.12191905813481627																																				-0.4099082913337066		0.13188832837631376							-0.032381644921288984	-0.1315745006628176						5.051379149323497e-06														-0.2134059986472508					-0.3734275741992773		0.5000051642456012				-0.5000151011593409				0.30822897650236974			-0.1874139874099328			0.5000029647812556	0.46091966733951006				-0.500030947649567		-0.49999553929937324	7.075902260724593e-05	4.715816084614576e-05
