year	month	ABC	CCU	DAR	DECK	EPC	JBSS	KO	LEXR	LTRE	MED	MGPI	MIDD	MTEX	MVL	PPC	REV	SUP	SWY	TEN	USNA	ANDE	CHE	F	JAH	NATR	NLS	SBUX	SEB	SPTN	STKL	TAP	TIVO	TOM	VC	CL	MNST	MTH	PTRY	TPX	TRW	TSCO	BID	CRI	ELY	EXPE	FDP	KCP	NAFC	RDEN	SNMX	DPZ	JNJ	OATS	RAI	SXT	WBD	HLF	JAKK	MCK	SKX	VGR	CAA	MOD	NTRI	PBH	CTB	LEA	THS	GT	ICON	TUP	ARDNA	CQB	IMKTA	SEED	ADY	CROX	GRMN	JSDA	WWW	AMZN	BG	BZH	COKE	PAS	RCII	SAM	CENTA	TBL	TR	BARE	FACE	HBI	SUSS	WINN	HOG	IBA	WRC	BGS	ALCO	G	KTII	OME	WBC	ETP	ADM	DAN	HOGS	PNRA	SMG	BC	ATVI	AXL	STMP	DL	FLO	SENEA	CHBT	BRFS	CZZ	GM	PRGO	SVM	CSKI	DOLE	FOSL	LO	DPS	JNY	FARM	MDC	CLX	PRMW	SPB	TTWO	IPAR	SODA	TSLA	WFM	INGR	URI	BTH	CHEF	EA	ZNGA	RNDY	HSH	CG	PEP	RGS	SYY	LFVN	NGVC	WWAV	BDBD	LKQ	PF	CSG	COTY	ENZY	POST	SFM	VFC	ESI	CPG	FGL	MJN	ABEV	GPRO	SC	WES	KATE	NHTC	DPLO	PFGC	FRPT	SFS	VSTO	BETR	BLD	ENR	KHC	NOMD	UAA	RRR	TPB	USFD	ELF	ADNT	TWNK	NBEV	WOW	CELH	ROKU	APTV	DLPH	CRON	HFFG	VNE	WMK	CPRI	EL	PM
2005	3	-3.3180088837170583e-06	-5.707800106015697e-07	0.29803789735236885	0.33594899974839326	-0.2927934335925682	0.06770916706715326	-0.4313008131781598	-2.346154058571553e-08	-0.12057434185624293	-0.16736442504090737	-0.0017895919972065434	0.16068478463332628	0.003935552878726479	0.2011796911870721	0.49999800783314124	-0.0677989989342992	-7.882210845811682e-07	-1.5522722346570333e-07	0.00578381277000505	0.008348738279492179																																																																																																																																																																																							
2005	6			0.0715399069044486	0.06836243649326532	-0.054863492098483305			1.200940276803612e-07		-8.821948474777003e-08			-1.1751235983185285e-07								0.32103115252363995	0.1350831138722844	-0.02346245386695873	0.3152636501343399	0.018747915429961064	-4.7137146625681924e-08	0.073139936522001	0.09861396819967663	0.03218636330503643	2.507881941473262e-07	-0.5000003238110315	-1.670659337742454e-08	-1.279713622065959e-07	-0.05564256647464152																																																																																																																																																																									
2005	9								9.398714369167404e-07	-0.4375258091240707	-0.13492485717225178		0.12790254051328426	-3.1053833921252505e-07	0.2069480741853115	0.5000015647464361		-0.48280132691214245	1.2379638700932552e-06	-3.891633995136422e-07	0.0329533511921171											8.847670498154548e-07			-0.1960672211684258	2.18550921541077e-06	6.285990777785825e-07	0.49056921131399117	0.11868433847651222	1.0526342727909616e-06	-2.560842703115013e-07	0.2742511458561873																																																																																																																																																																		
2005	12					-0.3881615207908791			-2.620470901357824e-07		7.17011041118674e-06			-3.25530077377566e-07	0.17586662263405245	0.49999385983477					0.04785405032106068												3.42250961996583e-06				1.7381553686577424e-05			5.9938269633500836e-06	5.0026769563950945e-06		9.199855545636212e-06	3.7003311373824376e-06	-0.09186734882858658	-1.2287909988472457e-06	0.2662050433330111	-0.14532500568807855	0.13537650408164872	-1.0213060788590914e-05	4.598366725133678e-06																																																																																																																																																									
2006	3												0.1419552124958966	0.02277863858571613		0.4685798542149654			-0.03437933151207722	0.029537187391396564	0.02885522336593507						3.176007328831021e-08									6.263630474976959e-07				-0.0071706161863232835		0.19699131943847445		-5.661198486348117e-08		7.025546674761818e-08				-0.49999963607156733	0.12168060832705314	-1.1409271248162567e-06	6.753832475663755e-07	-1.4621490182357689e-07	-8.35017958322369e-07	-0.11641646319484898	0.14758803472059556																																																																																																																																																			
2006	6					-0.5000028437120303	-0.0063377231332209195				0.08699980191969468										-3.544919742468404e-08								0.43540603934961025								0.19305757107814056		0.10771484601521754	-8.729508867069543e-07					-0.2639826253993458	4.5456907403606947e-07		-0.3335419269857103		-0.36661088049474294	-9.059697808158335e-08			-3.1837632915288e-06	0.5000031977979018			0.32417784176150477	0.1503472462508288	0.09105764975858024	-5.683002414678569e-07	0.08171602743072827																																																																																																																																														
2006	9										-7.409936204418291e-07	0.01670550439501621		-0.009900868457471134				-0.28554881598573195			3.0694293860242767e-06								0.06545588703753039	0.06986892366543843	1.0054558420973371e-05		3.074058115155386e-06								0.10604583780447231			1.2300067447053455e-05		-4.883589770112124e-07	3.237464512483248e-06				0.2645182639618954	8.131433598786646e-05						-2.2098501266103208e-05					-0.2272838858075894	-2.010701234047616e-05	0.49998130442510264	3.517746413109247e-05																																																																																																																																										
2006	12		-0.01851463630025942		0.1696503945556724					-0.22755984557283007	-0.057632002722474235		0.1512914131959694	0.015754339883461643				-0.4483804960455266			-1.995743145258703e-07	0.12471738604773572					3.1708420349533484e-07														4.365647238453672e-07			0.19977390145346696		2.3767357082624265e-07					0.12380226662046799					2.805694682678677e-07					0.062176837605714116				0.5000004019785985		-0.09508172285559886	3.8824240717220935e-07	-4.087003263373303e-07																																																																																																																																							
2007	3										0.03750797528508395			0.0022633094588565524					7.611893717604255e-05		0.09257778832090026						-0.09426492268879484				0.10033729152254738		7.918822544456287e-05		-0.04782458849298715		0.18832423971109072			-1.060237148655844e-05		0.20693955184129262				0.013758532981602558		-4.8709530747008616e-05					3.848162464901958e-05											-0.4999340227507183	0.5000971114695252	1.0818341405654761e-05				-6.423117397520515e-05	9.53036998202007e-05	-2.28151239174372e-05																																																																																																																																				
2007	6						1.0683121022443106e-06			-0.10289638171774755		0.08743910430219734				0.13943677550951286	-0.06775586331820829				2.872040310131529e-05			-0.06972992719602059					0.1333371385100866	0.08507992595487339			-0.011290312043489494												4.073649458167372e-05					-0.15182826650926967							0.18568379032892926	0.10581396855044276							0.06296450496273309						0.23178105066887994		0.18585848002682379	-0.04378920461601571	0.22981394566020752	-0.5000275304760303																																																																																																																																
2007	9						-0.018723008544469896							-1.2160230249424072e-05		0.203468993174316					1.4494085564562654e-07								0.20004164709913844	0.14033199881276925		-0.42216229450499915			0.044176007047707515							1.1716646373278653e-05								-0.18890074176217694			0.15535890288460102								-1.807661706925999e-05				0.04895510269206049				-0.38490170586879285				0.2192738075709798				-0.15278700515890314	0.10126093640196947	0.15110967469902958	1.3967136226687602e-06	0.40346798240833853																																																																																																																											
2007	12						-0.03349530845799685				-0.013733356148956061			2.2823786231320055e-07							1.4594881781151512e-06												-0.02368570013637531						-0.0004351900773224372	0.11057873787124772		-0.0218035410756031											-1.7673518901430666e-06											2.9575510828984754e-06														0.025669194262438178	0.12300452782689893	-1.414731314027394e-08		0.03958487881290077	0.21843113614309762	-0.07570010004616856	0.0061572955665166245	0.13583290410026067	-0.11780990930813881	0.12740108612224643																																																																																																																				
2008	3			0.17242417972620647							0.06666241562810725										0.0019265878463974925	0.1302177767320046		5.347408307118775e-05							0.19231256178814976				6.498141928160216e-05											0.06858327716400303											0.37745955768655903							-0.007758668133431383	2.040040001906808e-06				-0.030158269633710256		0.37641873828791483					-0.5000722885806473	3.997270042133425e-06	0.06939778870606098		9.623581610557803e-06									-0.3811827184948899	-0.0363384373615344	1.3186659927472605e-05																																																																																																																	
2008	6			0.1451875625738022								-0.07570198495975898		-0.03392887083042278																0.05936473114276966		0.2023856581429129																			-6.574765009473044e-07						0.22681127401120113	0.030623694984681253								6.332044505126142e-08			-0.1258885482844411		-9.867620783172246e-08						-0.07739853763352376	-6.197605803101657e-08		3.835014438048775e-08									-4.334084111278863e-08			-0.008690257733399312	-8.608126860505552e-08	-1.6262998782983606e-07	-2.8214137658631814e-07	0.15723580249199282																																																																																																												
2008	9										0.030419774201238838																3.969827091601498e-07						0.02936739522102227													0.036484429982467016	0.11730368887170951				2.1257323397665996e-07							0.28921736583140656								-8.590617694595654e-08			7.356624491242455e-07		0.11883104869937788					-0.2250677206461433		-2.735509639692084e-07	0.10343992143402464														1.5308217192898199e-06	0.5000009414602755	3.14674296793528e-07	-3.77675502369153e-08	1.5371652797412445e-08	-2.0265954425618398e-07	-0.49999948838890124																																																																																																									
2008	12										0.09077747629130913	-0.05068512990228055									0.0661971344694531										0.09617199688306644	0.3786732177822428	0.06233504478777687							-0.05430405565859092	0.1910920745440558	0.29425907399677076																								0.28045044000488273				-0.020842816446207026	-0.030230989967979408					2.2021159362770445e-07		-0.08159719083948956											1.360658057323494e-07			-0.4999995944789782		-2.1770031674384237e-07		-1.0591065871081646e-07		-0.2222967958594032		2.2722381270995983e-07																																																																																																								
2009	3			0.15367409883165598										-0.07267455804621462																		0.29366095132316083							4.855187686696553e-06	-1.0692370868624974e-06	-0.23019947680756228									-0.09666654944751661		-0.5000056293554933					0.15234901294322306							-0.2156924947872316		-4.3947900719819e-06																	0.2917549545852882						-0.1456897684859457				-7.249892462476002e-06		-0.022619381607431537						-1.0466861656653075e-06	9.455626956866789e-06	0.49999495845537645	0.09150019340547257	0.30061827128634444																																																																																																			
2009	6									-8.718052975577708e-07				0.02104374822863635						-7.590219168368592e-06	0.02700264733711947																		0.04148860551459396			0.1385466131381692							0.08419223199420318	8.498023747149596e-06											0.009982984110186856															-0.014263657346307784	2.7233871907567663e-06	-0.03475292938569719		-2.4242474597001192e-06			-8.894343696924274e-06						9.76467051547723e-07						-0.01763648129668649	0.16031928291624445					0.5000043277543744	5.401374818644836e-07				-0.4159139278124585																																																																																																		
2009	9											1.8678434345178587e-07								8.751012672764139e-08			-3.736548804872775e-07									-0.098735710170627									-1.5032579302293427e-07						-0.025956688943498597											0.05152157293675367																		0.1829751399243477		0.024898928575101596		0.11824542170911254					-1.0949911411825051e-07							-5.705804277324889e-07			-7.968990864710637e-07			0.5000003126966677			-0.1949529239681344						-4.628117775395047e-07	0.44200633040850545	-0.5000002680892494	-3.6617061962086416e-07	-3.5141644903046194e-07																																																																																													
2009	12										0.041441611820097826	0.004632214778696361								0.0003740947228826608													0.11528801782301049						0.08810786417292192	0.21834488241964953	0.02530703944302984							-0.061010630650408036			-0.11341759588908158	-2.3607758781037842e-08						0.11212994727015681																			0.11490896950259571			5.841112878216972e-09			-1.694323307992724e-07										-0.499999874553299								0.5000004885063052	-0.04610740426202458						2.1963991155393866e-08	3.589484121664143e-07			-2.4686663180878737e-08																																																																																												
2010	3										0.2620407483307053	0.057884706645003815				-0.24235822673266288	0.3105208578248803		-1.650718737122295e-07	0.015449861825968789																					0.09646603653007495																							-2.0469518337380974e-07				-0.500000441871647										1.0055157372952461e-08		-2.76783819522702e-07			2.804773543830491e-08	-1.2263181842224265e-07	-3.08229254510437e-07		-5.496878630931847e-07								-8.059119745856869e-07													0.49999990116306					-3.1193254507726516e-07	-1.1989964497248304e-07	-1.8574708030966823e-07																																																																																									
2010	6											-2.560298764456987e-06					-5.011375247383513e-06			-2.78498367560678e-07	0.010528887534169067						-0.044308289929423574			0.02285819456457211		0.07886562025841683									-8.866324122003169e-07									-0.09752668816328215														-0.03242438516768879				-0.119322995364475									0.01458320133080306			0.008832663562624379				-0.023776117485770503					0.04066363270853588																	0.35656911215647463		0.03582947827047548						-0.023028488184571986		0.18170084853471175	0.08996647668764111																																																																																							
2010	9											0.11936208518826917					0.33742619731256507			0.05100083872622069												1.318587972043317e-05									0.19157756782214364																							0.5000171067627951													-9.067115083749518e-06	0.1541470202725899		3.4734652034633036e-05				-6.362650651650355e-06											-2.760334553789876e-06	-0.5000006176387264					-0.5000738257570232						-0.00012447051640355496	0.273258650185653				0.12569979883758498		-1.4774230807352534e-05	-5.728114294897919e-05	-0.2523713051012837		2.8957940898184527e-05																																																																																						
2010	12										0.2512385576860497	0.1054958264290104				-0.10292638064243376	0.2444478972959615			0.050466459641401784																					0.2240297426261395																	0.5000417548613348						0.4382592523908893				-0.40753655371041086										0.18106862806695112		-1.8019509081234848e-06			1.5512652673844474e-05										-0.03088433301352536		4.5425799194255695e-05	-0.5000038111734939												0.046265583989972034					1.1633502307747876e-05	-2.6439617318643024e-05	2.4453260822397356e-05				-0.5000178883532029																																																																																					
2011	3				0.1262798818731783									-0.00010790698355334799		-0.03588176559300716	-0.00015785474528847755			0.020237259700717367																				0.05333562206312309																									-4.168102748974427e-05			-0.1389008714311022								-8.93779448171492e-05				8.26757185869458e-06		0.06309854939922757		-6.473008690958772e-05									-7.939648354031048e-05			-0.07381733755957887												2.7167611491725215e-06												0.24121747660732223	-1.1504157059341947e-05	-0.1447094400900164	0.07371188399789147	0.3160039256139229																																																																																
2011	6													-0.012576450681256094			0.001963859712091998			1.315555410196106e-07	-5.145811007252511e-08																			0.025412223089630138																																				-1.1369615021069784e-08	-0.005685553661562755	-4.164257474922497e-07				0.03287101808196858														-0.11597110853313532	6.324960004463352e-07		3.4449981280788976e-07									-9.491416129415247e-08												0.3518627003539281	-7.49520265305821e-08		0.044041679805810495		-0.08611838604092423	-0.020461478433349802	0.0388706225920331	0.2457896102433148																																																																												
2011	9																			-1.3046034145269026e-08						0.059046302454111896	-0.03728610023752193														1.0337002652297324e-07																							-0.0658840960549961			-0.015964152141039772													0.01565319190990104		0.046930509766214254	-4.150066624933656e-07	-0.048455616708277305	-1.0668811968071275e-07										0.011403717463897825													5.2113440430487614e-08						-0.035646401393122015			0.02084102745426958						0.07330783323074415	3.8801754888152397e-07				0.40456367524270526	0.12579366148912638	-0.05430387914983128																																																																										
2011	12													-0.1091065571869928		-0.13782311720869383	0.1255554975450069			0.0071416297698105												9.929760936117435e-06								0.4828545354651338	0.052183704501795714									0.5000123590976688								0.5000073289200029						2.1509430252553865e-06													-0.06260168358492242	0.1424149810250639		2.6259470908408975e-06													-0.08451353188070929															0.031781511504043077	-0.2846325946580968					-1.0062607407888878e-05				1.576449637677064e-05													-0.49998833587111124	-0.16331635758215216																																																																								
2012	3									-0.07537030938092737	0.0471241244205805	0.05275478558584357								0.040342389696685306																					0.10419600959081865												3.390483949624299e-05												-1.1884314324570658e-05		0.05501875435067979						-0.00011326537187414206					0.10827253162937384						-3.869194845916966e-05	-0.00016254175686636417										-6.10117807285054e-05													0.10392386123102886					0.00013566065180560074	0.049080843464388145		-0.35498548483785025								0.3700756458590052				1.871114197316294e-05					-0.00011335232964025599																																																																							
2012	6											-1.1892832468523776e-07					-0.03283189818012585			-2.0111917224771516e-07																					-3.234498610822351e-07																								5.592163631908456e-07											-0.06932202782307333	-0.09774202980852872	0.15284088995439424						-3.323961866507036e-08	1.047433821829697e-06																-0.2129611208212392							0.09740252772336394				0.13360079210974635		-2.454138612931516e-07						-1.6933316723639373e-06	0.49999792783725305					-0.05164215739076087								-0.3866505099772239	0.49999766930295764	-0.032687301139458266																																																																				
2012	9																-3.0645817119921436e-08									0.18213615379658607																				0.12794062001541961						0.29828202285769834													1.9347811324830324e-08											-0.029393099131118493		0.039177863258321836						2.0732793836332594e-07											0.3740905943130759													0.010694970944513948				0.05370784959012468								3.8873963692683597e-07				-1.0480271635756168e-07		-0.027944340246735783					-0.06639299461926707			-0.4999997649226096		-0.13098715289531265	0.16868755553780956	-1.1038900223661817e-07	-4.2183541689575277e-07																																																																	
2012	12																-0.0001987855141090614			-0.0075528030706867085						0.10641048497906583							5.960619318712324e-07													0.07920899030773035			-0.042125645210252964																-0.01838098354177513											-0.028938301460868673	5.633076412237059e-07	0.015093149655197187						0.026153773106210004											0.13678008914641968													0.010412484460895807																		0.10370880705152993					-0.10092447930411566			-0.22464764806684834		-0.011358034563778187	0.10432616491156048		-0.14796859517101224	0.5000004360420348																																																																
2013	3									3.193344764587617e-07		0.03897529454399256					0.06144765562142637			0.02490218931031897																					0.10327240008567032												1.5289181131914004e-07														0.15326972327057847		1.2433172256228247e-07									0.08072629760673333						0.12987783700868694											-1.2577610400684835e-07													0.04782927211887477					-3.9646591569846915e-07	0.13250919557542298	-3.090145990245227e-07		-3.4716407807320373e-07			-3.0328427859482895e-07														-0.4933348092070168							-1.9805509980563307e-07	0.22052607593792548																																																														
2013	6									-0.007616899206731099	0.04196006413365208						-6.555826579715585e-06			0.021675415589445492	0.0500864791077448														-5.429009990799296e-05		-0.0055240092119411225			0.06886831931240829	0.08578671045889447										-5.040328053267935e-06													-4.8446481006307284e-05				-3.224100500487014e-05																																																						-6.627903744404742e-05												-0.14822155137826915					0.1440061755158664	0.2834170749971494			6.91473775497668e-06	1.6278323381919579e-06	-4.469306339743795e-06	-0.03423544579008682																																																										
2013	9									-1.8737213613611283e-07		0.060216611807744125								0.03308330797550678	0.06983220920441181					3.203076090119999e-06									-8.869221736909052e-07						0.1027428180117095				6.948041358411136e-07																							-1.270237334473835e-07											3.5798242090813094e-08																																					0.16111637130298687						-2.0653124814837461e-07		-1.4398644810679481e-06										-4.52643103572904e-08		1.2045722797905452e-06		0.1758710466163893	0.021384266865554145				-0.47168007141486057		0.3025577544120231		0.04487421242193931																																																									
2013	12											0.09517205220861615								0.06742621335831649							0.2384599419377207										-2.9068096423553485e-08			0.32516116947570406	0.2092587938843012																		-1.7128429888130777e-07					0.20764907084910267	1.8776134986277104e-06																			0.07849551671366625																								0.05504489713947907				0.28346923810015473		0.26337925867373785										-6.103393448528578e-07										-9.448895687349655e-07					4.4700597901233397e-07	-4.667461876527733e-07			-0.5000003958817648			-0.32351401231486615		-0.5000032874003509																																																								
2014	3									-0.06457144685581377		0.035395586019561845		0.034046628791662266						0.027491623917044617	0.06031608744263641					4.061879684765803e-08									-3.1883048668634e-08						0.08974923450853024												4.538688041074857e-07															-4.883933568170497e-08																	-0.03900045195927482																							0.06698626525447775								0.21696399390335222																		0.057805750683538146					0.1499316793016746							-1.2297963415091398e-07			-2.045805555224202e-08	-8.014471122462077e-07	-0.13511491468542589	2.640963242032057e-07																																																				
2014	6												0.1740595653196034				8.001173188120539e-08																													0.04725668135230771						0.1656062306750266																								-9.169151169123584e-07		0.008218896490722424						-9.006695688991168e-08																								6.020162903764178e-07				0.02200332236303481												-0.06862292108817325										-1.009491934576203e-06			0.0670509275559441		-1.1686028955838726e-07				-0.5000028334405772			7.180816176517186e-07	1.9926296930439773e-08		0.08443241162169329				-1.1188841038810913e-08	-9.9185071485579e-07	0.5000016734456106																																																	
2014	9											-3.2148920508168953e-07		2.1625107347815793e-07						-1.1845346200063591e-07						0.010997997243580254																				0.1026796450692919					4.7514225861507736e-07	0.14302050807723082																								-1.577112302660444e-08			0.06383422963803573			0.050112339435612746																																-4.313633328882015e-07										-0.061326368789587374												3.2741662017050986e-08			0.045538192104844305				-0.38700892875584747	0.03215141220216381		-5.234622836150981e-07										9.09197303807776e-07	2.5348488290489927e-07	0.5000003884341739																																														
2014	12									-9.544929309857712e-06		0.11159183740123414								0.03504678123595498							0.21532508041274953														0.1830227664632593										0.14635020558532214																																	0.10850471662018872																								0.04876961911976115				0.33406408148477673		0.12866496416953643										-0.160612580020187														-8.218571163397411e-06		-2.4699454980165e-05		0.46378021453928137	-0.5000125348848787										-0.4999827193650701	-6.388885314653398e-06		-2.122983114548769e-05	-1.8758220935267604e-05		-0.11441170779417126																																													
2015	3																			5.610629325867071e-09						0.023083017699417473																				0.11070639354724349						0.17824170334776035																														0.03697037548730601																										3.913549356710575e-07															0.10847047442362946																0.020232372050141934								-8.502271013327883e-08						-0.10672239510561252	1.3260773854233653e-07	0.32099952092068296	-1.6515589919402746e-07	1.0404650259069786e-06		-0.45357908837080285	-3.7880458114477056e-07	-0.08426924855622304	-1.9753893983235172e-07	-0.007086203149971495	0.35295151291370525																																								
2015	6																																		4.4055827295509446e-05																																	1.60194174567814e-05																5.255094137352263e-05																								2.919701700335664e-05								0.07310052152110447					-0.07195663442130945	0.00011387099028135282												-2.9268988057953548e-05				3.650514991579708e-05	0.009773488687127716	3.6266369299731233e-06					0.20666075444034712	1.2520884775228021e-05	2.5193369466139415e-06						-0.22996536241538287		0.2299947684811498	-8.953567605924071e-05		0.28453270614623977			-0.0023549387004628618				-7.860442151733264e-06																																							
2015	9											0.04643844531387823								0.015904522009655805	0.06075263116966602					1.9654581871817768e-07									1.0638279532960956e-06																																	5.326005244901254e-07											9.536261909766036e-07																																										5.349928453278411e-07	8.954946866226942e-07												0.13302965199533726					0.08178223488709178							0.04379285070771847							-0.2811015137026253	0.024229625012758108							0.0023184926146271397		3.9911829266313367e-07		0.0012480466897694764	-0.12839885931231873	0.49999930033997503	-3.9095129140307406e-08																																				
2015	12											0.24396683957391554					0.17111832278964423			0.08980555587299971							0.47820836948470213													0.5000540435601816																							-0.18618590958593662																																																			0.41930940423643587							-0.3606730936907491													5.632232350477271e-05				-0.023972487967639896															-0.4999411031916496	7.47316322387922e-05							5.1349075132382547e-05				-6.441186969465755e-07	-0.4256825677871707	-9.926790965515248e-05		4.291166597959194e-05	-1.1183901901299153e-06	0.09390409784439505	1.0162195678994465e-05																																
2016	3											0.12849704647902815					0.11793447415368931			0.024963144691866723							0.21321724107904394													0.3731786907971533																							-0.17815196124424224																																																	0.30304972663205565		0.11019542001121956						4.083081735055906e-07	-0.08035715717466317																	-1.5015854397647451e-06				0.32583673970560634											-7.475316516094932e-07												5.025611076197534e-07	-0.33835766981851273			-9.722367567380578e-07	-5.222133633722942e-07	-2.8767970667639576e-07		-0.5000002738359479	-5.04604181651318e-07																														
2016	6											0.03246401333330355		-6.539002531246319e-06												0.019196725023460703																				0.05436845849106248					-0.0038567423885148824	0.16482058577935577											-0.13183330373868107													-0.00861584294472285						0.09712721021681023																																																														-6.146028135051782e-06									-0.015652711013580362	-0.04616672645686673	0.42236015493692214					0.23696828954036925	-0.05210396308747676					9.322227561831472e-07				-0.06704148227786977	-0.17751517551246102				0.0009195435264958639	-0.025423427625686796																												
2016	9																1.19580614891983e-07																																																																																											0.005416739296725887																										0.08213347671326535					0.028006674166954775					1.653655560730067e-07	0.17835605025078288	3.871990910785076e-07							2.168603189453435e-07		0.26608255485750676					0.025294869704279244	-0.0032161767775481537		-0.030389709000008095			-7.305232074509251e-08				2.5151893780682416e-08	2.5094365918263346e-08			-0.00887135966782505	4.535795556996235e-08		-1.7883147052306273e-07	-0.08943785636594576	0.046624016604290115																									
2016	12																-1.2298842172066685e-06			-2.1856026155683855e-06						0.04809137912984179																																																																																								6.245602989063422e-07																								0.007426463573006905	0.017031903133693082					2.26980589754364e-07	0.2595263169945254								3.1827865788984106e-06	-0.054496801784618895				0.4999959951542468			-0.12467147729246258		-0.03629604098171114							2.1071965210260555e-07	3.864574645375761e-06		-0.003982387737210413	1.1201312855420557e-05	0.03762524987048019		-6.574959849126747e-06		-0.15027050784410953																									
2017	3											0.08432360605034049		-1.943333406469762e-07			0.018750547343139863																							0.11988714913577357											-0.008789630937773307	0.4777232538551941											-0.17152426279513155																			0.21144048142720567																										-2.017729673800597e-07												-3.957575073388918e-07																		0.14257276875110295						0.0709358058100692									0.011615894009172666	-0.08161159216000667												-6.2533860374373e-07	-1.251247910586536e-08			-0.09951655089760832	-0.21333653370492964						0.01472199171331236			-0.07719164256321123																								
2017	6													1.0526034736276684e-07						-5.142138908428808e-07																															-0.007789948041299367	0.1732900901660086													0.026176167684472774																	0.06463509501323364																										1.124164314187106e-06						4.4662564783218134e-07	0.05121927567808368																							0.035402736823502104	0.04480462768229274														-0.0409421799717454	-0.08305720060076976				0.5000014240698224												-0.04113862992060561				-7.027318938816629e-07			2.442250137529454e-07		-0.22387930930581976	-0.026201411337143623	0.02747948900609224																							
2017	9																-0.04065602676453028			-1.4852641743323345e-06						0.18427581790963085																									-0.00774246300325826							-9.889490054229328e-06																																																		0.0758342544672023						-0.01800130589151279																								0.32275919051036606															-0.1566566717789568	-0.199842003919666																1.187000002011693e-05	0.39105469132144766	0.39206892567131824			-0.50000888544818		0.3695276862068263				3.074219668980888e-05	3.9677381340883897e-07	1.4508537287515774e-05	4.442847798813712e-06	-0.3126750161085184																			
2017	12											6.389047421526264e-05								-8.580250759444861e-07																																																																1.181974633092003e-05																								0.01118431412457912				4.7342569261584975e-05												-0.07567288559837054																														-0.15051212377584683																	-1.5173892129498145e-05			8.429758629283408e-06	5.281241761353466e-05		8.96823549715917e-06	-0.16554284179544265	1.300755063956114e-05		0.4724138205134522	2.0216410361734066e-05		0.40798438309682666	1.2990636638174935e-06	-2.317524927768859e-05	5.201020054088599e-06	-2.407949648855773e-05																
2018	3																			-0.024940165103337783							-0.052773424156907195																																																									-1.4749700405272802e-05																												-4.40857275494215e-06		-0.05563454950894428																				0.00998813255068261				0.3277574293070505	0.020171203129684314						0.3614601599080589								-0.1242151666084842	-0.11386924733437687									-0.1257824635030034							0.008833182629058425				-1.0768830854337967e-05	5.633409241335733e-08				2.72042030159762e-06					0.2690304805814723	1.6603120911287174e-06	8.04926229480985e-06			-4.187626095471052e-06															
2018	6																			2.3185964254523357e-06	-1.0056390831356751e-05																																																																																																				1.5871711254221404e-05													0.055031555023681865					0.03235150665477546										-1.6381252556736525e-05														-0.12013575977969836			-0.04106872271205384				-0.0023141046757399098					2.919128045216433e-06		1.065718486026627e-05	-0.4999025907090538			6.718474436102961e-05	0.17257368640577972		0.1718593584353449	-4.0595309739417844e-05	0.23156740142281695		0.5000088002289046		1.1181212116401467e-05	2.6627385603060995e-05													
2018	9						0.16250022186378216					0.02185653013094535					-0.12947623960007398			-2.3082541482104656e-07																																																																7.793361260491633e-08																								0.025926852176561193				5.675583263823406e-07												-0.19636821161892132																														4.84738457825182e-07															1.1232953917985916e-06					5.527787471194398e-07					-2.296258308648405e-06			-3.21559967632896e-07		0.4999999865127408	-0.38161016167986195	0.49717280698849464	0.5000015244618752		-0.5000016347733051		-1.6455391715986855e-06	-3.2357076541873344e-07												
2018	12																			-0.02028123183313217							-0.048596346867284416																																																									-4.062209609951072e-08																								-1.4579433219724557e-08				-4.0765147342072574e-08		-0.03925669603099987	0.20129310136322404																			0.2536690029119938					0.024617551947466225						0.4487165755182593								-1.1163531889302953e-09																					0.011755130632221862	-1.9403260648697408e-09			-0.5000001909587826			0.008117715656398248	0.08393992961204455			0.1778967088428497			2.0766435345448162e-08				3.0067436545749595e-08	-0.10187114751947503											
2019	3											0.04649903117036201					1.3023614264974382e-06			-2.2095540642107593e-08																		0.05730769483248632																																																																																						1.0820105768200744e-06																		0.12091860035951928												5.150494025529355e-08									0.0823438861508075							2.0018096399255817e-07	-7.842359197649244e-07								5.613300137520534e-07		0.3040096376875744				2.0229029354156952e-07	0.05456788967216804				-0.3986209371293033	0.2621481400229015	1.4729190701272034e-07	-0.49999996648189604	-6.958557810810352e-08	0.47082232325150425									
2019	6													2.1749274389831254e-08						-3.228631696448746e-08						0.03168153120472423																																																					0.12049405695078738			0.14144015858691386																																							0.0664078621614581																							0.047161521841198886					0.07930506497944316				7.17730796706362e-08	2.494469238945696e-07						0.1041201235873197					-0.14551309498022294				-9.381114364533297e-08					-0.057629774819240025							0.20091216940986067				-3.006810123897369e-08							0.03848566930661195	1.551008379466923e-07			1.6584479076427835e-07	-0.1268658612495297							
2019	9											0.025108478716031384					0.019260816234101894			4.4839794520034423e-07																																																																																																				3.8467498515710404e-06																			0.48212233409126526					4.757448379622173e-06									0.11126803840682463												-0.4999985043049548	-0.46734755179543513			7.897046775124773e-07										-0.028381271451385446				-0.43576136818125727			0.05092917595068086	0.5000026454005383		5.4438663596303045e-06	-0.0543689456244888		6.192098145211749e-07	-3.0551716484038344e-06		0.44935739704040784			0.34779638958843306						
2019	12											0.17941866595985062								0.05093267171745004																																																			-6.42253202121663e-07																																																																																		0.33575352866596636	0.17938044404935174											-0.48547544230749734				-2.4341859819800673e-06								0.5000005943751858		-0.4153882236609339				-5.416620425488812e-06				0.04576153827570365		-1.0492629639898131e-06	-0.1026428309308293	-8.320399849156341e-07	-2.441377257196411e-07		2.000898797245799e-06	0.4999981325905562		-0.5000022704833943	-1.1455466774502502e-06	0.21227754257697146					
2020	3																			-6.49647663882237e-08																																						0.09098400332184083																										-1.2416095982445542e-07	0.10270213744759477																							-2.774946792023096e-07																															0.09777632867454054							0.09046829886315973																			-0.04474508104970788									0.03145682729673989							0.07213237292224432						-1.5339364291241084e-07	0.4672543113967811	-4.954676778844792e-07		1.8983434366523202e-07	-8.415016134194085e-08	-3.095970297140068e-07		2.4010147405172147e-08			-0.024743988939734812	0.116715851943798	-0.5000000075876299				
2020	6											0.11602621285160963																																															-0.05624358405439153										5.640900658975786e-05															0.013824875524901765																								0.029704655899662553							-8.296994266223366e-06									4.5092797192798625e-05															-9.253938037399156e-06			0.21987661984257134												2.3996733575884494e-05						0.00012001650576712096														4.296506209699814e-05					-0.2798351669768782		0.0717849103836413		-0.4999394953059838				0.17891496289763742			7.579305054743181e-05					0.4999800846798194				0.20541913207423748		0.00015521802710005103			
2020	9																																					0.04236822570671722																																															0.13037656189517613																							-0.05279044120022409																																				-0.1271903647115549		0.22769037662103908							2.3874505137022904e-05	-0.0012124834333775028						2.286283543156531e-05														-0.04305886122119739					-0.08069664805609236		0.25801018613709376				-0.19657817748772421				0.07229890642837221			-0.0544417978778248			0.21659409473551003	0.13184491013550298				-0.220200510893407		-0.29264062159187443	0.2859515473356516	0.20366151669770752
