year	month	ABC	CCU	DAR	DECK	EPC	JBSS	KO	LEXR	LTRE	MED	MGPI	MIDD	MTEX	MVL	PPC	REV	SUP	SWY	TEN	USNA	ANDE	CHE	F	JAH	NATR	NLS	SBUX	SEB	SPTN	STKL	TAP	TIVO	TOM	VC	CL	MNST	MTH	PTRY	TPX	TRW	TSCO	BID	CRI	ELY	EXPE	FDP	KCP	NAFC	RDEN	SNMX	DPZ	JNJ	OATS	RAI	SXT	WBD	HLF	JAKK	MCK	SKX	VGR	CAA	MOD	NTRI	PBH	CTB	LEA	THS	GT	ICON	TUP	ARDNA	CQB	IMKTA	SEED	ADY	CROX	GRMN	JSDA	WWW	AMZN	BG	BZH	COKE	PAS	RCII	SAM	CENTA	TBL	TR	BARE	FACE	HBI	SUSS	WINN	HOG	IBA	WRC	BGS	ALCO	G	KTII	OME	WBC	ETP	ADM	DAN	HOGS	PNRA	SMG	BC	ATVI	AXL	STMP	DL	FLO	SENEA	CHBT	BRFS	CZZ	GM	PRGO	SVM	CSKI	DOLE	FOSL	LO	DPS	JNY	FARM	MDC	CLX	PRMW	SPB	TTWO	IPAR	SODA	TSLA	WFM	INGR	URI	BTH	CHEF	EA	ZNGA	RNDY	HSH	CG	PEP	RGS	SYY	LFVN	NGVC	WWAV	BDBD	LKQ	PF	CSG	COTY	ENZY	POST	SFM	VFC	ESI	CPG	FGL	MJN	ABEV	GPRO	SC	WES	KATE	NHTC	DPLO	PFGC	FRPT	SFS	VSTO	BETR	BLD	ENR	KHC	NOMD	UAA	RRR	TPB	USFD	ELF	ADNT	TWNK	NBEV	WOW	CELH	ROKU	APTV	DLPH	CRON	HFFG	VNE	WMK	CPRI	EL	PM
2005	3	-1.5416819997583116e-05	-0.05899732703751956	0.05284680276287737	0.1117826935018607	-0.10752289279603575	0.004807601372686448	-0.4308199535229051	1.5341739751954994e-06	-0.10979564893161056	-0.06303833997030882	-4.992748850392397e-06	0.03440555737845847	0.004493736957846701	0.05201987376583325	0.3397561490849574	-0.08723241347997868	-0.24382361437388245	1.4266673726755036e-05	0.0011284293618151163	-4.210527063510505e-06																																																																																																																																																																																							
2005	6			0.0021495208465541985	0.07514584450407875	-0.01819046107254046			-7.977078234845457e-08		-0.08045789614831494			-5.168586350652478e-08								0.03169363376317916	9.992972373501212e-08	-0.07149211479797149	0.10505480200103212	3.117964583881497e-08	5.959635192478912e-07	-4.202379970164853e-07	0.014897142153328026	0.006830380273143392	2.6577980073068726e-07	-0.4999998240412817	3.2990571298668716e-07	3.908815666869314e-07	-0.0656318227690107																																																																																																																																																																									
2005	9								-7.370845331110408e-06	-0.20420553577258133	-0.06542565370807828		0.024737715678876022	-5.234112743180022e-05	0.0447922711381548	0.27155916687805115		-0.4036970796181445	-2.244885162692679e-05	2.0873007539567147e-05	-2.825600313162882e-05											-0.24435658193025275			-0.06272631325331038	4.164565706122955e-05	5.312067773915437e-05	0.133117736019013	0.02952532526453973	1.9044633886465852e-05	-0.031255749338779754	0.007860360500092776																																																																																																																																																																		
2005	12					-0.20128858881511966			-1.8355231607397174e-07		-6.553102618659932e-07			-3.571264014242535e-07	0.04553043208551699	0.3730678303085157					-1.0302659075448587e-07												-4.465558327935121e-07				1.8339256312925822e-06			1.3344510647556214e-06	1.3515040194729529e-06		-0.003831808701955608	1.6708677011502221e-06	-0.08987215523574893	4.9944747797650495e-09	1.3153156047942554e-06	-0.17162022315218425	0.013243822398539556	-0.4652343878192797	6.890598337627069e-07																																																																																																																																																									
2006	3												0.0746830524738823	0.008709282348861608		0.17880615342248554			-0.03675153787585825	0.03049298360774283	-2.5170895262625507e-08						-2.883906671992692e-08									-0.07827150806361866				1.7791407685189695e-08		0.04008815069854946		1.4366470412097115e-07		-2.0014241607140244e-08				-0.5000000497318379	0.024246635264515266	-1.2975292726680057e-07	-3.141607988086123e-08	5.6820915846130234e-08	1.947281753566979e-07	-0.24200334144623364	1.424015826265926e-07																																																																																																																																																			
2006	6					-0.37212613916124976	-0.0012624282913886867				0.03143885201291247										1.760698712753575e-07								0.15365460648888404								0.09122442346451236		0.07357360747715831	-0.032865358323003614					-0.2140882615313938	3.2112553569164857e-09		-0.31613667525056227		-0.49999872862484723	-4.451631429981777e-07			-9.546426912054278e-07	0.2972853385030571			0.2805404330289848	0.008761099428487898	4.361447239531646e-08	6.540934803240614e-07	-4.137308165780034e-07																																																																																																																																														
2006	9										2.4677342785091707e-06	1.3709486967916958e-06		-0.004886072948944337				-0.49999807247298333			2.2020420472675546e-07								-2.4371003377856e-06	0.004418174631194917	4.270803962597141e-06		-0.00989122515864449								3.27170064946428e-06			1.1497293684301193e-06		-2.985356858775674e-07	-0.10377514730488303				0.12613852338800666	6.372469807838701e-06						-1.6928662512011398e-06					-0.363037508163536	7.581041745703325e-07	0.35102490175784457	-3.9538461449191915e-06																																																																																																																																										
2006	12		-0.1489282493892371		0.08937040330130737					-0.18575197409165825	-0.037886594285989734		0.07852091331787883	0.019725555529034097				-0.46690007443310005			-3.7884009798995417e-06	0.05280046696648075					-5.087613107329686e-05														-0.031095752825255143			0.04556466602450798		4.3437267553088575e-05					-1.1004766040112736e-05					-0.0996541230925166					0.030374270738426218				0.30364492543314947		-0.10185559394764603	-0.04781668634738947	-1.8645597746724268e-05																																																																																																																																							
2007	3										-2.2366782300782397e-08			0.0030740807343627072					-0.0798151117792667		0.03549198457548866						-0.14702020517251857				-9.237451758916541e-08		-1.6257541133637624e-08		-0.026408168279144772		0.047138013605286744			-4.401643989629994e-08		0.03979287876134067				0.001473289990851292		-0.026534481478769207					-0.15021750147673468											-0.40535607067045487	0.20395228120010267	4.632006173152977e-08				-5.412763240479848e-09	0.06473609843308262	-0.060307017148794176																																																																																																																																				
2007	6						-1.126623005164806e-07			-0.20499747391570672		0.04784180469194019				0.0636538360576075	-0.10770174295637183				-8.8426290930271e-08			-0.1699058756291653					0.10348050572724277	0.06785135693015619			-0.0309418726137042												-0.03436072926736165					-0.2360265540912645							0.15355342367130745	2.446313900762667e-07							0.027732399266927284						0.2161390531743283		0.04132601491172351	-0.09782941979947465	0.16018546491956004	-0.5000000646509632																																																																																																																																
2007	9						-0.03978075524512753							1.0174203464351125e-05		0.1545242492072952					7.697572613836563e-06								0.2022453801948877	0.14155161139578482		-0.4999917062437871			0.019791473027637178							-0.0805587261179744								-0.37862844236052834			-1.2637098668450834e-05								2.1494315293045884e-05				0.009774200461254868				-0.4572648806718159				0.11102417146895643				-0.15864232773098993	0.10628054117493746	0.12610328773602605	-7.993039254392298e-07	0.2435400754077412																																																																																																																											
2007	12						-0.23651222610368794				-0.12249574382286563			-0.026800403240933936							-0.00646659131513164												-0.21351117565810376						-0.09437519265395906	0.3828552129570109		-0.40879115122935045											-3.1348584948773714e-06											1.3280895206964831e-06														-8.40632766103183e-07	0.4580700771237345	-3.884039173842198e-07		0.0955435983298892	0.5000025110896211	-0.4703471078974309	-8.39935624799626e-08	0.011096241801407362	-0.5000001233303517	0.13173517780785385																																																																																																																				
2008	3			0.10759741711016273							0.05811948369752916										0.0134368556091201	0.08823521558357937		-0.050069299648443796							0.14996582195254302				-0.008159816538681103											0.053951983004672105											0.2488090505770349							-0.06479029178339095	1.0620923370168285e-05				-0.024699119151340397		0.2388648850354578					-0.49997284767414035	5.177236667132768e-07	0.03177542594559581		3.334374573284641e-06									-0.39656340784648686	-0.1333978546727307	-0.31312839693589345																																																																																																																	
2008	6			0.23138489864613607								-0.4144793714238782		-0.08618634616066834																0.07674756297310066		-2.9112622120842003e-05																			-3.112578544689096e-05						0.3837872126676386	-2.6736793789003234e-05								-6.3079130917894274e-06			-0.4999638148826501		-0.22835738084681903						-0.22517728115046318	2.911388480417826e-06		-1.061327747396446e-06									-1.1163551735334115e-05			-0.23760745046780832	2.6337955326748354e-06	-9.792650249678803e-06	8.10982920724663e-06	0.4999882204190005																																																																																																												
2008	9										0.012501662467357524																2.4998585505881334e-07						2.549765589482607e-07													0.0064123129960205315	0.008151640897159196				9.898865445149429e-08							0.01947805058998734								4.048973307504449e-07			4.53441109025908e-07		-2.740156849354463e-07					-0.3893620145507477		-5.83184947755184e-08	0.007631178529071527														1.1060491638423023e-06	0.2204846085689356	-1.0372644134251667e-07	-1.3886220689005102e-07	1.7353844789921908e-07	-1.727148415846917e-07	-0.38529883325535674																																																																																																									
2008	12										0.07362708400859211	-0.05316384603079774									0.09324503173673412										0.049279240855154845	0.25644827747296717	0.017013670490063408							-0.1391814012574071	0.15817532905153855	0.3413906596935854																								0.08481764957269056				-0.09910469630100355	-0.14770698599387827					9.791001824066138e-07		-0.11434882045891989											1.298094573853965e-07			-0.5000000188566558		-0.020493512348789298		-6.326458458033931e-07		-0.49999983603835463		3.6446212352274824e-08																																																																																																								
2009	3			0.08431437845892638										-0.06891708621899827																		3.956822625049679e-06							-4.9416891533101e-07	-1.0589622599534494e-06	-0.18719865144589926									-0.08368772921706968		-0.45233818966828426					0.10372323754286443							-0.1526399190994398		2.3444818129499447e-06																	0.13470103677614073						-0.1976137339631339				4.2873316665266557e-07		-0.21424885078486502						-3.88767373818786e-06	9.827467760999755e-06	0.500004547021408	0.03388221955118933	6.113375830476626e-07																																																																																																			
2009	6									2.328568631415884e-07				-4.6461383493723224e-08						4.951689045002087e-07	-2.7314463271987753e-08																		3.64259872315219e-07			5.964775365944664e-07							5.965661849856411e-07	1.0679909042676531e-06											5.164639455789775e-07															-0.03396616147902587	1.4832537466861174e-07	-0.018722973059052475		-5.240791833689175e-08			1.5089381535066075e-07						1.276611250553298e-07						-0.025888897133155155	9.932631815141935e-07					0.13687118808729112	-0.058297520142211574				-0.5000001754658635																																																																																																		
2009	9											6.502772252077719e-08								9.924697566318123e-08			-0.07859042475379996									-0.08659951346784414									-5.598622783033938e-08						-0.0798390622266458											0.03832410290236652																		0.025896088078213777		0.01711450218381221		0.02779946027665261					-1.3966207185227316e-07							-2.75552069665132e-08			-0.020342650005400247			0.18753182547898253			-0.2595014940245445						-1.6052145378215445e-07	0.32132862699356346	-0.4983215275966231	-0.06310491532595898	-0.03169522398027727																																																																																													
2009	12										0.03561629973967948	0.0298233703233122								0.017842156985183155													0.00166349486416775						0.0068102318604973825	0.1322903390938692	0.0505328772369601							-0.10036668851513841			-8.843394087704977e-08	-0.009805291962456403						0.07329888345087285																			0.02964661932181876			-0.011023964859480696			-8.759844608701235e-07										-0.4999997772944873								1.7013541106008237e-08	-0.15937391022746905						-8.675929482606153e-08	-0.09695343515531948			-4.2615650882478656e-07																																																																																												
2010	3										0.01879977747093464	0.0050176019762969955				-0.08555308916354973	0.02654788943848788		-0.12859681999402817	0.002909836876396136																					0.007821690298096592																							-6.985181365246995e-06				-0.15643187401547232										-1.44189722677578e-05		-0.010546653009956174			-0.01898718222178243	2.6642921346693246e-07	-7.730441999336902e-06		-0.08914731502221479								-0.04386638554377637													0.08923899651678806					-0.053052665474535195	-1.6833543703072937e-05	-0.06412121721370016																																																																																									
2010	6											-5.920429831455367e-07					-7.180342390955754e-07			-3.9596389907934816e-07	0.041003898496888624						-0.18307547046217992			1.1305899988901217e-06		0.14512158124204522									-7.020510109340653e-07									-0.49999931754634735														-0.18730221966590765				-0.4999993922113421									0.05548719088771343			0.023327383581926354				-0.046359641654374485					0.0119129332608353																	-3.760428728109573e-06		0.17075839744174937						-0.030870169905760088		0.4999984974452148	1.9107738623685517e-07																																																																																							
2010	9											0.054250943956045225					0.09769416950261596			0.03404808721080137												-0.01782604511455134									0.08576268513001054																							0.1510267696418002													1.0389045811451015e-06	0.06024738657430185		-0.008067331111053332				-3.9053039645657797e-07											-2.5097953921092015e-06	-0.3664237591858936					-0.3816133637031197						-5.370591536171936e-06	0.08916148908217465				2.9250072832115497e-06		0.00437369080972701	-0.12509063059851783	-0.17752421846321298		-5.229234013108738e-06																																																																																						
2010	12										0.041277159594936594	0.031264383889758496				-0.08481741541889712	0.023890684872046923			0.02077941744867141																					0.0624433865213178																	0.1065873027499406						0.09881793594388381				-0.15809775929730813										0.058752881844271715		-2.295692500197602e-06			4.319828132216653e-06										-0.09578016555452656		1.0197060336428842e-05	-0.23242853085956597												0.032346834170448965					-0.1346670528021082	0.015793685100838152	-0.005213957544520331				-0.28096864156851503																																																																																					
2011	3				0.24458273769450284									-0.07329732131073237		-0.22795431638100744	0.009157719184104976			0.07752303022498754																				0.16828577578881226																									-1.350587856515916e-07			-0.3611123656075736								0.01338839957901574				1.939233590562793e-07		0.04188874751897334		-1.532684309696178e-08									-0.2395746222738278			-0.49999968752357915												1.9832987095240293e-07												0.2599639096193345	7.232450834947664e-08	-0.4128519007346456	-3.3853501866988293e-07	0.49999983865234005																																																																																
2011	6													-0.14128977062093187			0.11014198230713708			-2.9870175733045377e-07	-0.0343801927823712																			0.24532461463978997																																				0.029532754118411147	-0.2006738686895039	-2.045312858089876e-06				0.05516533274718144														-0.4999989728352136	-5.565836731844159e-06		-4.4835638651336206e-06									-9.356183388462291e-07												0.4280671463680712	-0.385182298924537		0.10507128408818094		-0.4999982191378076	-7.686019237686801e-07	0.28823502337144546	-1.897038551325468e-06																																																																												
2011	9																			-2.869279464682591e-05						0.499970640780601	-0.4067513722953117														-8.87474993481974e-06																							-0.13340143229721302			-0.30923416093243644													-1.82052143635682e-05		0.32661022155502745	2.3355827075283958e-05	-0.3917205247637265	6.072107336195229e-05										-1.7626078856406502e-05													3.26463101664048e-05						-0.38151625026016733			-0.0001802107846577131						0.4788818656160579	-0.4718630053046388				0.49991383397014383	0.2893344084946074	-0.5000494606464131																																																																										
2011	12													-0.0693344642038413		-0.13094364126086055	0.05456543392862413			0.023943454272756903												-1.1659416200961467e-07								0.18929763842587355	0.06699772953686389									0.3378238076369526								0.2407461748411225						0.0050172108475368005													-0.04604861123225831	0.08802710920937253		-0.0014908747482429209													-0.12594335026096334															0.04372708731768426	-0.18442492243153955					-6.852202684494233e-07				-0.11456965278801247													-0.49999955753457015	-0.3773896805295722																																																																								
2012	3									-0.27286321036061556	0.06943450579549999	0.0985365704211841								0.0766410902370357																					0.18354490821235894												-0.378787245055358												-0.04377386739522886		0.09123698210182889						-2.361746434480251e-06					0.16857959098389258						0.0003990375167540675	1.7370922007846987e-06										-3.154409177237527e-06													0.1776526464715139					-0.3813475651791695	0.11099929576224744		-0.4999999168910225								0.4466423238955455				6.779102623172973e-06					-0.34689715927609593																																																																							
2012	6											0.0012840654682615708					6.790775689138217e-05			0.0020269741114173714																					0.015217639816129738																								-0.017351589926092155											-0.030804219302549635	-0.08445776552532251	0.049686403741126116						-1.7490307944172427e-05	4.684243874570198e-05																-0.37331718090915594							0.03824725043055546				0.04438565666092876		-1.3294694643733183e-05						3.809083181747249e-05	0.3428023850427275					-0.11735233710132996								-0.3601248833831325	0.2949119883346975	-0.30530456211550533																																																																				
2012	9																1.098862495350903e-06									0.06616097683448528																				0.06804806932085346						0.13267752554837312													-0.023037702748287564											-0.01833136939480978		0.026563167047103407						0.03071361442259322											0.0859198660762324													0.01977688908793168				0.06610665369745082								-0.015849676244281557				-0.06820957684600007		-0.15497997630257493					-0.14940236035252447			-0.5000019083315045		-0.10759967587690165	0.041444723547576064	-6.149390001569656e-07	1.4358543835417177e-06																																																																	
2012	12																9.955290903845071e-07			1.0740417706353741e-06						0.12096911709035531							-0.017779060203580582													0.13341136076196344			-0.15948592433188175																-0.10006375896785573											-0.0651582929892711	-3.635784651179082e-07	0.04503877134383135						0.10606773799492135											0.10608052818204826													0.04222375237779031																		0.11597793861992607					-0.2903171928536063			-0.5000008543945036		-0.12451242381255942	0.1459497101119256		-0.38129202579911087	0.32289018903315664																																																																
2013	3									-0.06151476203757193		0.039758245197209094					0.046509030314291426			0.029987096914128174																					0.0929919055570211												-0.17753174023537568														0.09386109992785599		-0.14782989977012043									0.060178698244910483						0.14347646739881825											1.0696554445296989e-06													0.06088298525982005					-0.46189942886597035	0.12100833716000425	8.520113109067317e-07		-0.00046585741570447445			3.692974263863443e-07														-0.4999996448707086							1.027245681292436e-06	0.16058398672745589																																																														
2013	6									-0.37704736532277333	0.09271368269829527						-4.801786742006527e-06			0.06664301172294104	0.11174458984412682														-2.2398978147399738e-06		-0.24797077769499204			0.11316886368704808	0.21664900149673988										-3.2652114967703492e-06													-5.184770056253791e-06				-0.020750969128555598																																																						-0.03159714786603587												-0.5000015436131635					0.15679455005254397	-3.740475960315658e-07			2.0944489647908737e-07	5.868558986365107e-06	4.676326470860875e-08	-0.08033741510078767																																																										
2013	9									-0.25973263013334197		0.0586784400387138								0.042489320452101215	0.032188230621982825					1.915324835481819e-08									1.717593503856317e-07						0.09189577962562032				-0.053396417938065405																							-0.02947451845502856											-0.0009171049387047461																																					0.07789287241358393						-0.055172629151346284		-0.16338544181245165										2.7713043553429098e-08		3.221111920639247e-07		0.03898105308002271	0.03096980122709158				-0.4999998882025056		0.09424049366975351		0.09474185136156997																																																									
2013	12											0.0458520120139772								0.03899872284796527							0.10880549241676248										-0.07036456137838037			0.06787704213917256	0.0838277343751197																		-0.0872465269410705					0.05878370255527073	2.1113542010847204e-05																			0.05091243530493076																								0.032391299974878995				0.09160182984611177		0.1244314097442115										-0.045875723260211144										-5.715103683601475e-06					-4.3651941496781995e-08	7.105257971919195e-06			-0.4999932048421022			-1.3954294375690323e-05		-0.5000113810843168																																																								
2014	3									-0.38811045553646506		0.12023833207276496		0.06870860526700628						0.09658823681054642	0.14711529987822536					-6.319545628826316e-07									-3.990857622034289e-05						0.2627230912968502												-0.4087204508918057															-4.525236515466781e-05																	-0.4441039462877372																							0.17988891002535806								0.49990402735220324																		0.06728601621553508					0.3565075109285638							-3.450369592331412e-05			6.0903121355769525e-05	-0.4210911804733416	-0.5000097791828939	-0.13681989124180127																																																				
2014	6												0.12512779146393768				-1.0027634348656707e-07																													0.014950960191369576						0.05211748936601658																								-4.641545617363425e-07		0.011991684115694018						0.012293810501197544																								0.005686735299142502				0.039541523849884644												-0.11471667470691811										5.425890115451999e-07			0.03877105415839427		-4.054526655697474e-08				-0.5000000889668035			3.594343035061013e-08	1.4881178991494177e-07		-3.986721344003385e-07				-0.2590457486652622	-4.940182869911776e-07	0.07328233181052957																																																	
2014	9											-1.8604536438342902e-07		4.931668577739931e-07						-1.6263535985711677e-07						4.066686782689917e-07																				0.05987802160801429					-1.0581399132991038e-07	0.04486744753674023																								4.6537197502133947e-07			9.706070187443477e-07			-1.1593939193460476e-06																																3.2589037225567635e-07										-0.13797948194090698												1.0052594209218917e-06			0.03508556251053935				-0.49999853156209173	-2.5305298108427572e-06		-0.0018523862809910374										1.199642838348767e-07	-3.0608574375132127e-07	-1.5122038750234436e-06																																														
2014	12									-0.037939840656860374		0.02247320744093516								0.010420463768579096							0.03990916868795693														0.040064830684115										0.04095732381869606																																	0.01919377460578514																								0.01457105548649898				0.05541329637388566		0.026041263709219706										-0.05021981407022249														-1.5906264170841806e-07		3.9133081954528244e-08		0.08400752987863092	-0.2428322343649756										-0.21296726191044915	-0.0383925544312396		-8.101647555807936e-08	-3.1564090548132514e-07		-0.27069987069936086																																													
2015	3																			-3.6850202779612363e-06						0.012831779172777285																				0.21654248906881116						0.33019080993278704																														0.009648241232071446																										-2.7316225207202675e-06															0.11021477044080095																0.01816009045247226								1.9458450225142423e-06						-0.4999949507206596	-1.574778205184114e-05	-6.409553859646525e-06	-4.670618153292924e-06	2.242980865287656e-05		-0.49995308429014573	-6.908712904034787e-06	-0.1089024178466106	-2.2567434567224026e-05	-0.5000018848585533	0.4113223791170708																																								
2015	6																																		-0.03776695701288534																																	-0.09381905171382765																1.5996045428405945e-06																								9.267827982943011e-07								0.15815901885313172					-0.48814796806436717	-0.2359296533036363												1.1062845026244827e-06				-2.8207630009271404e-06	0.053931689146811984	-2.4163220872835623e-06					0.4249607479340293	-5.187321781444076e-06	-7.560198238727363e-07						-0.49999702619340736		0.2613172809478979	-2.689408917722888e-06		-3.500714861482216e-06			-0.04269125178676185				-2.6851548366213185e-07																																							
2015	9											0.04181466995337649								0.02024770421347187	0.03772803329583382					-1.496517591417901e-05									-1.390470025016902e-05																																	-2.7616902207385814e-05											-3.2391932956557334e-05																																										-0.059988183927814916	-1.7611484995762126e-05												0.07156199912564237					0.03540080291109545							-1.7798035261223562e-05							-0.2568846958550011	-1.2029541085497603e-05							-1.768272841382285e-05		-0.44141674653876933		2.2366056599105217e-06	-0.3668961377663901	0.49998839955595753	-0.08141581973851748																																				
2015	12											0.02899425893747872					5.4439608047588e-05			0.011221126057194298							0.051661711539343													0.043466691713903334																							-0.08931616746296389																																																			0.044414288742607715							-0.100800800622483													-2.5959516652690865e-05				-0.10523539156539957															-0.12089181396593317	4.938203472483458e-05							1.9706478446476462e-05				1.0510383984300353e-05	-0.09612836813722217	2.140091643713914e-06		-0.16332654325821364	-7.71546938349655e-06	-1.4273727680160734e-05	-0.0041356456407993895																																
2016	3											0.03748259642842161					0.019269553622451842			0.005976635550104032							0.06549508609569378													0.09155276172967197																							-0.14861110803763003																																																	0.10858216143932957		0.033823717808634836						2.842107989512015e-07	-0.0066292419659431424																	-0.014962292259450626				0.08712630032415665											1.1020163104813847e-07												-8.3722989801353e-08	-0.2229643729573084			-0.2207388562806815	3.27289731900115e-07	4.255913919493452e-07		-0.3305537902870429	-0.0048500829788848																														
2016	6											0.07282893878487144		-5.4567827096931794e-06												0.012900578482093765																				0.11242881212392956					-0.040651465206778425	0.34657062960053625											-0.44465675805658766													-0.054265057570954255						0.18658955041887682																																																														3.0769671452566837e-06									-0.0954676598414865	-0.1665525127106095	0.5000354439447838					0.5000029719511261	-0.29482055643184407					7.658902829447843e-06				-0.1838849692016326	-0.5000072322322473				4.510010137757681e-06	-0.4510544943300574																												
2016	9																3.6484774526204435e-08																																																																																											0.006290157815307026																										0.20583547871003774					0.0684975776796134					-3.244948040825331e-06	0.4999946437137762	-0.13003900471141847							8.144204270550429e-07		0.4999971062594055					-2.38918029734068e-05	-0.4375150362930453		-0.4744014747113297			-0.0805793688438909				-1.7803854590116192e-06	-8.2983734163407e-06			-0.0980817399596603	-0.05995084773691327		-8.895219740250891e-06	-0.49998674024803597	-4.57072160443483e-06																									
2016	12																1.996556151675789e-07			1.5710345218540527e-07						0.1021310596493595																																																																																								-4.027869345041313e-08																								6.439010411522882e-07	-1.1060838023170475e-07					-1.622831661585388e-07	0.44550933598162024								4.063847789222646e-07	-0.26111224764975				0.4863325622501184			-0.49999976332448776		-0.2162685561839907							4.093455710410887e-07	-7.885864824539224e-07		-0.06931838228983937	-1.1912159530668462e-07	0.012724311965897578		9.471239502602758e-07		-0.4999987224008494																									
2017	3											0.11822915375907826		1.8545933836072156e-07			0.0032913829856349485																							0.1387541368161905											-0.03331562414502351	0.5000003304714314											-0.3470228580483418																			0.25474579488530497																										1.178414809256006e-07												-0.03662275315038446																		0.17412443115904178						0.0483371766832392									-3.5251926560279535e-07	-0.16808238510118326												4.64600774838123e-07	-0.40141195497792526			-0.16303685712543586	-0.5000012974431478						1.0819543772911879e-06			-0.08798976657696961																								
2017	6													-0.03339885828830195						9.802892979558241e-08																															-0.08405041150618338	0.3238538103669777													2.182200667086102e-07																	0.07302295402109106																										-1.7865020088372833e-07						-0.003314606801892461	0.04644764744844488																							0.05053714546898997	0.05250412339238633														-0.16131061110734107	-0.3227262345195054				0.26306137806356106												-0.15190236424598955				3.3678895121428754e-08			-8.339104577168947e-08		-0.5000004155692697	-0.0533160280543417	0.0005920907499373922																							
2017	9																-0.05541598203336325			-0.0032379473161324576						0.11931499541120903																									-0.036502346297813265							-0.020577865649615414																																																		0.04366461726652243						-0.07057376116455696																								0.23340652539842913															-0.16189694443602964	-0.2122585729743018																6.687579710531175e-07	0.20522064761995853	0.00013434921460236056			-0.4809691046852869		0.28494539994991175				-1.7737355061065295e-06	-2.2796160400218212e-07	-1.608045016165062e-08	-9.724760964902859e-07	-0.345254788356417																			
2017	12											8.109756579714142e-07								1.2317785893245674e-08																																																																3.464872747556983e-07																								-6.359449541845064e-07				5.64990267003289e-07												-0.28046736145187917																														-0.34560030942426617																	-3.7611340593549756e-07			-0.014484767738983996	3.876540689806385e-07		1.7016790341065066e-07	-0.4999988753213819	-0.1459003903932508		0.500000872950921	-1.2952144442235144e-07		0.4508983569967365	-0.06531615753548133	3.1260726329306654e-06	-2.278702905605515e-07	-0.09913804768160467																
2018	3																			-0.05538904035131452							-0.18782992795994186																																																									6.93804805058828e-05																												7.288085723445709e-05		-0.21635131978597089																				3.221267737626154e-05				0.43573232791084754	-9.217730655986755e-06						0.27751071825543716								-0.3578024367639979	-0.34263935034868803									-0.49996703929384095							1.8094847148181597e-05				2.047415064007355e-05	-0.05348818991587893				-9.006729999375554e-06					0.49997952653174066	-2.1939453468699564e-07	0.0001359729092525675			-8.563246986701048e-05															
2018	6																			2.4724599653177504e-07	-5.911380162314839e-07																																																																																																				-1.3156396642924498e-05													-1.3085299964713656e-06					-2.6050181164933506e-06										-2.123162827864536e-05														-0.22083029017268258			-0.23207082591255232				-0.04772226792503744					-0.015748508586701303		-1.1371130461066815e-05	-0.4999899747308965			-2.598511371096475e-05	-1.2060817462154076e-05		0.12867857447018932	-5.441392401935973e-06	0.3191469051936342		0.12505585392557447		-0.05645042019853261	1.836908189763982e-05													
2018	9						0.004010531596734256					0.006538312324001417					-0.019419030598342216			-1.6793896674747767e-08																																																																2.4170892296772466e-08																								-1.2035725274045512e-07				-1.1080325401408161e-08												-0.10812343611692508																														4.795991435033027e-08															1.5387444357752182e-07					-9.979270318003292e-08					-0.038783781979305494			-2.5776504274241753e-08		0.15595592384976126	-0.21978768846268262	0.06230877450064082	0.15730119321980893		-0.5000006159235456		1.2395842596998387e-07	-5.850893816562076e-08												
2018	12																			-0.01505453901125589							-0.0829996316987465																																																									-0.029081443881839225																								4.377353378751083e-08				-0.056440774691373014		-0.09317980355554607	0.025792956125194017																			0.17019484956496347					-1.3412259461992412e-07						0.059651091061330576								1.1390440650540401e-07																					-1.3034212041592232e-07	-2.776209475070002e-08			-0.49999994516818536			-4.874472573205216e-07	-1.2564922168825739e-07			0.13422358684761704			1.4335636593001063e-07				-1.5461053867815366e-08	-0.11310581446236549											
2019	3											-8.604664068439143e-09					-1.4251910158122922e-07			-4.0977718715740426e-08																		4.377152008304119e-07																																																																																						-0.15936139033413318																		2.249018241349106e-07												1.332534211582484e-07									3.421783158079292e-07							-1.9352107298555523e-07	-3.8895044751660066e-07								-0.05279077492912574		1.1395585305376417e-06				-0.00018651381309496532	1.9435546954951459e-07				-0.2101649058784691	-2.2449825726968916e-07	-1.0550264880638568e-07	-0.27077308087303087	-0.043850951594587635	0.23712621284512458									
2019	6													-0.11399228702508676						1.9019213585708922e-05						9.401138806737335e-06																																																					0.1554820330431942			0.26212524893095923																																							0.08325258631685555																							7.79066979183792e-05					-6.960612240367111e-05				3.841397702043643e-05	-0.21355416156528145						0.44172939260561467					-0.5000365933444901				-4.504574283531365e-05					-0.5000236731897488							0.49989642829316067				-0.21653427337738115							0.15842756453486825	0.00010934930179088902			-0.0569604512061139	-0.5000097157874768							
2019	9											1.560356487186248e-06					4.012028960855901e-06			-1.8680052142393048e-07																																																																																																				-0.016346690393477654																			0.034071940829351555					-3.878597731924391e-07									1.0759415034904332e-06												-0.10392344091917523	-0.13814058039818178			-1.3840515756496355e-06										-0.06441709567740196				-0.3002780162987544			-2.9070144285454554e-06	0.05522249140926219		-0.14083486464301168	-0.005368875460291744		1.065815023629819e-06	3.229527902045365e-07		0.16277372262600967			0.01723656677267969						
2019	12											0.02420560400737431								0.00478560868452803																																																			-0.0030853833207880113																																																																																		0.049342788292776524	0.01245531051707962											-0.1103533835484989				-0.0010379234282930233								0.11581551275271958		-0.16995670362342585				-0.31792532049264643				0.007190265853983976		3.996425819827219e-05	-0.04407213161574996	-4.989265269895079e-05	8.455723010313546e-05		-0.10189389888685298	0.17547027439405496		-0.2024087539483539	5.6559666886111693e-05	0.06132495745122441					
2020	3																			1.8377262272369324e-07																																						3.636900281318392e-06																										-0.0007759707739778669	5.1051146674402695e-06																							-1.6379213027142633e-06																															0.014823803396491413							2.7681826399705048e-06																			-0.03814652809083694									-3.4404235297686212e-06							0.010562868853812857						2.084905025065638e-06	2.19322828519832e-06	5.664797990727214e-06		1.143774736741571e-05	-0.003233354082564586	-0.015356372491179405		3.006492399211729e-06			-0.016062661898585656	0.04817062965027399	-0.5000137703709093				
2020	6											0.06582465197372667																																															-0.09126796716339047										-0.199911309396109															0.005218066453928945																								0.01910631222401032							-3.341164736615513e-06									-0.039026748841453796															1.0044872150380486e-05			0.10284289024775178												1.5391158838012024e-05						2.6769414591228205e-06														-0.03770005046261109					-0.33182560617877455		1.0824793920027407e-05		-0.5000003054082013				0.098044011978298			-4.8421045802578375e-06					0.37156172491946243				0.12030805089577704		-0.08321583955065935			
2020	9																																					0.07388889746551032																																															0.03305268511420663																							-0.10578663130548485																																				-0.3297275034029102		0.22243697723342543							-2.3668481650333781e-07	-0.0786151031046562						4.621031002646088e-06														-0.15846943952289583					-0.28580600133619843		0.5000056813410252				-0.49999993484254945				0.24185107776936074			-0.15087371051203863			0.5000011418047506	0.38888148237107156				-0.5000004753505903		-0.5000003977720394	0.14915725469119676	-1.7494982180117342e-06
