year	month	ABC	CCU	DAR	DECK	EPC	JBSS	KO	LEXR	LTRE	MED	MGPI	MIDD	MTEX	MVL	PPC	REV	SUP	SWY	TEN	USNA	ANDE	CHE	F	JAH	NATR	NLS	SBUX	SEB	SPTN	STKL	TAP	TIVO	TOM	VC	CL	MNST	MTH	PTRY	TPX	TRW	TSCO	BID	CRI	ELY	EXPE	FDP	KCP	NAFC	RDEN	SNMX	DPZ	JNJ	OATS	RAI	SXT	WBD	HLF	JAKK	MCK	SKX	VGR	CAA	MOD	NTRI	PBH	CTB	LEA	THS	GT	ICON	TUP	ARDNA	CQB	IMKTA	SEED	ADY	CROX	GRMN	JSDA	WWW	AMZN	BG	BZH	COKE	PAS	RCII	SAM	CENTA	TBL	TR	BARE	FACE	HBI	SUSS	WINN	HOG	IBA	WRC	BGS	ALCO	G	KTII	OME	WBC	ETP	ADM	DAN	HOGS	PNRA	SMG	BC	ATVI	AXL	STMP	DL	FLO	SENEA	CHBT	BRFS	CZZ	GM	PRGO	SVM	CSKI	DOLE	FOSL	LO	DPS	JNY	FARM	MDC	CLX	PRMW	SPB	TTWO	IPAR	SODA	TSLA	WFM	INGR	URI	BTH	CHEF	EA	ZNGA	RNDY	HSH	CG	PEP	RGS	SYY	LFVN	NGVC	WWAV	BDBD	LKQ	PF	CSG	COTY	ENZY	POST	SFM	VFC	ESI	CPG	FGL	MJN	ABEV	GPRO	SC	WES	KATE	NHTC	DPLO	PFGC	FRPT	SFS	VSTO	BETR	BLD	ENR	KHC	NOMD	UAA	RRR	TPB	USFD	ELF	ADNT	TWNK	NBEV	WOW	CELH	ROKU	APTV	DLPH	CRON	HFFG	VNE	WMK	CPRI	EL	PM
2005	3	6.161418669861569e-06	2.986923066237337e-06	0.49999997920743794	0.5000050749505265	-0.46182968940905617	0.13652821829008205	-0.482431917139447	1.5866656187682654e-06	-0.16846373917493612	-0.24334142245397633	-0.0027806220735186746	0.3092319891223315	0.04041754156140855	0.3693855648298926	0.5000003575168959	-0.09376898409677444	2.7450710917631797e-06	3.500426186578584e-06	0.0514872664898827	0.04554022281322515																																																																																																																																																																																							
2005	6			0.11986741798483061	0.08853413373445806	-0.11097346031026464			5.089869580076804e-06		4.95504679697016e-06			-2.055046867800244e-05								0.4669031716550013	0.21518988130605185	-0.02570575548928607	0.44935958208664817	0.032793528211680065	0.0500818778567849	0.10928683061514873	0.16276208082705487	0.051104822742589845	1.0513615661777229e-06	-0.49999139795843484	4.139769681167659e-06	-0.027414771509990533	-0.08179650819981973																																																																																																																																																																									
2005	9								5.972943382568083e-07	-0.4999973176413402	-0.1805337496424418		0.2476348030481684	0.002903917671706881	0.33762902157699864	0.49999893625728287		-0.474571791565562	2.267523048844511e-06	0.019836676267056236	0.059347763541127536											-6.4138064345596835e-06			-0.22447992228160515	6.226406641182895e-06	3.392393101851833e-06	0.5000027219592444	0.21221535310674738	1.0860350831701593e-06	2.6574042102595453e-06	0.5000016172866485																																																																																																																																																																		
2005	12					-0.5000002357419846			-1.766572069627657e-07		0.0486120005258985			0.00786814275720104	0.399997080517266	0.5000000702753994					0.11414377852503738												-1.1798900818249293e-07				-3.0473117612400455e-07			-0.05078193420266551	-2.8005600877130344e-07		-1.651177390678758e-07	1.9113275371786598e-07	-0.13115297818251645	9.710421859733421e-09	0.4999999958824152	-0.22962191347985306	0.3409371823741872	-4.584277832370826e-09	-4.713496889287959e-07																																																																																																																																																									
2006	3												0.2143228013559592	0.0405502232078206		0.49984799951452213			-0.03593506037645826	0.047205528236916844	0.05269516030330238						-9.521481571508136e-05									-1.872166760431563e-05				-0.03422780957760196		0.33078153748026784		-9.544238076230028e-05		-1.5986305888319817e-05				-0.49998026773113485	0.17714918526207052	-6.719544052061465e-05	-9.571164313796472e-05	-2.8609208853997664e-05	8.054435133824858e-05	-0.0703347237904705	0.2784200617964627																																																																																																																																																			
2006	6					-0.5000013438470343	-0.01836156069022589				0.11976989267914766										-1.9218380897356447e-06								0.5000002421934108								0.24018913462266125		0.12815719063445158	-6.429637527583578e-06					-0.34438175142852	1.7074346318175527e-07		-0.4147454250483563		-0.29551474531592803	-4.4812946230897265e-06			4.3926287881563565e-07	0.4999958865916588			0.38986369121359116	0.2392205545918977	0.2794541226769148	-7.71581906870181e-07	0.17636653672046643																																																																																																																																														
2006	9										2.320509336632013e-06	0.06526755073734594		2.052816538689718e-05				-0.16958474066409263			7.648899580207641e-06								0.11856477423790648	0.09744787711407824	4.2294903754568204e-05		1.9066566565897994e-05								0.2537730513574589			-2.3560307487529587e-07		4.126490657338814e-06	1.7558339083137017e-05				0.31740477879849927	-7.483035621469959e-06						-1.1104259156448369e-05					-0.18302167575015596	1.6354061508551768e-05	0.500004125919139	3.858618729468066e-08																																																																																																																																										
2006	12		2.4476166513852382e-06		0.2684103281792449					-0.2995657946525033	-0.03807994179544243		0.24592562669238066	0.03341666171700202				-0.4946940461758273			-4.7739174487425345e-08	0.23066117300033157					3.071500038580749e-06														-1.2000771887428869e-06			0.3212215905201853		-5.272199843115763e-07					0.21087803387127507					-2.8231744850783667e-06					0.10614797698328085				0.4999965171654782		-0.08431821521689023	7.666411256034598e-07	6.011374255435164e-07																																																																																																																																							
2007	3										0.11214016546559356			0.011293013049338895					5.786866358084396e-05		0.12868566767999248						-0.04634610072350993				0.19420618490645541		5.535984928703489e-05		-0.04307087369041688		0.31040332552633415			-2.511331217109837e-05		0.32967272184632657				0.03351383174992416		-0.03066234459669974					4.300474774889678e-05											-0.5000520214762577	0.5000624084687416	2.403891535541026e-06				3.827051235610014e-05	-2.3039249424596138e-05	7.573411580676735e-06																																																																																																																																				
2007	6						6.7571066487098e-05			-0.031001060927698183		0.09821538997501644				0.1663190703598888	-0.03341946999531385				8.551190903939287e-06			-0.0020736578805094054					0.13553308236424239	0.08522842023423426			-0.0010751665437133896												2.6381202899954803e-05					-0.07006554096241631							0.18025058991838924	0.17357389841666152							0.07849055049416095						0.23352358910837406		0.24610352408467068	-0.004786682073118356	0.24497193592326072	-0.4999659092005614																																																																																																																																
2007	9						-0.021061829198015095							7.544391972184329e-07		0.28697912707268314					-1.8322047560402282e-06								0.2706617442276156	0.1895025844502262		-0.47862428741231855			0.06729350701929965							-1.1074155495202837e-05								-0.21464335796986553			0.36957180371340714								-1.374315154696916e-05				0.07484599779902824				-0.5000594245420272				0.32316607954660054				-0.20952090423794706	0.13256088326227938	0.20939456403059323	2.613200656391622e-06	0.49997923843512687																																																																																																																											
2007	12						-0.015811575302089976				1.0079455557171933e-06			-2.1379789577757888e-05							-6.217175089204265e-06												3.327707967397339e-06						3.9964377502213793e-07	0.11383120896749027		-1.0640540221245574e-06											0.09074372638101569											0.040443372278262835														0.044234589200978405	0.12575265361620225	-3.037472685033386e-06		0.050227022950070685	0.23579214831511583	-0.04833820567997586	0.052026713772159575	0.19356812310630667	-0.057740925533435045	0.17528444267774557																																																																																																																				
2008	3			0.2580029112271486							0.09529223954509473										0.0069868501623847725	0.2037495007559123		2.3838747610271067e-06							0.28767903447511645				2.3604801032622588e-07											0.10345622816922197											0.4999996732917975							-0.006895416247504633	1.2494579592575617e-07				4.274060175866358e-07		0.5000007457400166					-0.5000005678018783	-4.357115310097695e-08	0.0918924508487781		-5.583275376186933e-08									-0.49999992521191167	-0.04016504161567488	-3.1030924946287805e-07																																																																																																																	
2008	6			0.28102021954856926								-0.14334474276088607		-0.06566434371129805																0.11518125754787045		0.394645189784307																			4.083270763384929e-07						0.43900327948954165	0.07344582433384855								7.829563540885633e-08			-0.23498594079532392		1.830615657476623e-08						-0.14795143626754337	-1.677358575538947e-08		1.0590788650947393e-07									7.890075190468074e-08			-0.010768003806177064	-2.099354891569761e-07	-8.087129754163163e-07	1.0385412513914109e-06	0.2994179125107448																																																																																																												
2008	9										0.08330804445435884																1.0701973797051012e-05						0.09224307855001312													0.08766030672517418	0.3053754084898069				-0.09244333857834425							0.4999997143184294								-7.064553741626113e-06			-2.530405286948609e-05		0.22523588648566423					-0.1866161528524948		0.004133307482433858	0.2620267383338051														-0.28093820067822617	0.499988485385204	6.507053202879114e-06	5.749823747346217e-07	3.942399449285436e-05	1.9423724686396995e-05	-0.4999940586505862																																																																																																									
2008	12										0.13892620404575087	-0.08969339245169985									0.09459147923634595										0.1472504247904313	0.5000004396788981	0.09568756462376002							-0.07805887754994094	0.2638712189936129	0.4167229871617879																								0.438265794706667				-0.03408461015547303	-0.07463433505249273					-4.793457112349713e-07		-0.12325349338642147											0.1304989773315463			-0.5000000966878727		3.316567303704555e-07		4.7284341011536935e-07		-0.32609159285631767		1.1511906571548327e-06																																																																																																								
2009	3			0.2594789088915672										-0.1253613979299981																		0.4999826421258452							-3.6313357723759116e-06	-6.936541518965132e-06	-0.39969020925519994									-0.18214449310621278		-0.4999973451209904					0.246896164056338							-0.3592457829179907		0.025455589700125954																	0.49998518500641626						-0.22133522053373897				6.123610251542903e-06		3.2624997748174456e-06						-6.305512579429144e-06	0.10094602486355513	0.5000055649643703	0.15505594175139734	0.5000043767837745																																																																																																			
2009	6									2.0124227343939327e-06				0.048316161520287476						0.03131901573981775	0.05229997932408821																		0.09759334800554426			0.2646131923527409							0.17402906540479507	0.1485248780795723											0.0654649993684769															-0.10198759927819627	5.629538360972042e-06	-0.05439933901628583		3.0165170953273953e-07			-7.525182760064449e-07						6.689141112256361e-07						-0.029327426750709002	0.303550780670742					0.5000005352532331	-4.717919713556231e-06				-0.49999925643279647																																																																																																		
2009	9											-2.114238377722631e-07								1.8820367552968221e-06			-3.889286441173511e-05									-0.06425763192388009									-1.0856715432160308e-05						-7.838498436882038e-06											0.15419340532606168																		0.316487664908632		0.05071356042012676		0.1815689012977001					-2.3751543544710943e-05							0.004794578469172216			3.8111386204848167e-05			0.5000302551832564			-0.14338549569914774						-3.3431651642076134e-05	0.49999734709161414	-0.4999959262473107	-4.677979883335476e-05	-3.6081950651036036e-05																																																																																													
2009	12										0.09667938716150251	1.948257960444766e-05								0.0025393009260225785													0.3273778339132646						0.2516080119603301	0.48921108822057846	0.046617648595540705							-0.18795101043854404			-0.34298296268161904	-1.9908448339231903e-05						0.30023542493662175																			0.2900751122697237			-3.094386386994976e-05			9.066407139060028e-05										-0.49997019453232083								0.5001002766690711	-0.14249174335698803						1.0395361347562437e-05	-0.09497084650065989			-0.036146282436933026																																																																																												
2010	3										0.36045606054710755	0.10476899190517801				-0.06121052817696024	0.39048894459721417		-5.281321726215703e-05	0.02525213953914079																					0.16698727563376958																							-6.141998922575035e-06				-0.500023875649326										0.013370650931346177		-2.0085813969431457e-05			-8.956428458541555e-06	-1.660719218470336e-06	2.51845803743086e-05		1.6288354034056404e-06								-1.0114617126520393e-05													0.5000045287804155					4.6351734911078453e-07	-1.0807026324328588e-05	-7.224668401237913e-06																																																																																									
2010	6											5.526688765826241e-06					-6.661458720399226e-06			-4.160728723807673e-06	0.02102201597848954						-0.08970262469666385			0.059759466648346936		0.17923534872026448									-9.653623375556514e-06									-0.15570573650036715														-0.06267899607693686				-0.22601042435987886									0.0282231164039411			0.020964201841239698				-0.05161366941521293					0.09969630314497616																	0.5000057179085453		0.06969487140186158						-0.05508385814080591		0.3954782476331342	0.2667362518980028																																																																																							
2010	9											0.17777310296171275					0.5000069548467395			0.07397423095242524												-8.326801947325917e-07									0.2814513913957629																							0.4999385972156558													-0.04291375215453907	0.2236605432806955		2.7763160184301873e-05				-7.873992541482362e-05											9.98422982752203e-05	-0.500071390721965					-0.4999080168686255						8.635748937492767e-05	0.42827726705285984				0.23739122252085124		-4.483727522730057e-05	-8.224091310596959e-05	-0.3794506638904675		-9.643610206408576e-05																																																																																						
2010	12										0.3825367327277764	0.16773155044467372				-0.14243188306283822	0.4122599505455005			0.07956923948978091																					0.35227496133221103																	0.5000010826378973						0.4999996404033256				-0.4999999917355912										0.26492264042088043		4.533928362402905e-07			1.3068281943158833e-06										-0.08384017054385845		2.9066384197055676e-07	-0.49999904021992												0.06697090339388673					-9.49224213408012e-08	2.1589961026338205e-07	5.922786650305293e-07				-0.49999783280367244																																																																																					
2011	3				0.2293466882763766									5.255575131821255e-06		-0.05070866641597324	-4.818028261825382e-06			0.035597094097427805																				0.09818160073416501																									0.008868033299159108			-0.2354923144023071								-2.827951922850401e-07				-8.353381049480634e-06		0.12094256818848129		1.4038162681118078e-05									2.952417588238775e-06			-0.06659711678010205												3.884589644969351e-06												0.44856986812274935	2.628173306035855e-05	-0.24049729273204337	0.15175151867495604	0.500011075454669																																																																																
2011	6													-0.006313836460120053			1.1068990611667814e-05			-0.00027848450405077823	4.334803400994828e-06																			0.024884564126540713																																				1.3315096179074584e-05	-9.135476462765353e-06	1.7136353211485762e-05				0.06151560500115801														-0.08612395574472685	3.215057494684108e-05		-8.953585344376507e-06									4.240885570451626e-06												0.5000338931042189	1.3036488195140235e-05		0.08383431426826508		-0.10016965430510073	-0.0297252466943801	0.05227934809205627	0.49998775887328323																																																																												
2011	9																			-9.185548817841197e-06						0.08044943739025347	-0.04446664791458618														5.2629319830498444e-05																							-0.11167955030484146			-0.010121852495430282													0.028480913371096813		0.0819591169243868	0.009808618968676788	-0.07479177950279672	0.08720040344773056										0.039428939433768795													-4.852102290324196e-05						-0.04715634195570005			0.14429204296830617						0.1370148465143621	6.442571334174844e-05				0.49999540598731856	0.24863744079065614	-0.06904807904764323																																																																										
2011	12													-0.11943348397848602		-0.10385488056495983	0.18811492326455687			0.0006605290399484964												1.7440374478175593e-05								0.49997125721164	0.05503949710347415									0.5000081453142915								0.4999636318887277						0.06647394283282139													-0.06263978395441332	0.1728471638318429		2.2872295036151638e-05													-0.03295641606973791															0.01565716591183099	-0.30806929141015454					-1.8531128156492918e-05				-4.487203778512043e-06													-0.37183025626461935	4.8135847037431595e-05																																																																								
2012	3									6.955287827309063e-07	0.10294671059731746	0.08572117794859425								0.06342717512272131																					0.17680604157991758												-3.924305461761135e-06												2.8511834862270484e-07		0.12991559706205635						-1.1215746403271846e-06					0.18798235321722728						-3.734100769538107e-09	-2.434559963828523e-06										-1.6279826173828776e-06													0.1562858890226703					-3.4927461449696983e-06	0.08413179811778167		-0.48720017605871857								0.5000002050741312				-1.5669232559794587e-06					-3.0817934332826978e-06																																																																							
2012	6											-1.4329551761945364e-05					-0.04093551624963615			-4.645751260986245e-06																					-2.226381311730077e-05																								1.0904529429947642e-05											-0.10539034888316118	-0.10192614299960509	0.3488657408457678						8.081308587681327e-06	-6.537092809780655e-05																-0.176391257855737							0.22228831579770345				0.3537561517562316		-4.2261405305377457e-05						-2.8361230490529168e-05	0.49995596535461234					-1.7228049837477212e-05								-0.5000096247311402	0.5000420152097997	-3.080933620507577e-05																																																																				
2012	9																5.964324852670901e-09									0.26047039822284745																				0.17476100140605152						0.4122437648394505													8.234954811406817e-07											-0.04234810850961391		0.05330650342575227						1.9452869312056752e-07											0.5000014327345232													0.006653337230320261				0.04680992733921948								5.406770780409723e-07				9.521265610252295e-07		-3.128035194055047e-07					-0.03219729919863776			-0.4999994569103289		-0.135991464496166	0.25628701994987874	4.0375900691911456e-07	5.945068582986031e-07																																																																	
2012	12																-0.013880696338352838			-0.02092018541956285						0.22847673485257555							-8.411936467406973e-06													0.1709903613249699			-1.0671022887741976e-05																-1.7889332958768115e-05											-0.049909476559123964	-8.274677929076514e-06	0.03987890490555802						0.02597585375134612											0.3777537708360433													0.010465441542109																		0.24103156585982244					-0.08156730050841307			-0.5000016957284199		-0.04802726729635658	0.26353374627023585		-0.14375224083270705	0.4999969419995636																																																																
2013	3									1.9838241798035087e-06		0.06359657084238833					0.12519409940777385			0.04098807570442592																					0.15850161844843116												-3.183103265728611e-06														0.2501918484881466		-1.92662150162652e-06									0.11573911717989027						0.14832332831480788											-2.197759404047096e-06													0.0500394695237069					1.7027917107120924e-06	0.20080771061144137	-1.6275723189950637e-06		-2.0511877812162263e-06			2.6310603560853594e-07														-0.4999982992640758							9.570393199760275e-07	0.34662126437250673																																																														
2013	6									-2.5822135035825694e-07	0.07590977528164553						5.989734803678346e-07			0.03624955057364521	0.0915810894342481														1.2019037410645899e-06		1.5705567172342961e-06			0.12564158994776828	0.14925670534364363										1.5227381858480532e-06													2.632327775848244e-07				4.099643687351557e-06																																																						3.6883654118333823e-06												-0.2208309965807093					0.30375866201166346	0.5000043490385083			6.32446878611683e-08	2.743552524809158e-06	-5.7302646420947734e-08	-0.061589858035571765																																																										
2013	9									3.714393072101518e-08		0.08542908749003846								0.04764510733335894	0.10075919562903611					-8.271217055791276e-08									1.738022220783202e-08						0.15133605731191344				5.704925703928835e-09																							-6.734812037067956e-08											4.3713573544365685e-08																																					0.2467384825816353						-1.5887727874444993e-08		-0.0014014923362806193										6.035375291488656e-08		-1.463980416182067e-07		0.3085674699946007	0.06092603305367556				-0.500000211593624		0.4999999727237241		2.5630409889947924e-07																																																									
2013	12											0.126246066655572								0.09552615782976977							0.3163289151067864										-0.005942629625660576			0.47338004932113426	0.28023737921246816																		-1.9514633169256527e-07					0.27079113585982884	-1.8310559184974806e-07																			0.10390174176882783																								0.09115112773709316				0.41527433028441757		0.3331058185907473										3.4071348528644164e-07										2.3930650587540793e-07					9.33032986100061e-09	-6.377206888819571e-07			-0.4999998452658118			-0.49999993701290524		-0.5000001861534198																																																								
2014	3									-0.10826148080119356		0.06541911512407247		0.0647539343971483						0.05050181690414499	0.11365513476036514					-2.9159162195826286e-07									-1.6061718324074864e-07						0.1671787281468973												8.46710620204588e-07															-5.924058754186212e-07																	-0.050507076634702414																							0.12527532502417946								0.4067008357338279																		0.1117721310780711					0.2814518424172229							-1.4928013357031668e-07			3.7846383439049256e-07	4.404717276116947e-07	-0.22794105076618984	1.3746418402755358e-07																																																				
2014	6												0.26891890432293775				-1.97204673188419e-07																													0.09402842969497038						0.31898311494882725																								-1.0171308103164512e-07		0.009488230675200639						1.626778892005356e-07																								9.203078283034489e-08				7.254370016354119e-08												-3.5814926511445553e-07										-1.8204780890274927e-07			0.12911987654462648		-1.6525390475069364e-07				-0.5000007082206912			1.1827586144220568e-07	-7.281278346599955e-07		0.19020523610168183				-0.010743292397964215	2.484923971343204e-07	0.500000715131321																																																	
2014	9											-3.9333921904152605e-08		9.358449374078966e-08						-2.1560835588395838e-08						0.053320594326639645																				0.1319182379045715					4.778582306931614e-07	0.20651102471541583																								-1.1631122794243721e-07			0.12221812915329403			0.10157296095654725																																5.01657754877613e-07										-0.0002016395948001089												1.8649327564130928e-07			0.06370178326637166				-0.26602482967919977	0.03833737516181037		4.7271895153115013e-07										0.011993688706020918	0.03665189347512641	0.4999991000759873																																														
2014	12									-5.18079261047745e-06		0.15409645493722826								0.04823287369715253							0.30012166155177544														0.252208026806583										0.20027490515239446																																	0.1611179547301806																								0.0714933829708157				0.4702271314071045		0.1825119222543865										-0.2274024125941162														-1.1337323993783378e-05		-1.394680977649361e-05		0.5000013942278264	-0.49999128169415447										-0.5000133981071527	-1.540514030527156e-05		9.38552073208295e-06	-2.6265092485075466e-05		-0.11280160648349544																																													
2015	3																			-2.0804305935018047e-07						0.04030801305231209																				0.10793388377945552						0.1898638484621039																														0.05893609486281025																										2.685878392471993e-07															0.15146128749949828																0.03269795491746505								1.5272471641193956e-07						-0.09628774626906902	-4.1976534917625074e-07	0.48550391323077596	1.038353509465416e-06	0.019889208828810265		-0.3421869445079024	-1.6914899595512315e-07	-0.06597338115366135	5.330887581249612e-07	-8.824050683611261e-07	0.41785248801916086																																								
2015	6																																		1.3862385528244292e-05																																	6.9121177765558175e-06																-9.863008763708992e-06																								-2.854798265023731e-06								0.0837009834286826					-0.014131367447856877	-4.8624469295099415e-06												-4.157415669827667e-06				7.208905855918438e-05	0.0020607408558255304	0.01292837638188069					0.22181959096499612	4.281127682168909e-05	2.2121706867894588e-06						-0.1639810516636003		0.3574617449223969	-2.5496599746267543e-05		0.49999315702262737			1.774055478987565e-06				7.74235324984145e-06																																							
2015	9											0.11270375810184757								0.05193418476788043	0.1605621211449786					-2.9126042004800083e-06									-3.677920496283597e-06																																	-3.537045556340388e-06											-3.3283135788769665e-06																																										-2.546392558747436e-06	-2.7522663411157992e-06												0.34207208400089306					0.21995160527431445							0.1341996247836947							-0.4618499225345175	0.10515595032036916							1.9411426624524696e-06		-0.007838825858503096		-1.774173885341939e-06	-0.15687680648838662	0.5000130293829963	-1.50229345667315e-05																																				
2015	12											0.33599836490980234					0.2406477815387569			0.12888507177186492							0.4999739932680001													0.4999806339842789																							-0.14979275104525613																																																			0.49998115609108595							-0.35888081340947303													3.4787237500506325e-06				-2.1739980476416843e-05															-0.5000206726058869	-1.2508701908043277e-05							1.8970167971564778e-05				-9.101018120278071e-06	-0.43421369069602084	-1.1073285593566087e-05		-3.065443559432529e-05	1.004208464654833e-06	0.23744291174043883	2.6446797053010667e-05																																
2016	3											0.2248251238935548					0.2308039941655073			0.04608513700935384							0.363938321089697													0.49999923419964964																							-0.34643701654470277																																																	0.4800848620350394		0.17352529798244606						-1.6746946213250454e-05	-0.21317859311501247																	7.058292319461166e-08				0.5000057399085687											-5.55170848595788e-06												1.8151384902435254e-07	-0.4596227320839231			-8.754287366501364e-06	7.256710968429938e-06	-5.865731593313015e-06		-0.5000027685764693	2.820478290143733e-07																														
2016	6											0.05131074744312068		7.108016413257002e-08												0.046681777201623954																				0.09659522375748616					-1.5425084308648446e-07	0.2788246383885514											-0.15810801377498843													-0.003455225937279978						0.16403322972543513																																																														1.3432504957451338e-07									-0.013635062412477838	-0.052108875600577226	0.5000000161894872					0.4082313877727461	-0.05071200683289541					5.5226568439933766e-09				-0.07466852812565909	-0.20318417575299833				0.010194220010961898	6.237059207497857e-08																												
2016	9																1.3399526020289115e-07																																																																																											0.008569797918402811																										0.1366711585035663					0.04725393547168849					2.6219222387935404e-07	0.28244188979655527	4.42763938425757e-07							2.38928259072326e-07		0.4307745056971506					0.06513796198440494	4.906252697486753e-07		-0.01615087136934056			-5.110015605336028e-08				-2.33339501026456e-08	1.7212704882755342e-07			-0.006418173960159129	1.9929368403412445e-07		3.8517715727978427e-07	-0.0436976179260716	0.09541583524612454																									
2016	12																-2.0550226526007307e-07			3.6941772361836598e-06						0.07531997822129391																																																																																								4.1643757940266906e-05																								0.038723217047268645	0.037009054033892284					-0.002220907796184894	0.3987269271918948								3.4165350433847698e-06	-0.030137278410088345				0.4999898326060389			-0.07411704024857416		-0.007016468734492153							0.00949196664873109	-3.826010869076686e-06		1.836803450560452e-05	5.263676918151585e-06	0.07908376454133037		-5.714955843503458e-05		-0.02491846336826184																									
2017	3											0.12325996336863268		3.5704163902204114e-09			0.043274873707141774																							0.19108089645140097											2.157917586247384e-07	0.49999875752466966											-0.16132249877578977																			0.32704167590914474																										-4.509910235676378e-07												1.8921554539095035e-06																		0.206031889535833						0.11754286738453515									0.04590970887110185	-0.07142568699750167												0.00520452494150427	-2.43787312672016e-06			-0.11748238055880372	-0.18406668760146877						0.07450302545749775			-0.09954997710966938																								
2017	6													1.8726948358066535e-06						-1.4308577495947618e-06																															1.5528188110533336e-06	0.2377487903186723													0.05616283219355833																	0.10791142121828472																										-7.846626571147369e-06						-3.208234550005553e-06	0.09286641803391002																							0.06807977265196885	0.06818563962565706														-0.024734887462762995	-0.038046695434242654				0.49998017232254405												-0.013633853236113797				-4.021496380927654e-06			-2.0713719850040958e-05		-0.13002081957638728	-0.036924112537602076	0.11247996102949001																							
2017	9																-0.04524714205998152			-4.3281720459300766e-07						0.2526726227260082																									-8.175083755326866e-07							-3.3840651521261255e-06																																																		0.11404243015491657						-3.5510434301448623e-06																								0.41217308394438146															-0.1711855877008765	-0.1918111941658528																5.273846069551495e-06	0.4999823971794257	0.4999931675319435			-0.5000133495967937		0.448382106615245				-1.0259223826685943e-06	-2.114320000900821e-06	-1.9052231313884177e-06	-1.6643450851231883e-06	-0.31896666298901527																			
2017	12											0.01061762996129069								2.966137904861896e-07																																																																0.03154980159609462																								0.03386412268949558				0.03607688707007141												-1.3184035630407237e-06																														-0.1559889980611142																	-1.7539389570555393e-06			1.3808254214108627e-07	0.024883497892671066		2.3910921279833186e-06	4.258967424403525e-06	-2.6539392515459287e-06		0.5000022988450602	6.235080641469252e-07		0.5000000439620639	1.0762838455054287e-06	1.2974467345990287e-06	0.01899474885016865	-1.9893675037237506e-07																
2018	3																			-0.03796427442640253							-0.06700223496833274																																																									-5.499172307457937e-07																												1.2281429209774213e-07		-0.06865838470020985																				0.081527203595708				0.49999918000323734	0.058137330362038005						0.4999978257383373								-0.16790576785439038	-0.1567955393470839									-0.08989990096222726							0.05296900411038564				-1.1011370436958796e-06	-2.9918291267671366e-07				-9.580773229419302e-07					0.39559712510679956	7.217208030503482e-09	-2.785205864272464e-07			-3.904506388359457e-07															
2018	6																			-1.5956742968460406e-06	0.0050578353284135135																																																																																																				2.39922070656007e-05													0.13995700414208184					0.06861218269709683										5.87467854540562e-06														-0.22022479207810822			-0.03169741807507279				7.538845759778753e-06					3.24637178572804e-06		6.8863863035826255e-06	-0.49998536368007906			8.287147910612512e-06	0.3942919944142006		0.3030992054430484	-1.4038073323371228e-05	0.34078939011139076		0.49999750184291997		1.3716764065780294e-05	2.5359944571446768e-05													
2018	9						0.2882746002020037					0.06258132225623328					-0.12009716514977876			9.00663709510015e-07																																																																0.03844789560517928																								0.0751722559460327				0.06892353374269147												-0.12665028589681712																														9.628311493808624e-07															2.6599836435684586e-06					6.976215783217627e-06					-5.9128632567606875e-06			-3.4148312075203115e-08		0.4999984164900348	-0.2866594492770934	0.5000036973560447	0.5000001438746211		-0.49999965461647033		-3.5589950034712276e-06	-4.1471656239993277e-07												
2018	12																			-0.03399063267340223							-0.07922576355018837																																																									-9.307035673192302e-09																								1.4614305499310403e-08				1.6388154030106382e-07		-0.0672743939552834	0.3028052003262546																			0.3494549714117604					0.03920154949616423						0.4999999902803295								-8.917599184355131e-08																					0.030650047318123933	3.5979627662260264e-07			-0.4999998694635432			0.09621349236260986	0.1813734956716095			0.2666993396942642			0.034915637376461105				-1.6225260243376903e-08	-0.12082326780316914											
2019	3											0.07818229225538684					1.3880469587626526e-06			5.959950163240864e-08																		0.12202615653175447																																																																																						-0.00840839285504928																		0.2009467904239452												2.252947499602612e-06									0.21599273974578465							6.3544570007141e-07	2.190966549240628e-06								2.5501132124531254e-06		0.4763977413269584				2.029663803103867e-07	0.09707627884274189				-0.5000005510516929	0.48413781296702696	1.2817843216186114e-08	-0.49999961051843617	-0.16636036476460428	0.4999979454209354									
2019	6													-1.7597966392888162e-07						2.2367237702504598e-07						0.0660716631615396																																																					0.2273130523295277			0.2631597929886311																																							0.12338444776806871																							0.09741439873082772					0.16601883065706555				-3.791942628952027e-08	3.012315728428977e-07						0.17416013397502514					-0.25278916937694157				-2.7668881662636477e-06					-0.07565906439922909							0.3517553481701225				6.822239504138013e-07							0.06625302920894183	6.152775990040628e-07			-7.880992477178855e-07	-0.20708160898441547							
2019	9											0.04353378331309706					0.06613055081113914			-3.321582350779792e-05																																																																																																				3.712786871722934e-05																			0.4999784197372288					2.161213097488283e-05									0.14008584100903682												-0.5000332749369754	-0.48082986288728147			6.969952032147445e-05										-7.652591481492333e-05				-0.2724761500003255			0.18763673926518976	0.5000391183172008		2.0425497538744445e-05	-0.06234107839882868		2.3063530155380356e-05	2.2826227901051117e-05		0.4173882350604646			0.4608332380725195						
2019	12											0.280529879307676								0.0865991217223951																																																			-1.7561322409493885e-06																																																																																		0.4999981737210535	0.3227227173474914											-0.5000028086984121				-2.3120175848943612e-06								0.5000013694645288		-0.47251126448687253				-4.220573370282541e-06				0.09560070544891665		-7.673739482975909e-06	-0.1205090660422035	-1.5389621261459416e-05	2.5660602179877555e-06		-2.529302658356163e-06	0.49999613684708144		-0.5000119202451374	5.247192428797853e-07	0.30761841926661565					
2020	3																			-1.6228342314779268e-09																																						0.15074859423658804																										5.6842722998280234e-08	0.17905579805711688																							7.641637718380969e-08																															0.16456643097771714							0.17138427894468306																			-0.13182810786956325									0.08985560735356542							0.14393949397005873						3.3790458394771154e-08	0.49999984675810827	-2.190224682094188e-07		0.13474940821437612	-1.802687175832912e-07	4.4204863908491015e-08		6.106983848282704e-08			-0.06357911468676597	0.16110871599939935	-0.5000001432700921				
2020	6											0.15831497765539732																																															-0.027691761390767507										-8.253520575135655e-06															0.032286486823645086																								0.04469730986550474							1.0184440351111638e-05									3.4985678537139424e-05															-3.7485133172708766e-06			0.31507422225112497												2.9383883866338443e-05						9.230974916559918e-06														2.8108399649769322e-05					-0.2810239795113718		0.2602879132973149		-0.49997271242604785				0.2387070007834567			-1.9184277257721344e-05					0.49997571550150655				0.25930561827227705		-3.361761838493369e-05			
2020	9																																					0.07681180114342842																																															0.2543913422202765																							-0.09836080359913721																																				-0.2315311664688653		0.43553150651825095							7.811882032681014e-06	-0.0011907590509496622						-1.3138160762793315e-05														-0.07618042480958445					-0.1384358066174491		0.46775693958139014				-0.35254516114770773				0.12674541258981709			-0.09732507394467524			0.38583887773423237	0.2264696580112084				-0.4052178403055366		-0.49998241013029027	0.5000164650266207	0.4272289281709492
