year	month	ABC	AD	AMZN	ANDE	ARDNA	BC	BG	BZH	CCU	CHE	CL	COKE	CQB	CRESY	CTB	CVS	DAR	DECK	DHI	EBAY	EL	ELY	EPC	ETH	F	FARM	FDP	FLO	FOSL	GM	GNTX	GRMN	GT	HAIN	HAR	INGR	IPAR	JAH	JBSS	JNJ	JNY	KMB	KO	KOF	L	LEXR	LTRE	MCK	MDC	MED	MGPI	MHK	MIDD	MNST	MO	MTEX	MTH	MVL	NAFC	NATR	NUS	NVR	NWL	OME	OO	PBG	PEP	PFGC	PHM	PII	PNR	PNRA	POOL	PPC	PTRY	REV	RYL	SBUX	SEB	SNA	SPTN	STKL	STMP	SUP	SWY	SXT	SYY	TBL	TEN	TIVO	TOM	TR	TSCO	TUP	URI	USNA	VC	VGR	WBD	WHR	ADM	ALV	AVP	AXL	BID	CAA	CHD	CLX	CRI	GPC	HSY	KTII	LANC	LEA	MAT	NLS	OATS	RAH	RCII	RL	SAM	SAP	SHOO	SKX	SMG	TAP	TPX	TSN	VFC	WWW	WWY	BWA	COL	LEG	PG	RDEN	SENEA	TRW	UVV	WMK	COLM	EXPE	HNI	JAKK	JEF	KCP	LNCE	PAS	PRGO	RGS	SNMX	SWK	UL	DPZ	JJSF	MOD	RAI	BDK	HLF	HAS	NTRI	PBH	ICON	IMKTA	K	THS	JCI	JSDA	SEED	ADY	CROX	CENTA	HOG	IBA	BARE	FACE	HBI	SUSS	WINN	WRC	BGS	ALCO	G	WBC	ETP	HOGS	DAN	DPS	ATVI	CSKI	DL	CHBT	LO	MJN	PM	SVM	CZZ	BRFS	DOLE	SPB	TSLA	PRMW	SODA	TTWO	WFM	CHEF	BTH	EA	ZNGA	LKQ	POST	RNDY	BNNY	CG	HSH	WES	BDBD	LFVN	MDLZ	NGVC	WWAV	PF	COTY	CSG	ABEV	ENZY	SFM	ARMK	ESI	FGL	KATE	CPG	SC	GPRO	NHTC	DPLO	FRPT	SFS	VSTO	BETR	ENR	BLD	KHC	NOMD	UAA	RRR	TPB	USFD	ELF	ADNT	TPR	TWNK	NBEV	CELH	WOW	ROKU	APTV	DLPH	CRON	HFFG	KDP	VNE	CPRI
2005	3	-0.026729736324012782	-3.3430516520827735e-06	0.004458449367596401	0.08425925489691194	0.0803599748117185	0.017437725799357075	0.14105062035965857	0.0452578494570087	-0.04518936763224715	0.07077691964603175	4.8789882402124265e-06	8.381337325223093e-06	-0.037217930165689875	0.07363549673359493	-0.006521820667338018	3.5181261001784695e-06	0.03428088281651685	0.050875543977557745	0.039290609538217926	0.05051866999196159	-0.026273950983337718	-0.07254150850740568	-0.06092449498747501	-0.03244377746796885	-0.04128869729928406	-0.23562106986517	0.028823568654039948	0.05741194408176085	0.03940458883315765	-0.0706075601127749	-0.03803547523743435	0.034694831639296535	-0.000616065049559408	-0.0682783377831434	0.12109753875558303	0.03224645804700865	0.0031919844475077975	0.13578843205937727	0.007231016034109724	5.5021811173053186e-06	-0.038084581293859825	-0.04685198552166216	-0.35569070123414454	-0.10440703378069055	1.5930302674144467e-05	-1.8714162314901366e-06	-0.07586777602098438	-4.0408498727167186e-05	0.027544719707374342	-0.025820256267286432	-0.0019641788207571073	0.024468463128475008	0.020855897553949097	0.0637528349836317	-2.1152843676513925e-05	0.009357805911771773	0.0538260826438116	0.029818135412163722	0.017665557346927204	0.03595178138476559	0.03161426766863647	0.09567918225900922	-0.07164460623234069	0.023739587509197874	-0.051261946729476635	-0.04692838154720164	-0.1228235164306289	-0.06224830584691353	0.03181965207138773	0.08219267997439206	0.0786933984424465	0.016698911860010067	0.1711621356222398	0.26251708432201576	0.016065313522914796	-0.05218673817043831	0.049530007802409584	0.08228022376937319	0.09812974800378553	-0.025745526787932564	0.01666859166148717	0.01377101020646075	0.011740464501249102	-0.12499783593199876	-0.06662416089852617	-1.8588361503891074e-05	-3.373454796072443e-06	1.5758969386553248e-05	0.005006351297941893	-0.016065218425860638	-0.06939329172145485	-0.20863077853505488	0.016510061005487603	-3.1484902903364243e-06	-0.020158045369720615	0.0054024653865772645	-0.01631185084662337	1.7893490824052e-05	-0.13216041344346324	-0.046373835105892144																																																																																																																																																																			
2005	6	-0.08546025677598006		1.5649207609914733e-07	0.11797147302553254			0.06615262558555204		-0.05095028229523135	0.06133722703512429			-0.007271078920592717		-0.012698356972202968		0.024570789826399465	0.03826879383173786		0.019065027798256824		-0.03991237940570607	-0.03724404317454723	-0.04676865810869932	-0.0356467006741426	-0.15988784269565012	7.134591936925301e-07	0.0249411506542365		-0.06561029759921343	-0.035871220222809974	0.013887283291867636		-0.05887748303997899	0.04726173438131008	0.0353312644973684		0.13296044087995473	0.015305502675017202	3.400564390530838e-07			-0.32520237401518826	-0.08576908697262586		3.898184189968902e-07	-0.06951999654292156	-6.171243924199478e-07		-0.027540018901571463	-0.0022120982563749087		0.03448001018327641		3.1070958006618585e-07	7.394550098586638e-07	0.06590239117547733	0.030195675708146415	-1.862983782124423e-06	0.012577568964032977	0.030790921475779127	0.08282781775903403		0.016509742841421742	-0.018478015624767124			-0.05813005532548999	0.09875271697527478	0.08274472601821824	0.040550825125599974	0.0474959977000366	0.1129786564877321	0.3793268043647008		-0.0320519181880151		0.03194361968761987	0.0674045271492148	-0.025524305951194842	0.01807022710859633	1.296411916377456e-06	0.023274558696968657	-0.15418852086256007	-0.13287166709760087				-1.0816752948899548e-06	-0.0010310802084746498	-0.022115243066965114	-0.22850266124227422			3.7747134859949093e-07		-0.028788512241572646	-8.917017345300574e-07		-0.03343024952296361	0.07552629804119723	-4.3118207200964297e-08	0.031030073159698468	-0.0013595283380781447	-5.036453465137495e-07	-0.038685516932922354	0.10902143608786322	0.015070428079712993	1.9503274198981254e-06	0.024181985044931523	0.16884432956400824	0.053583985017631265	-1.9179274323585516e-07	-0.017502956512249767	-6.431426200824375e-07	-2.8334167596262104e-06	-0.0006433255986818701	0.06915502230918262	-1.784168564761005e-06	0.010678744969915093	0.018756366892951577	-1.1048846349940532e-07	-0.005212684159218673	0.005004232730878879	-1.4880243899094844e-07	-0.5000012271270301	1.0285511126918255e-07	-0.0012126211522258926	0.03217116129190226	0.060271364340659515	6.403271720107809e-08																																																																																																																																				
2005	9	-1.5698180181207665e-06	-0.08099498309554132	-4.8532934880964456e-06	0.27418666094371735		2.4402022976340175e-07	0.24719753786723048	0.08059208659641384	-0.10142563178021273		-1.5420411618355613e-06	-4.7510908263270786e-07		0.027468884864326623			0.03777506338261414	0.025725745558403373	0.08208808088961274	0.020854691873250192	-0.09698299718953723		-0.1144464585973553	-0.0631908160385241	-0.10667442359132535	-0.4237081634427588	-3.0478975175855365e-07	0.10603214570143221	0.009544217555599102	-0.06793590641241734			-2.7576483661185514e-07	-0.09364263883239757	0.053111186870470756	0.07737798973329352	0.02034651245551194	0.3209869473989488	0.0031300524170189037	8.561793861854744e-07	-0.09190677297463445	-0.08552830309482021	-0.4617041864876916	-0.05560751335269068	8.810137743048686e-09	-8.929128895753586e-07	-0.1374993066535475		0.08908608229478909	-0.04885676175683432			0.028350554535588563	-0.003309177160774939		0.001614274693213596	0.10213532958420435	0.033659121676346326	0.009764571416205849		0.03397827432791513	0.13960418384207182	-0.05495856085887194	0.0006023915700537853			-0.10161569875241959	-0.051905616835146974	0.12276019862319225	0.021899534911887376	0.11332240491093208	0.06303169439599948	0.3027837382691524	0.2527565865468608	0.025447556981039295	-0.02996405307314648	0.09220206409048674		0.19609529393862635		0.05431225822213317	4.4128877975467906e-07	0.03737364763551307	-0.2812379910942613	-0.0008769595572724695	1.1254442614664574e-06	-7.214125808699615e-07		0.005149026070057231	-1.3110053309783323e-06		-0.3215219011765481	0.028477952615757383	9.010588728094885e-07	-5.1682825504985125e-06	0.00043348334006491354	-0.03752248033570893					-2.3490493658535256e-06			-0.024810957734152282			-6.567461667704568e-07		7.381016226846377e-07			-6.120577515809137e-08	-0.10697260905702904	-0.004018187622810587	1.0175418445164514e-06	-6.2971483580852595e-06					0.00866800399114574				-0.21567539503517869	1.203440422629093e-06				-1.2525540909007454e-06	0.07165534202743556	0.17269614816315215	-1.4798601621845803e-06	-2.8303619057861247e-06	8.373577663190987e-07	-0.007251549477443672	-0.10054713296160037	-1.840690182128784e-06	-0.021954418186068966																																																																																																																											
2005	12	0.0301304455552907		-4.1306443794624154e-07				-7.039855369178214e-08	0.08727470652017885						0.05136420982812759			0.02857290357434623	0.03760242847857172		0.02455779865648189	-0.1291915761897245	-0.02398321234790842	-0.08930161967580907	-0.08153916766121654	-0.11943205122243167	-0.41201523923375677	2.1377700421995371e-07	0.11769384569202734	1.158929523266761e-07	-0.08276996144808359		0.03816368217738266	-5.417185966983359e-08	-0.07941633416548745	0.07316031466791342	0.08324261692209686	-5.81605228866162e-07	0.46548158732907996			-0.10882375226383126	-0.18510712782209085	-0.4951705747815816	-0.059421794871696375	-0.005837244909528266	-1.3344052031523656e-07	-0.14930353640123967	0.033230190548247565		-8.654116218274005e-08	1.9502436875819984e-07		0.06982061415028872	3.017988263017876e-07	0.08237349836409386	0.000236018239139734	0.11206458633696913	0.028418764161972393	0.01363086039607535		-7.447922072892982e-07	0.16575235663772697	-0.07374352274953762		-0.009660090938610897	-0.009142801680318717	-0.08683417638139157					0.037099338436485184	0.28602114824333685	0.24305497907667473	0.028472156423627326		0.07480459366709516	-6.645947885840036e-07	0.16521195222546697	-0.0014584197693584956	0.04518049885122467	-6.263470513223421e-08			-0.014097538763833245		-0.06617258384013176	-4.6976001011155575e-07		4.44844794368153e-07		-0.21274476921966154	0.03413374115689106	-2.88880555372902e-07		0.004765926450918099	1.6833358068821982e-07	0.031939156461887316	-9.288745739021189e-07						-3.424899274906893e-07				-9.035467860381509e-07			-7.488813349565798e-07		-0.12143227458430293	-0.038891801660852085	-8.733693461775299e-07	-5.255733750574915e-06				0.04865977092340123	0.006733393302729499	-1.7842590444268457e-07	-7.251966424968393e-07			-1.1569006052581384e-06	-0.014364687915081869	2.8172336610197566e-07			0.07822403645289622	0.14170437458866883			-0.2956044144836358		-1.2232061926795004e-06			-5.4989663828403774e-08	3.846060586721786e-07	0.15238465962374892	-1.4860580134947827e-07	0.05976190312990572	-0.04496238143459634	-2.778487253540099e-07	-1.2625873820163796e-07	-1.472637021507039e-07	-0.03834423882687499	3.6091343733465376e-07	8.422498392596999e-07	0.06786046448607692																																																																																																														
2006	3	-2.8976812662411446e-06	-0.03260962378457832	-6.608465526617143e-06	0.1342699360053909	-1.2414601501918186e-05	-9.300267856288711e-06	4.151509924906633e-07	0.15822890564436365	-0.07660709106419547		-1.0170594383173396e-05	4.719973027840729e-06			-0.02207080296001919	-4.5193332165565033e-07	0.040438121826823784	0.04911669828887552	0.09759522942147474	0.03696819681491441	-0.10848144559745658				-0.11707871091532919		-9.820725791341484e-06	0.12785846488680705		-0.11872092620646035		0.0397811047925547	-8.124249622081449e-06		0.09065117928096951	0.11216173815209494			-3.052561687707023e-06	1.5330190352622883e-05		-0.014474121163065573	-0.416576837459725	1.2802460938993692e-05			-0.12192594685798139	3.396257428758169e-06	0.0169634204708219		9.079819805912655e-06		0.06613722176830861			0.00894880360448158	0.0974111360896518	0.03517990482415231	0.006592773240554072		-4.043385751180465e-05		-0.05001292758731212	-0.0001545366236864622	-8.32989947328367e-06				0.0956309388130807			0.07600615195836156		0.19710754464243838	0.05015706931251274	-0.03659766909402083	0.10155198516192086		-2.1352905967618963e-06			-1.3232632946953321e-05	0.059637021197368224	-0.3088380492626436	1.1158206138959774e-05	-0.015666193659654947	1.996011662197858e-05	9.76164096214471e-06	0.020728293194339376	-1.2319177245669132e-05		-0.2814660484251991	0.04415424326970181	5.587523583688471e-06	-3.648397086203632e-06	-8.35113815468509e-06	-0.009625468109206878	4.5302556911810143e-07	-6.93866486238724e-05		2.3566124889811398e-05	-2.033186280690849e-05	-3.6262932907879824e-06			-3.248590513542709e-05			-6.605482052197162e-06	6.404092811880209e-06	-3.6652509952614012e-06	0.1486504906258787			-0.06475592335380624	-1.63603242159887e-06	-4.232134601604564e-05		-1.3550914420334816e-05		0.055340056325029766	4.178757291123804e-05	0.00785569574841365	-0.0001730450195215952		8.70753559526631e-06	1.5371281440262008e-05			6.1204652667087464e-06	7.152640603006793e-05			-1.6538521935868721e-06		-0.28146506630887647		0.04017849654208054				4.5593825369127503e-07				-1.5218443798585465e-05		3.7580589371994653e-06			3.6704420788653284e-05	1.0683511402896412e-05		-8.600295674157916e-05	0.06191477814768779	-1.8442645232260254e-05	0.00015133883957305503																																																																																																										
2006	6	0.009894619579352764				2.815692575194625e-06	-0.006432000664220321	1.1100248922079955e-05	0.025442850197791536		0.18709365100463426	-1.927662297565382e-06		-0.03281451574007752	7.163440465440452e-06			0.04540427943002081			0.022572934808255125	-0.12113777822396896	-1.954116493491363e-05	-0.06329047220458889		-0.10501024032670815	-0.01757389516831137	-4.886624766478056e-06	0.09595169536119065	-3.5629186768554586e-06	-0.05370711231819636				-1.1259083075722857e-05	0.040919601470233394	0.06865407125219837	8.28367122086707e-06	8.186741097107778e-06	5.273880541164061e-07	2.332502976663684e-06	-0.027213153904128203		-0.5000079485296179				-0.13271042069215885	-6.013078779347309e-07	2.9919957807591235e-06	0.004560930603162936	3.672468152021866e-06			0.04193257680966156	-9.22817372821525e-06	0.013494407197951853	0.013668558400545757	0.025005970264388666			-1.26421925880107e-06	0.038820315988296314	-0.05652491797893783	-2.9859256800381076e-06	-6.443262457869402e-06	-0.09402208463786782			3.112962895062973e-06			0.06672866333627002	0.1607493127049454	0.02265057307980597	0.030356825606628945		0.04704239517488275		0.05409926072437275		0.023999719894242374				-7.318141338306969e-07	-8.044045614145593e-06			5.48192151376845e-06			-0.37790034361629515	-1.0466633556488176e-05			-4.180184014051319e-06	-0.04225333371977331	7.228793225915543e-06	-1.8927176290973176e-05	-9.339700938980764e-06	0.023052440618437885	-1.2526240475116625e-05	-3.4643456954831708e-06	-0.020138898313207886	1.86280753334761e-06	-0.0033514113920220896				1.505649134689031e-06	3.6865398384402514e-06	4.1816522405240945e-06		-0.09466880950368649	-0.0011760228312393715	1.2452904294529022e-05	-1.242477810069346e-05	-0.001747509944657313	-6.476363338080778e-06	0.07015117916871236		2.1279119885623053e-05		2.183485783791687e-06		-8.411147158367345e-06	-1.3329740593558504e-05	-0.06617219841294592		4.006255137342946e-06		-4.318239819640712e-06		-3.7971563766047807e-06		3.307494677957306e-05		8.146453137512828e-06	-3.420083053445374e-06		0.0018753942832947874	-9.53879846519864e-07		0.008430883499117327		-1.168062213135684e-05					2.4813623008039026e-06			-7.808703273779334e-06	-2.308582424477405e-06		0.48070727558270726	1.007694081597801e-06	0.19464355975808564																																																																																																								
2006	9	3.263349622683983e-06	-0.13107293605694378	1.5930229322149128e-06	0.09702128099124235	0.050021259009922714		-2.1326851430900323e-06		3.543233422141119e-08	0.06262298105730907		9.697733966883463e-07	-0.04455238036375873		-0.07807469599669564	9.984609139726012e-07		0.008846656957884098	-1.426330403683529e-06	9.341995245952329e-07				-0.01832842738917224	-0.10433840280133025	-0.06558629828370148	2.0512145785962588e-06	0.09080865093572531	1.913462477570153e-06		-0.008102752269240471	0.04706871771590836	1.370546242206315e-06				-1.5440778097955533e-06	-2.8026224677637726e-07			-0.04683935517675549		-0.36974982729737504				-0.10179843907038803	1.1085418640564747e-06	2.0353791172133935e-07	3.407877097536769e-06	0.016376098565450543		0.014384061876127476	1.9776465921670996e-06		8.838288510899093e-07	4.1419905345646346e-07		-0.00289741028318055			3.304576904356718e-06						2.086536772475556e-06	4.175448844188237e-07		-2.683574811250577e-08		0.09607166650942653	0.04663513299790097		-0.048810620038903685		0.04026088723208823	0.007525049680691966		0.017836833973408156	3.425979217473298e-06		-0.04226324664420891		5.0236923188045154e-06		-1.0469438191102264e-06	0.00416265605001198	1.9790087718500422e-06			4.989669821645781e-06	-7.302584242535987e-08	6.3578730301810545e-06	1.1546245810419773e-06	-9.809168203962541e-07	6.926719996426509e-07	3.841940123474294e-06	2.4974319510557928e-06	0.07057523743878114	2.1510300594223142e-06		-0.018470473680308335	-9.912325480973207e-06	3.1601931585901763e-06			3.206242133408024e-07		0.06108699534850025	0.09165068046638158		-0.03472081499927176		-1.8167608367910304e-06	4.485090632169008e-06	9.650285003390223e-07	3.330826658144506e-06	0.0169997705448762			2.627555713433426e-06	1.59498891275264e-06		5.2872718613553274e-06	1.913013468112303e-06		0.0029337036575732417	0.006188919487295004				4.1245757348775213e-07		1.142006837569077e-06		-1.1805143175275077e-06			3.1303922573196985e-06	-1.4859583190160083e-07		1.4328933354932952e-06			-1.2865432811727527e-07	7.734155264772303e-07	1.978049772184715e-06		0.01780437691229322			-2.728626729560607e-06	1.500486006572372e-06	-3.714617227770354e-06	-4.766076002243375e-07		-3.629905397597502e-07	1.0809308754739708e-06	0.24866157119482288	1.3646292862059111e-06																																																																																																					
2006	12			-0.02239506710776287	0.05825725361711798					-0.10212819980412059	-0.05666177670604167	3.8724563965212977e-08	2.569687251535221e-07	-0.09443485133803639	-3.539938018969263e-07	-0.15726510896644078		0.03051941576351007	0.04759551891959953	-1.5257814203069517e-07		-0.06266435189344127	-2.0415666258591449e-07		-0.08962061791023739	-0.11454487583049754		-0.0643025240341541	0.09451267893165194		4.361200516196079e-08	-0.07875546673734432	0.05947531967413601			0.014127593023865995		0.020476689248050073	0.08205024756546647	1.7544262472444887e-08	1.7324227622086543e-07		3.2422767279430495e-07	-0.32259623376560514				-0.21701282498632044	-1.6476161102931774e-08	-2.897514724524069e-07	4.9585548241342596e-08	0.06420735152699425		0.03852406317918038		-8.878482952647525e-08	-1.3765361454864656e-07	0.02983328386801398	0.038944174327912806			0.003907707676498991	0.022813208406566643		0.01282451705281019				-0.13314040891642445	0.011429359099096351						0.02732672383256863	-0.11001851288924072	-2.0246426966225832e-07	0.06904176558232157	0.1066661800090032		0.06656009439346704	-1.6255400184037465e-07	-3.2252504252617494e-07	-0.3695028027980962	2.7211602916448985e-07	-2.2466971265470168e-07	1.2609389463012436e-07		0.015338138500545937	-0.03287122914516634		-0.2700463418992503	-3.164373480325704e-07	2.0508945460382496e-07		-5.571417457229098e-08	4.312601613939274e-08	-1.1332089741340243e-07	0.1416742279312278	-0.06601719165812685			1.5982270684005383e-07	-0.05583200657194768	0.02226850803612975				0.030968976225110304	7.097472985851512e-08	3.6409314882158536e-08	0.31846132688435747		-0.05167504973459467		5.684918913871252e-07	-2.2782351950357445e-07		-2.1354626669563495e-07	0.19146410309816372		-0.014744636305103212	0.07078828188313273	-1.8723139347848273e-07			0.047999162050741305	-0.0015453190532228704			2.8054034595448816e-07	-2.9064877246031572e-08		1.6144490309174078e-07				1.439159259341082e-07	2.1027024703301757e-07			-1.5043071156799763e-07		-0.016996944861000653		-6.144265672732595e-08			-0.014964432523070354	-6.754796599214937e-05	0.04380658058598457			1.1828295597483751e-08	0.017844911781396706						0.35246509789860925		0.16709625029244002	0.20053560890158978	8.019499889807051e-07	-4.911312093764671e-08																																																																																																	
2007	3			-4.007605481444533e-07	0.0496767836769974			4.86014213016021e-07	-2.43885014327538e-07		-9.335761766966019e-07	-0.05075788386492565	9.479117411043337e-07		0.01904808020297234		2.410253848040761e-07	0.017900276613109348	0.05301867137155499		-4.6567666686311996e-08	-0.10072840185693994	-0.021501315693014465	-0.01848085287764882		-0.10157542883362411		-1.2725180879527613e-06			-0.013472079318205765		0.031892914688810683	-1.8104568708799068e-07		0.016056020378271578		-2.6341599313046677e-06	2.3214393122056294e-07	-2.9236486460172847e-07	1.082033794041385e-06		-0.07372550147420692	-0.3300403930192908				-0.17376845338819716			-1.6373775330412666e-07	0.03168890756403624		0.05166019252580578	-1.0822671416361371e-06		-5.451385592337737e-07		0.02386065117982943	-4.3334691296733187e-07		3.9124941620526e-07		7.65617196792288e-07			-0.007108234718878888	-0.042856443744303606					-5.945597757620247e-07	0.04385117097167638		0.001579677937342592	-0.06287571707651178	0.006414912703829909					-1.1266398616732985e-06	-6.948879368776048e-07		1.0703111188631603e-06		-0.014166177541543085	1.6804502299212296e-07	0.01566132997681215	-8.861220852200894e-07		-0.11199484031383188	-1.5295656475813324e-06	4.20226079792217e-07	-1.3963342571096007e-06	-1.6726198733599276e-07	8.937314456774671e-08		0.07363913143753653			-1.2836689589880425e-07						3.0130040180320545e-07	5.240717753718648e-07	1.1534683556718017e-06	8.887908964612946e-07			-0.025789968497318624	5.862789202674972e-07	1.2918828815854602e-06	-8.890333757500127e-07	2.667202881277016e-07	-6.799325658662367e-07			-7.689954020023577e-07	0.01692521805718527	0.03192174892776596			1.013533438488709e-06	-0.011523593139944556	-4.2352254124102437e-07	1.044229277077678e-06	1.1074532727541038e-06	1.5819553528381237e-07	0.02275711994799104		-6.618688521408753e-07			-0.01258916231424512			-2.5560470193635357e-07	-1.2692627382965654e-07		-3.040474372043855e-07	-2.6619382096511523e-07	-0.017844131854220468		-2.871419307569175e-09	-3.836697601009323e-07	-0.032785425360336434	6.136499577498992e-07	6.859513292943374e-07				-0.10302758135991695	0.5000006087150248		0.06259096060474402		0.08348930677032027	-3.38048799991976e-07	0.09360892777575906	2.7785002759974365e-07		0.07937535269563922	-1.487766032055594e-07																																																																																																
2007	6			-0.015081171087914298	0.047493250324744385	0.0650946712302357	-0.057783434578833164	0.11319752190040161			-0.04167708479796358	7.950832610354951e-07	0.015296631890895125	-0.049350194892884516		-0.03510368334698789	0.03064916007636561	0.022280955479989643	0.04683086737793383	-2.915375204870247e-05			-0.031509558181884716	-0.023696016245346348	-0.07441317297058472	-0.08545224226245304	-0.33451836782836897	-0.059362531865805056	0.037233433972196764			-0.0603844357724638	0.031626207899660565	0.039488438518074286	-0.01781095984456756					-0.006908200818587862	0.07067186401409327	-0.08502210119551187		-0.29835886976746123				-0.1148004527093269	6.350275724872612e-07	-0.0012384412140471464	-5.5713887393608355e-08	0.031283511407452745	-0.02966542623668831	0.04732993842927945	-1.5980240131141446e-06	0.04523289079961569	1.5905663968702804e-05		0.02445954675072561	-0.003224968177454927						-0.005671920535574304			-0.14151308767423648	2.315627564055061e-06	-0.029491465180070436	-0.014855542616384542			0.05975806738490893		-0.056382124715464506	-1.3527218467781235e-05		0.06999402833037172		0.044341432492415775	-0.01104606002580088	-0.01946695257530598	-0.22524741868846798	0.021920778965534172					-0.031954656023403145		-0.1639458912822122	-0.014464150984382125		-0.041396682359322	-4.514507814784856e-07	0.011671098476725723		0.07703595291792062	-0.10196432914710525	0.025645583543501195	-0.04036164416298929		-0.021060256455206053		-0.06804786746201716	0.1282493957758141			0.04809425697204605	0.0062807639209505745	0.24122661844355467				5.278862008426659e-06		0.07503551413048798	-0.02564407785978112	0.13287453111867267	0.05493674511585505	-0.020910262246313226	0.019394970347785107	-7.563577567678771e-06			0.0459459271331438		0.18988234876145252	0.14864052484635237						-0.27450589753347604	0.037128716205221374	-4.191756975416875e-06	0.01855290131396682			0.005465313704629646				-0.04531929206194894							0.13600798508168682	-3.406484429193803e-06		-0.1971739331354266	0.2529168355384893		0.06214243820847615		0.04983425789953683	8.133516391254029e-07	0.18585808633163	0.1045730100842669		0.05422968772475843		0.5000147506701578	-0.4999835726961954																																																																																														
2007	9				2.9862699054668984e-07	0.036802170971778174	-0.035255110194672624	0.07206836880087387				-2.002672922516319e-06	6.639074685510769e-07		-2.6040612623697473e-06		0.010433550748289899		0.05200335850105638	1.1760023604120029e-06	-0.0015713640318113728		-0.002693409605506952		-0.061010084857349475		-0.21783539973676708	-0.008763388292387025			-2.0434453954694285e-07		0.039110949035753836	0.030710061309020077	-0.025390650076262972					-0.0017295326175938927	4.469422992894085e-06	-0.08632958667216586	-2.0062761815282958e-07					-0.05939268450326621	-5.306670794189572e-06	3.119146816356114e-06	0.0003220883599309071	0.017107343018552705		-2.0013964364018032e-08	-1.7192816145290284e-06	0.04110267677343305	-1.9059319991855317e-06			-1.5400445783028166e-06								2.7943557977486285e-07		4.961886687933679e-06			-0.0036589032160549077		0.04637318264234577		-0.028575145568573507	1.7170102866625128e-06		0.04992094019344695	0.014091123997198553	0.03732321208847605	3.062050961969774e-06	-0.005601492318940885		5.025921289081594e-07	-9.419979030998197e-07	1.831499083593174e-06			-0.013873477029835723			-2.8752845075599426e-06	0.02237739056220466	7.25266072516681e-06	-9.047946789622999e-07	1.82175730008643e-08	0.015440783749572666	0.08795153147463365		0.011591525614795772	2.5384267537275713e-06		-0.0018801341809735058	2.3759538224867324e-06	-0.05709673111055841			-0.002388006637194903	8.753938911214267e-07	-3.849306513355595e-06	0.15063940180807958				8.872883706022795e-07			-0.012068343100725533	0.10750895335588974	0.05049832386833332	1.2178567983232773e-06		2.598920697395724e-06		4.425620929755435e-06	3.570526030923263e-06	0.007943749896574067	0.1122258865602623	0.05067371922246014		0.042624868458345844				-0.01957063129906814	-3.192447166190146e-06	0.015209570755752883		-0.10854616768780657		0.011360088550667767	-0.03744271197799884			-0.039513878230360754					-0.010266632695155866	0.003467132504697233	0.1128426781369866	-4.099427644499881e-06	2.7395307016352566e-06		0.13206579567580803	0.00013977578494929103	-5.332659382542593e-06		0.03390731932525779	-0.2125901221690995	-2.1484795509772387e-08		-1.5144652436286855e-06	-0.027791316617069347		1.1118298101720957e-06	-0.49999752699908184	-1.1826699325368805e-06	0.16497458426456116																																																																																												
2007	12			0.022416502631759955		0.029243122135895742	-0.06885847630312626	0.08807768308479938	-0.028534375964827177		9.560097833660496e-07	-8.035030170181085e-07	-7.896041675756093e-07	-0.030863118732924147			-4.4049897056927896e-07	0.04246458204586393	0.0678275079160103	-0.015154647967793883			-0.011154107213788882		-0.08489396581278383					0.025246596177064484	4.650466813550467e-07		0.05536420921089183	0.026313107198769056		5.80839777635403e-07		0.02133951274035085	2.8329074453057815e-07	-0.0025078746657817936	5.586662162906751e-07	-0.14202064388826638	2.021467023632633e-06	-2.9683198979786306e-06				5.481032494885424e-07		-0.00401831244040145	-0.001378713478374926	7.230436455673977e-07	-0.015294823871253109		1.2947487890446894e-06	0.03594244884712762	1.0829779280283875e-07	-0.011108148866608764		2.5685119719403474e-07			1.0055580732524986e-06		0.020599499589065616		4.611728905175613e-07	2.064868493872837e-06	-0.13052489836846026	-0.03558026170078007	-0.015037279719558337		-0.004419894590740857	-0.008962754059029165	0.046739116397239	5.566697180277332e-07	-0.045266169529007694	-0.010845901733957665		0.04568520986205558	-1.7467281532879215e-07		2.810702050161897e-06	-0.006442205120595821		-3.3363902593949377e-07	-2.747609248733112e-07	3.3854307531833806e-07			-0.0060309398723563876			1.1657626947900013e-06	0.007054349426512655	3.5355735184511818e-06	3.651165537434371e-07		0.017238393070231343	0.1109400464093905	-0.021860364842655113				-0.0038939517963045922		-0.08284766643689695			-0.04243100109893624	-1.5414986472004328e-06		0.1479713255123918				-0.0892175577872996			-0.02774157898505422		0.060375999267511006	0.0088774689501467	-9.510420461373325e-08	6.141412670241076e-07		0.0853932099995905	0.04853586037761067		0.026201627216780314	0.01490265653921999	-8.91057461598265e-07				-4.379259527814267e-07		-5.228440787801828e-07	1.8852745091770156e-06			-0.008411399639719609	0.016657330416144474	-0.0689232861546307			-0.08155517066622882		0.007889626681465178						2.346833106370335e-07		-5.956921939566327e-07	0.009710586568060588		-1.0010012478429024e-06		-0.03515883446001828		0.18065094525509504		-3.2527964414506204e-06			4.28444627409379e-09	-0.49999944750165787	0.20831035750592872	0.1629626723478793																																																																																												
2008	3			0.040233016950800254	0.07294680813410252		-0.09181358627572882		-0.03781879976998358	-0.003626324848202118	0.0756376811473865	5.175826989924989e-06	2.7399127396880557e-05	-0.012736407990352276	0.06446228909195767			0.06780278632830349	0.06827104046389162	-0.03683435248213623	0.02017905208458322	-0.01640350461589455	-0.022277712147326545		-0.050771664946996684	-0.06239374064993252		0.054194476208531225	0.10571738683089972	0.09243173009509269	-0.011683654190118098		0.05922444684903647			0.013273896621648204					-1.401083796572097e-05	-0.14962478222628986	1.7263705915884086e-06	1.317804752691304e-05				-7.484804852158559e-06		-0.04134413787739857	0.01515682521038343			0.0580330925194374			0.005627017813328242	-0.02234506066959394	0.03427807577990726	0.01806900912757925		-0.011694413278422822		-0.02874324851616617			2.254693096715509e-05	-5.177674398479413e-05		-0.0972589292236208			0.01063448990439434		0.061568824525305904	0.013462476861721006	-0.0363456505272797			0.031940589107747476	9.793142523819815e-07	0.0327949115441866	0.06033992424710435	0.006376068302614849	-0.08954238400170866	8.284074142974558e-07		-0.04863246548708561	-0.07118099345527279	0.023637164292183682	0.017702958008559703		-0.23579328229547852	0.03775083976111499	-3.793885233780239e-06	0.005363386301317701	0.012527378068665567	-0.014219728570253304		0.15741982905029261						0.024939271345184456							0.16598468310874598				-0.08314746351413936				0.03750483931843308	0.07475546937727122	4.136265482958163e-06	0.02225363911940218	7.690160771111024e-05		0.13238107715774028		-0.01265455366646122			-1.0292134039509417e-05	0.18878562897043646	0.19551332810583158	-0.04688014002557652	2.3173179905725486e-05			0.0318058291190263				0.02236781101281652		0.022324296881895453		-0.14019520025353338		1.5270928500746747e-06		-0.1316576680904946	-7.509623952129472e-07	-0.004042385370974901				-0.07270980146975722			0.08104581589167295		0.04275918844022785		0.16155963389936157	0.04352856812027035		-0.05193608430491772	0.14191900130490306	3.431629059324593e-06	-0.49999769233246544	-0.03298100547847859	0.042729628279768686	-0.5000000583177302	-0.49998561676516307	0.4999819508291459																																																																																									
2008	6			0.018989461209334712	0.06574760469867238	0.05780920479104289	-0.11180314564663277	0.08398227717556184	-0.023059000633012573			-2.6008417983159568e-05	4.760045420035909e-07		1.49697879000358e-05	-0.011891066266709988	0.057482055432240026	0.058190422714636335	0.06749719759102582	9.764064237819853e-06	-7.145594379825918e-06					-0.08731639280451815			0.07671298255305019	0.024474844061872097			0.02688517149766639			-0.006681084590129453				-0.0009978233277345527	-4.852538512596661e-05	-0.19009988183621263			0.09015109668336588							-0.00048267831858854194			-0.025429526374368013	-3.994950927653447e-05	6.759642544261893e-05	-1.9540218437921085e-07		9.350123301712572e-05		0.031026800554818483			0.05002559515040279											6.844984289393187e-05				0.044326422802743196		0.03474210261243841	7.14796634497448e-05				-6.834350698668978e-05	-0.10200350718877316	-0.06311796789163215	0.00015005107163043225	-0.0030774673719491364		-0.24696066260006086		0.09926226446880682	-0.020928348118323618	0.00903773752087263	-0.01856726554107255		0.08348501693532942			-1.212435756106856e-05		-0.017415603454845413			0.14592204081932078	1.8097087674314747e-06	2.1922333018438874e-06			0.21841575037526806	5.766516931532903e-06	-0.03436634577931051	3.215282250693127e-05	-0.11411507175316299		0.053605291071574065	-0.026832382219031947	0.04038966841457798	0.05955607756014716	-2.9856251482956963e-05			4.800574763868623e-06	0.09286816060520105	-0.0012321503072031856	-0.01435771982205132	0.058932573798098416						0.062495779371098355		-6.550936003042016e-06		0.027970019163672477			-4.342778383645894e-06			-0.03735101416797345	-0.07830322904313963			0.04435917788292812	-0.17887731016077243	-3.10658415175743e-05	-0.0323622164377638	0.158542570676046	2.918391445133343e-05		-0.08405647010702129			2.7588270016422976e-06	0.028091921706586837	7.383215642524253e-06	7.597315660757782e-06	1.2890445714636852e-05	0.04722596032143457		-2.059984914644207e-06	0.04775364488404467	5.0326636043107355e-06	-0.4998862253125569	-1.6323592599138495e-07	2.4051150487298756e-06	2.552598847523412e-05	-0.1613781463536392	-1.413605956644938e-06	-7.780053871072684e-06	2.074079650934283e-05	7.000037567520107e-07	-8.352746348094434e-06	0.12680831769720013																																																																																				
2008	9			0.018498646018350058		-7.624029513514136e-07	-0.03498727371207416		-0.006653277416593817		0.048237751319075435	6.983979795456061e-07				1.2046578854249654e-06			0.02656726813099981	-0.010306381454590367			-0.018829106363601727					1.123259447249697e-06		0.0017792763341753829			-2.5651760705982093e-07					1.72239903497241e-07	4.3122871790985583e-07	-4.761068303706093e-07		-8.245530059370277e-08				-9.85571879262353e-07		-2.4224060563284225e-06	-4.1513888544678593e-07	1.8436786408304023e-07	0.02328732338228434	1.3217738675976833e-07		0.01417036547692171		1.0380994429903828e-06	0.005137481478235239		0.04105340650873519	0.024468302313592757		-4.4559969300665627e-07	-1.291456059092994e-06		3.5322971047521214e-08		3.0121317096248083e-07			-5.377414226301682e-07		8.981872412589515e-08		4.934759921807567e-07		9.736349517281848e-07	-0.006373902908513282		-1.2651678178235606e-06			1.992123297086114e-07	0.017129419271995478	-8.18787547555366e-07			0.0456574342330498		-0.021828620502757714	4.738597710039619e-07	3.9049774919909853e-07					0.05597250851147064	1.651417496778628e-07		0.006840795534265724	0.0959096625310054	3.438996543457227e-07	-6.157530755026844e-07				-1.9355362522754877e-08				-3.8236378284061826e-07			-7.316629537905633e-07	-6.93671627713551e-07	-1.21266079295101e-07	-9.362106946020702e-08	6.4108800887598975e-06			-1.1700133742911596e-06	1.7150478026355578e-07		-2.810928496578089e-07		7.517824477064785e-08	-0.014975710414181755	0.18791931696049852	3.422616723172202e-07					0.04643454990490118	8.27792333348949e-07			1.041444345281546e-06		0.048248070537387944				-4.609552629477602e-08	-0.028584651673733526	0.03461880588656495	0.027226918075240813	-1.8532247368761246e-05		-7.530279023062368e-07	0.003376348490825883		-1.3015522250845032e-06				3.2126141207515326e-07	-0.08878887236882443	9.0528138195372e-07		1.4481304858104136e-07	-4.832681215889367e-08	-2.9516282313842954e-08	-5.339936669204681e-08	1.489839127820969e-07	-6.094323784261735e-07		-3.3190240958335165e-07	0.11900935880759625		-3.101994662661269e-06	-0.053706032230324344	-8.551531034954331e-08	-0.4548780596564394	-2.1588756279377434e-06	5.790714495622835e-07	-0.2629884149771132	-7.317822156529903e-08	0.42156204324642216	-1.0240072346326104e-06	1.7776103879984348e-07	-0.31017809139157915																																																																																			
2008	12	0.00866779910217656		0.018205887295674242	0.049005199098900935			-2.54436140689256e-06		0.0031457859529322473	0.02200503603790969				-2.3881531897695495e-06			0.04848260936898271	-9.342610110187735e-07	-0.010910789936125164	0.003707403083791845		-0.015322553266151994			-0.060694806489618676	-9.803826216762658e-08	0.007994245430727012	0.10347070452172752					-0.0014676997083602498		-0.007680065948235789		-5.301701325502183e-07		-0.0002478141932870696					-8.90379326367238e-07	-0.02454423128744908				-0.0024042454466590086	0.010072187716304293	-0.013689714208062172		1.2864350038819124e-06				-4.1194740719903866e-08	0.029774065821172084	0.01718531561815848		-1.3530320127421845e-06	-1.1866563195930413e-06				-0.03413336739738485						0.02945137066584829	0.010169290191358515		0.003970503947590498		-0.00022889305583417545					0.012463971735228282	0.012010080963311376	4.7344160910058204e-07	-0.03046727916620855	0.03754051250333859		-0.02368696338575346	-5.3280791533113e-07	0.003240938512802372		-0.08283680652873977	0.031055347783806947	-1.516232851555284e-06	0.004077606810997387	0.011117721868808801		0.02226425469112118	0.04846560328123851	4.5816672621560426e-07	-1.5733480173453926e-06		0.026140892353756617		-1.6130140933896909e-06				-0.011768287651902005		7.738993465765079e-07	-2.6895388737789935e-06				-1.4366396367894077e-06			0.012368939354359414		0.05227531034295205		0.0213440820947896	-9.947273429196741e-07		0.07372813740894474	-0.012333910497372855	-0.015155650288979909						0.002277892051097722			0.01814559626962947	1.7361454488965167e-07	0.01488634919325428		0.0009288114326767867	0.005793506784608695		0.013983334178204255	0.018663402143851	-0.05332283097914618		-0.014547428817093987			-0.03661570987870729		-3.6029145999980275e-06			-0.06250379896709767	-0.07031448795368536		0.026886095644545444	0.06888206857015916	3.6464299890683367e-07	0.04180233071582205	-0.01893580939994616		0.09190785719832957		0.05739865159971774	-0.017009506970523933	2.8954973015612596e-06	-0.025109298996995478	-0.013702023123470424	-4.199810153285861e-07	-0.08341863395544885	5.215639914174508e-06	-0.08466682221826458	-0.26722125101594296	-7.991845719291209e-07		-1.6492824255596774e-07	-8.708855930959808e-06	-1.8549156082940097e-06																																																																																		
2009	3			0.029411446958631262	0.028475611712530387	0.11214936014318903	-0.11639921316468821	0.026493315205653345	-0.05212341564576649	1.4721049646300867e-06		-2.5014078621728707e-07				-0.03393630251471743	-1.5227650816791907e-06	0.037879365906802506	0.09001399802955372	-0.005170744043199848			-0.012570148516854332			-0.11198441039483385			0.07243044868162538	0.03308799916972547			0.029571824487731952			-0.040817174250384516			-1.1665062991698712e-06	-0.019725468369982044	5.057644258593922e-08	-0.08093378654534472			0.06740594637512073			-2.9405547963781123e-06			-0.005368615113652489	-0.03404457125351689		-5.621764097178987e-07			9.006460140936172e-07	-1.2620252814772485e-06	0.05600423166642183	-1.1114438963274768e-06					0.022078637231808366					-0.020081101526675905		-2.0032510160092773e-06		-0.0361116423488556		-1.4108265731239578e-06	-0.013478025776824039	-2.014777971047041e-06		0.03214416234064551		0.042106187675981156	-8.16579647852129e-07	-1.2984826989944932e-06		-2.679425448601271e-06	-4.228532355126528e-06			-1.8728901975452387e-07	-4.344076873541384e-07			-6.04508466390376e-07	0.03046165618136048	-0.05240881014009581	3.3143327373342466e-07			0.05114118229040929	-0.011092760197546885	0.004792942042881011			-0.0785393381771263			0.21334934002360798	1.7039599622124036e-06	-5.725423340493666e-06	1.360357440078506e-07		0.2541371797027284		-0.06739390336324888		-4.9933049407053e-07					0.0489622542482802					-4.299257031149163e-06	-1.8343204867771779e-06		0.021258101019641814	0.05060044041353605					0.060986245097536924	5.238410401741352e-07	-1.9241556449729242e-06	-0.005661547826586981		2.677926123295079e-07			-0.04742613142489205		-6.597894902056793e-06	-0.13997934802145023		0.01269628566664833	0.08117134812151186		-0.12466550220997731		0.050036492575937556	-6.839325767169861e-06		-0.01638847860111168			9.037221000131924e-07	-6.063120558393047e-06	-0.010623958023719807	-1.490281585211501e-06	-1.337120214954604e-06	-2.0902587120940904e-06				-0.0661210975534561	-4.466308005389826e-06	-0.09208286560647475		-2.4822530932958287e-06	-0.052799284619514206	0.06310935813583574		6.787512472971136e-08	0.1120646029695896	-0.13511299274147512		-0.2509009841388101		5.7548435373840365e-06	1.0930681078905805e-07	-1.046952691005002e-05																																																																															
2009	6	1.1011443696609315e-05		3.61823916994168e-06	0.026940623201709646		1.1942142652134458e-05	1.367577593394794e-05	5.676181952174742e-06	1.0258543535650903e-05		2.0596666346819137e-05	1.0878719810407358e-05	5.304326781044151e-06		7.289877301450844e-06	1.0071879606383899e-05		0.030138446571912194		4.352009831009496e-06		1.406164699104024e-05					0.0006547918994308099	1.0913728527203229e-05	1.4185845899337368e-05		1.4925570228382574e-05	9.282342588924877e-06			1.0651790760358969e-05		0.00020491093243815033		4.277269458264052e-06	2.7628103613959173e-05		-2.394366455308316e-05	2.6175653713587784e-05		-0.02381616888982048		1.2264015217077278e-05	1.741072310149798e-05		-4.550657707940006e-06		1.538162646958432e-05	0.029325834353142458			5.93856428422514e-06	5.7342597489090065e-06	0.035128076925089104	0.0011012719481717852			0.022430117818941706				1.4359933951937637e-05	8.908836492668378e-06		7.268871975996798e-06				1.2792113841580206e-05		2.111886678898066e-06	-4.352360199949605e-06	7.5414732448643764e-06	1.0565104336628846e-05	0.0327911270574267		0.024295845395559974			1.534937938698986e-05	1.2729961486304748e-05	1.1091991076627957e-05	1.4285180958564791e-05	1.3404274781234791e-05	3.866373239733136e-06	0.004357033600436984			0.009907530938191349		5.037679895585617e-06	0.0034505433058702436			1.3852119443631401e-05	1.3534775557335929e-05	6.414051097288899e-06			4.929576741184359e-06				1.207962767951994e-05		6.167587764323508e-06	1.2661486330222487e-05		1.0053954779456877e-05											5.940520265523803e-06	8.328950789798473e-06				1.1802748571175868e-05					1.3899702986146508e-05		-3.5478554502953514e-06	8.635406408599753e-06	1.1285888243433285e-05		8.434494754848582e-06			1.3844165820188018e-05	7.82612737084931e-06				1.5909893226274778e-05			9.922435984389337e-06			1.4569040451593061e-05		9.682827634038519e-06			1.1396524780852251e-05			3.282796869176348e-06	1.4736484634249084e-05				1.6162676662467132e-05	6.899337826608935e-07	1.7303200246759224e-05	2.1826218050761303e-06	-0.013459554913427827	1.3670574799528016e-05		0.05035092104875781		-0.1878611847607054	0.0007760121213068416	-0.03496886358147519	0.014071981716583516	1.3720607756512482e-05	6.965984298977453e-08	0.2050971775723233	4.6797475228159245e-06	1.559271847618866e-05	-0.24128976463214868	0.009582135824325938																																																																													
2009	9	-0.034609225037939687			-4.471999083971874e-06	1.541224225024776e-05			1.4313003633722397e-07	4.4798024938381225e-06	4.89554884201151e-06	-1.0568356185977518e-05	3.463444552496535e-06			1.6525575783387854e-06		0.020879142311632445	0.07010043852462694							-2.9381051777425e-06	-0.2012711277038551	6.895581859631727e-06	1.4596030823414373e-05					-1.0212639060430685e-06		2.008158773120886e-07		3.8498056096940487e-07	1.5953776493361778e-06	-1.8401098305712672e-06	-6.219909862865596e-06	1.4436031974945903e-06	-0.032431869615443594	1.5973286282343146e-05								-2.393286058696397e-06		0.06611321964376013			-8.210961636272497e-07	6.13991368625104e-07		6.689327139488171e-07		2.8971254160820454e-06			-5.097710282315818e-06			2.711352181520496e-05					1.638470354266945e-06			1.978665764659597e-06	-6.224021175302433e-07							-0.014553996122995943	-0.09411291062985305	-0.040526422421668006	5.540163623359513e-06	-0.0027271181108579528		-3.050458772177183e-06	-4.107109421598243e-06		-0.15975351847086036						4.1201910305775204e-06	0.05580326590696375		4.439941051139821e-06	-8.285000073414196e-09		-2.1389843142887724e-06	-8.93062203634085e-06		5.5342905145604146e-06	5.383846234742607e-07	4.481918763882463e-06	-0.0011420676294683824	-2.2928554004946003e-07	0.1566923485443633	1.221735435676339e-05			-5.212857416829378e-06								-1.2188837134529608e-06	5.163625271817653e-07	-8.675095969084097e-06	0.028913276363364472							-0.047709323119173766	1.3703196133792456e-05	1.1940716958646881e-06	9.133782742529598e-07	9.176958626264088e-06		2.6387966731877987e-05	-0.07237789906677065	0.02131311882620835		-0.046363926816881014		-1.0775518527622086e-05	-3.7485906162203834e-06		1.0287690359468153e-06					1.607545218008348e-05	-1.4340858487468583e-06	6.820892090970424e-06	-0.011513989407709821		0.013032756117598514		-0.034449892031108945	-0.12420066304746127	0.02202315548269188			6.040347219905582e-06	-7.694835514499325e-06	0.02465538958952218	0.01012590234890805	0.09451378709703757	0.004445053643556278		-4.997373704333691e-06	0.1330248981899669	1.4273258099870835e-06		3.371853100931872e-05	3.1507884164693578e-06	-0.1500851445998381	0.23510426624549802	0.15189826192394995	-0.08569699502479673	0.11705279931327217	-1.431704462063451e-05		-0.25314190292339134	0.1808325061913236																																																																												
2009	12	3.0989175918188798e-06				2.137784614738503e-06	-9.527953033296052e-07	2.877565889199998e-06	-5.099770079639317e-07			-3.902620808337024e-06	4.502767356820897e-07	-5.018036868744307e-07	2.8173171669152576e-06	0.01475122048193947			0.04027351851923777	-1.48814833029602e-07	5.026831468009505e-07		-0.019207763589936654		-0.03995049674153968	-5.759163459048366e-07	2.3738754779000607e-06	2.4689710954636687e-06	-1.5980940237648891e-07	0.002640547677437876		-0.006493021907794885				1.1486608517980737e-06		-2.8360270044246076e-07		-1.1492117289107397e-06		0.006412742428248478						-0.02284431260154514		2.3341131203726043e-06	0.013329661459786977	0.012712777352047311		0.03914664971882943			-7.056140459208463e-07	7.613525355372132e-08		0.004690323627101989					-8.687229627765754e-07					-0.0023729253181315898		7.081526406070875e-07				1.3742727098055018e-06	-3.3670751337335564e-07		1.6718935527697934e-06	1.9832456640961585e-06		1.465535201465588e-06		1.768299406950568e-06					-0.0399225137162622	0.005892912732659785	1.3820766301195955e-06			0.031598729788754054			0.015870095579090894		5.001353784008906e-06	5.706470950743796e-07	-1.6030944189710826e-06				0.012969243002984231	-9.987803327857887e-07				1.4636877024500306e-06							-0.014260631552860573		1.0920906946513796e-06	2.0829811976703475e-06	1.4622489677970375e-06	0.01997617422423272			-4.8276235224188426e-08			0.0033308618581292483		1.375166231587441e-06	-2.3417255591257632e-06		0.0019074264728157415				-2.147458680244501e-07		0.017531793240353862					1.1672597648450152e-07	2.7044783642254814e-06	0.013741211151273401	-0.04172743731667502	0.006607293923617614		0.0023699653363873597	-0.10341775184117875	2.1854403733858643e-06			2.200388801908889e-06		0.0025719955466622594			3.944294303091533e-07	2.4479562357084015e-06	-0.017874188744357325	-5.484865525348739e-07	6.263269901382689e-07	2.8635334799212718e-06	-2.797573053380309e-06	3.486140179651564e-06	0.005597509812851216	1.2438496163720235e-06	-6.218830849769515e-07	0.02835959822889581	0.020405231234669665	0.04695861310829396	-0.20217780019298523	0.0009200237219468789		-0.22034324624983243		3.580991417722539e-06				-4.588313122298043e-08	5.371414306098126e-06	-0.05752249845714774	3.2766740204113845e-06	5.698141219204708e-06	-8.147371447798761e-07	0.4174979619449243																																																																											
2010	3				0.027566824432637447	2.9674323911350522e-06	-1.1659730648633502e-05	-2.762852507710194e-05	-5.5166332916749375e-06	1.753614099854994e-05	1.4922354286453628e-05		8.446560696590292e-06	1.858597779901286e-05		1.004791254973552e-05	2.142173891234918e-05	0.0683543465131554	0.10251256857621774							2.7424213947511478e-05	7.445053994171022e-06		-1.657488888901757e-05					-5.877629581615679e-06		-8.821422853947323e-06		-2.010932912841678e-06	-2.9491877834435474e-06	3.723792608465881e-05	5.288987443427547e-05	4.720689401297826e-06		-4.527876674437578e-05				-5.473019511745281e-07		-4.4546418169462296e-06	0.008822748629610178	9.842346558426005e-06		0.08009870900977147				2.1410283493829323e-05						2.5526745054839444e-05				-4.861686955048388e-05		-0.00574757363489042			9.741793705438564e-06		-0.036557302252486296		4.383802497535857e-06					-1.2892201368691967e-06	0.0008241867597189601	-4.560859544877707e-06	-0.02388889492687811	3.726421266725989e-06	-2.7604254924639587e-05	-5.745632497017958e-06	-0.005679205922230231	6.851046293467405e-06			-2.2153298731311063e-06		0.0645846857739174	1.1263893911822944e-05	0.027345155739658268			0.09901159577399311	-2.8285935232301407e-07	5.319458782164602e-06			5.274188156652212e-06	0.004319534790954134		8.762315891913973e-05	3.380545130337262e-05		2.8812418976069606e-05	-9.377730841369946e-06		-8.422480670186952e-06	-0.1853688444437597		1.3041624943925218e-05			-2.742413533692076e-06		0.08342182847168718		0.0936068364278504	1.0835740334876725e-05	5.372377172375103e-06	1.2023217103973303e-05	0.0019403695975772357									5.4838954831921595e-06	2.3829558083112528e-05	4.983563070092994e-06		4.943410745155378e-06		0.035752275842214284	1.8633434845324167e-05	-0.018406750560478847						-0.13810878020674172	1.3111424634101441e-05			-1.1088133706978432e-06		4.47910753332415e-05			2.696933812133416e-05	-2.867560211825286e-06	0.02156294364030374	1.6169438498820544e-05		-2.6115059708473275e-06			2.0925829917687904e-05	-8.131305866850306e-06	0.02032918309279492	0.06011305752874552	6.618693710181782e-06			2.7093612707157928e-05		-0.474928937246673	8.281810937766303e-06	-0.02601757759544849	-0.05609956782517246			-0.31003365881761813			-5.70275238055012e-05		0.15646933293509185		-9.459120417886351e-06	0.32382458934581376	-1.7316185720061073e-05																																																																								
2010	6			0.03252225172558581	0.0225386200468213	-4.880131241491008e-07	7.189290858073625e-07	-3.9662559357804384e-07	2.2006055370996075e-07		0.0026345925341791595			-0.007467535666212329		2.9951465600698e-07	-5.546652319106765e-07	0.02452325858067954	0.0578768375883366			-5.871910726174932e-07	-0.05107868497982807		-0.03900975431370281	4.826549583563608e-07			1.0164521221139557e-06					-0.006384152080207724	-0.10553977006348933	-0.0005780080655774842						3.905824341835736e-07				-0.08740443544465719				-8.879637731439094e-07	4.990108148625411e-07	1.1765029934136638e-06	-0.09480429511068605				-2.77856055509053e-07	5.548371346174354e-07			0.002178417627035925			-0.0673503373966644							4.689962223300286e-07		0.00963675523723845				2.0730090029461165e-06			0.004821707198105209	-0.013319010859678205	0.0035433269971541464		-5.767408104648496e-07			1.078827111532961e-06			3.020594471695725e-07				0.030281474379639597		-0.030987753133321087	0.008780559082221686			0.03971331952130926	-8.20553733788371e-07	-2.35693875984032e-06		-0.02999209945065238	-1.1659893010380306e-07			0.028363347644238826						-7.982000285559421e-07	-0.08106311248509801		-0.009016481734324566			-1.1902505686306644e-06	0.013248850369074113			0.042890362424086954	1.2651918377141114e-07	-6.165022986953314e-07	0.0203799943353051	2.3307102488499346e-07		-1.3115115443891754e-06							3.210959643699275e-08	-1.322477678194156e-06	2.2942142953841114e-07					5.665619411853648e-07			-0.10055609261524957					-0.062492898410062926			0.009879542892046669	-2.401749319276603e-07	2.0633887615549553e-07			8.772628859908192e-08	-3.6009771097134637e-07	3.590600275899006e-07	-4.0738018992153175e-06	-2.660196034984981e-06	-8.939252168897209e-07		0.03929731055565802	9.866185316511568e-07	2.294069687026381e-06	-2.2273343862047137e-07	0.011989494694165704	6.375344906056033e-07	0.010991721598648549	-0.18627751332884684	-0.011581290171435716		-0.273634518670255	1.6519140723219848e-06	-0.04979084718357913	-3.3144180618590483e-06		0.012270815682362535	-0.179337040722621	0.03198642243223369	-0.025913381157602833	0.09393618710452004	-9.100129527292879e-07	0.0302163134486016	0.3275383210695205	-5.290460506267686e-07	2.4988801272582757e-07	0.05051809975144578	0.5000024341205558	0.05103421663485005																																																																						
2010	9	-3.0393512326034083e-06			0.015527842837804746	-3.518573721042567e-06	1.081720615330333e-06	-0.016005027705902706	5.889672124429243e-07	-4.5183396915680666e-06	-6.620642875012626e-06		-3.2911177321372457e-06	-2.695016440708803e-06		0.006682265782541746			0.04566314948234275						6.846735508629149e-07	-1.839129977697422e-06	-9.59456332349242e-07		-2.9432510546010096e-06				-3.6892263702382013e-06	3.182494262451126e-07		3.37924735640233e-07		6.85868154746887e-07	1.5079176688812258e-07	-1.7171613926973605e-06	-0.0034314129155094877	-4.527956644368279e-08		-0.04886114164450982						-0.06506924341109631	0.022646515600390695	0.008580960056847612		0.017491166939359357				-1.4263647316994185e-06						1.1317853461946676e-06	-4.66778884429949e-07								-7.24746590429291e-06				0.018603498779935734			-2.6529533090071106e-06		-1.211326279645312e-06	4.31872439143452e-07	-3.2206760226028676e-06	-0.04936379342555669	-0.026695622923390862	-0.008807689576714352			0.0073738455132404635			-0.063570618010024		-2.291394371564807e-06						-8.171044110678605e-07	-4.436876199542729e-06			-2.1761597076630502e-07	-1.2899690858673714e-06		-1.2000852082061732e-06	2.43725262029706e-06		-2.835839671937679e-06	-2.0717716006472057e-06		-3.055228017763922e-06			-4.536583498833053e-07			-4.183700766864678e-06					0.013681088602551201	-4.775690865259203e-06	-1.2552719369863057e-05	0.03143003463046272									-1.3998941378307906e-07	-8.805993831633877e-06	0.016649748195750262		-4.706707654257206e-06		0.002949846297875598	-2.3030029292748784e-06	-4.4803407117771604e-06						-0.10555839271129824	-5.300496733079067e-07				-5.10385311469286e-06	1.2173297821028775e-06			0.040195510742906816	-4.518247770380892e-06	-9.036234201010028e-07	-8.955571448016156e-06		-0.0011434159560630864			0.019047531721523007	-2.6616327254565485e-08	0.01383310515254037	-3.4408636929701115e-06	0.008244583809578635	-3.2267167580238274e-06	7.538233810736553e-06			-0.07327942753020507	8.16468140301668e-07	1.1006631276949033e-07	-0.023063941800131795	6.306415058032421e-06		-0.07155675648140736		0.0018303210914296336	-2.1059501388796886e-06	-0.010034777495137674	0.003661276826851077	0.34533842462738096	-0.051943847595725894		-0.06286768571856359	-5.168616745017131e-06	1.2263933718870373e-06	0.2539126278986721	-0.39088569964997283	0.17892279500146405																																																																			
2010	12	-4.31321693272718e-08			0.054919863266162564	-7.74448899635604e-09	-3.492380226962224e-09	7.496367913713307e-08	7.276617313866485e-09				-2.530470024206785e-08			2.967534286136462e-08	-9.469901321626838e-08		0.13485051510379803	-0.015075868259848756						-7.237372902140436e-09	-0.1567900281765209		-9.598858510619242e-08	0.09907969840695752					-0.05106318071148078	1.4334432758358522e-08		0.010667777489032452	-8.844720414407613e-09		-1.8397976752180659e-07	8.341714398289916e-09	1.2368759694424912e-06					-0.02127267535971266		-0.049957099339553425	0.028394367915864954	0.00509992710066328		0.09868366980898276				-5.433761627080848e-09			-7.814822023696063e-09									-0.0544483053396515	0.03778978427904362				-0.0902616703051703	0.03693289793919294	0.007018333695942096					2.5294873451499582e-08	0.027059056107446956	3.9887224436001975e-08	-0.07914827204706047	-0.052720455951120015	1.3595717251696765e-07	1.5452217879325906e-07		0.0034675228838590435	0.024291752783707557		-0.14054585904773806	0.16160324652180164	0.05845238360576355	1.5132998529045592e-08	0.039424339712156344				4.499060461150875e-09	6.384893030286783e-08	0.032282829059131844		-5.034645677757279e-09	0.019634614243774023		-5.486854529954856e-08	5.920662825644763e-08			-6.400627154159538e-08		-1.6757857211204374e-08	-0.22488277128068937		1.6790738737228262e-08			3.4192999118427525e-08				0.13651494005087533	0.013142813581012849		7.300595677630126e-08	0.05006772059531017		-6.740138823388257e-08			0.09698841385066514			4.8394730181896286e-08	-7.852201886176701e-08	5.878692723147574e-08	0.020134284808650225		1.7132779884705142e-07		0.035383540515218984	4.08809006313295e-08						0.18168783231672242	-0.1977911297127721					2.4153456766980597e-09	-1.056597143133815e-07			0.04623153084312115	3.03499706670222e-09			0.016458689739913376	1.498317917703253e-09		1.179731078434236e-08	1.168256102867451e-08	-4.412352722245443e-08	0.01491480981105634		0.029203794446545306					-0.08282922576782205		2.8408957585370013e-08	-0.1671989320877222	0.09034922901269739		-0.3843751151567999		0.06884939489272747	-5.613120525674802e-08		0.011959045961846675		-0.07197209863464023	-0.05330411686638218		-0.323077264680936	-1.1695476412088484e-07			0.4996813729448231	0.02549259296334826																																																																		
2011	3			0.052213853091655056	-6.017232318701143e-07		5.177547384129963e-07		2.7405085872824355e-07	0.015248375468306387		-1.4427427999317226e-06	6.588926581055342e-07	-0.043870731810518156				0.07595541050777825	0.11700983964504323	-0.016365812924641756	-0.013525180097397504	-6.480691337867758e-07	-0.10028014859402169		-0.07504320465128336	0.005362805086463245				0.0669811635111961	-0.1542944252187037	0.01516021609958265		1.3779884518135359e-06		7.399661862788896e-07		2.667082845454328e-07	4.4087688880224677e-07	2.0328137886948447e-06		5.251923011674797e-08			0.07896195385141981					-0.06164670786748347	0.03243992638628343	0.031554647290104584	-0.18438974661427696	0.10295506132297677		9.390803784829085e-07	7.200613237879477e-07	-4.410422822135519e-08		0.01845717786930337		0.030538764648216123		-0.10466991437729334						-0.06313101970266784				-0.011706156925039181	-0.04628760457772036	0.0009798165614379438	-1.664237151785977e-06	-0.04831469497810369	-3.455228369132214e-07	-1.5818843018892065e-06	-1.7413272254116543e-06		0.05582762197921867	-1.114738520744349e-06						0.01967355239118186	-9.99175927710021e-07			0.11676305974813182		6.709992501719898e-09	-6.699373063991554e-07		0.026713925729241726			-9.509879667714786e-07			1.0649480242171714e-07										-0.14352551532266047		-0.048493933436985784		-1.1624840930522887e-06	-9.933113830199853e-07		0.10360693518860177		0.10488228318357307	-2.554711273733966e-07		-3.975973459773869e-06	0.047847265416815145	-0.012178196221139925				0.06447401974885253				-1.1480239474802514e-06	8.583451883514411e-07	0.05780722449584494				0.037501980392288005				-0.08211861253264707	6.224583664755276e-07		0.04977587825229104	-0.2634178338638353	-2.942818596964604e-08					5.113800661996613e-07	2.056853506704239e-06		0.05169075174518414		-2.0715594282541577e-06		-1.7358673652484115e-06	1.3250143315510726e-07			0.033956756923355466	2.407251209893806e-07	2.1959977964367042e-06	1.3977004675706993e-06	-4.4366358299306245e-07					3.4741803436077953e-06	-0.018124597245864578		-0.13463785613436055	0.04550290472227636		-0.4977604126899416		0.11696636990633122			-2.090185229129125e-07	-1.5146943847495503e-06		-4.488122612774784e-06			0.07115716236009556			0.2859286341245211	1.9770420193867987e-08	0.1898928546863816																																																																	
2011	6			0.048311158382889866	-2.668343221237234e-07		0.010577042735458042	-5.036112121326743e-07	-0.005983832959237526				-1.8630018791219316e-06	-0.03918314621133673	4.9449988332136e-07	4.745504643917161e-07			0.09848140631062198			0.031108982711863492			1.0009511968192168e-06		-0.2924489044581517			0.09449238706209759	-0.1629947741985195	0.007445478950837943	0.002404531973975338							-0.007120041984113248		-0.013261634830399707		-1.4433768793843625e-07		3.1118121920873114e-07		-7.505497735991156e-07	-5.559148584069858e-07	-0.15236092029267326	8.783007363786981e-07			0.0787629882408201		0.014418802769703238	-0.011392276497705306			-4.838938584914382e-07	-1.8237111626745866e-07				0.04123787356651395			-6.671126550591372e-07		-0.08104815650521771				-0.04569323015846664	-0.054413803520713976		0.011324954948092178				1.325657497182761e-06		0.03189065837213551	-0.016529175088500093	-6.507775966803448e-07		-2.480061876123238e-07	-5.773863822130814e-07		1.0045320740156358e-07					0.06478303920991532	4.7292750521672417e-07	7.352772609921518e-07	-2.097680216862049e-07							9.409675381699242e-07	0.05268422402474866		0.034379897411066694		-0.04113460217943206						-0.07447538329760003			-3.969666311484704e-07	1.0668493155016531e-07		0.08007686523749998	-2.428095558000596e-07		1.363947987411433e-06		4.4173999186811777e-07	0.06411342826967878		-8.326598229502942e-07			0.07148996146842146				0.035869847451050756	-0.011437580324968277	-1.9245379985458817e-08			-0.02943065902863464	0.020929592783395866		-0.038320100336769726					0.07482932721202919		1.2728470900164011e-06			0.0251979783213629	-3.978698250623091e-07	0.006651833862797376	-4.371592434238024e-06					-0.0030208662108426793	1.4461642209094301e-07	-0.03734017121402508				2.996246461256459e-06	1.0353325292178973e-06	-0.00017583854306690424	1.0256627834424229e-06	5.386173256489058e-07	-6.519191460454377e-07	-0.01777213160609929			-0.05471417996685395	-1.0513584459245056e-07	-0.14597686507055835	0.01136943492952536		-0.30124932587708225	-0.04253000727323194	0.09727032772312863		7.332038167129338e-07	3.468701482684489e-07			-0.1233486755248019	-2.272270599996019e-06		0.23698977892869805	5.41015042968487e-06	4.0886655689236206e-07		-2.8447835086635945e-07	0.4562509029678147	2.80313286521585e-07																																																																
2011	9			0.0457296829295321	-1.8424841627772172e-07	1.4246201140291346e-07	-8.005730349391902e-08	-7.564873352775162e-08	-7.139275764816928e-08	1.727672637326943e-07		1.6415999783022855e-07	2.3982221643747767e-07	-0.02975629768230758	-2.900535139146172e-08	-6.784879449105961e-09										-2.3685660218249962e-08	-0.3064379219782385		0.002982925623357538	0.12518919622170904	-0.1318900181168693		0.0022064756483128963	-1.9871827859521108e-07		-6.204198194105259e-08			-7.640559079217429e-08	-0.018861690056997067	1.2973412194275742e-07	-0.004418175919962315	-6.459019540843884e-08	5.437815209539742e-07	0.0697281370352501			-3.7671687605953955e-08	-1.2864812115397809e-09		2.342612530765451e-08		-0.14930097824913868			0.015898943344647865	-0.018644210870882586	-1.7734731198384596e-08			0.04423113676490096			-0.09939925618311662				6.703479812479562e-07					0.04588112220068102		-0.05528245643879252							0.013504803027325249				1.1910801440736063e-07	5.809617292261637e-08	-9.824945518945733e-08		2.593806423412612e-09						-2.8229724148726402e-08	6.346454190943913e-08	-0.04241188395466126	3.95319212999284e-08		-0.0023265311318304252	1.0517087078614913e-07	-6.04543026081032e-09		-2.5559172904180453e-08	-8.897691576428924e-08		-2.8021128885768824e-08	-7.651277279398944e-08			1.4271320165152065e-07		8.690929879785244e-08	-0.10504535517446663		-0.008288569466809505		0.009835107022318138						-2.86195095791196e-07	1.7314148608068028e-07		0.08540517746002058		3.727962806643597e-08						2.5164683172255563e-07	-1.6628519887363334e-09		-1.5257807093438456e-08					-0.026507319846621732		-0.023853066734605154	-0.09279654403322204			0.07873957318646596		-1.0890131113143329e-07			0.04297552452582831		5.0533218584569935e-09	-1.534238505361048e-07				9.275573994961995e-08	1.2503761212934898e-07				0.05909341672049726	7.891417850496018e-09	0.014802810183209827	-0.004058127264678414	-0.010531568906091705	-9.589387806214972e-08	0.0011566044468058888		-0.011570593199580884			-0.01372731518896468	-1.4507830072339554e-08	-0.07587160744764213		0.12696433318648956		1.0938473133291302e-08		0.03852324088513681	-0.03212097551805192	-2.593194095799561e-08	0.15462355207968245	-2.0985853018489726e-08		-0.110128248305413		0.23185963990118091	0.16389569731716053		3.655817955134409e-08				-1.9530578320510476e-07																																																															
2011	12	-4.0938225374883006e-07		0.0568097962659485		1.0572768026364616e-07	-2.22059965021429e-07	-2.0714336661570996e-07	-6.833841075556922e-08	-2.405278619083914e-07	-2.1274065888336837e-07					-3.9790899573228423e-07	-0.009526545939972268	0.02986972809631378	0.06496371250624602	-0.030235188116739465		0.055996347543194075				-2.9676427419417543e-07	-0.1832837298317414		-2.7524126090490715e-07	0.06355374030622526						-1.9549476712578349e-07				-0.02079165920434125	-5.391927486968109e-06	4.8695050944136185e-08								-0.11289408009796466	0.008757548247745111			0.03496707852446258			-0.021380358710731334	9.913684691124021e-08			0.024721374921529114	0.05462320415281076			0.008370026552364023					-0.05943730957984067	0.05869741345407045	-0.01803620858087336	-5.944160675276249e-07		-0.045115552255745046	0.005992154534717582	0.011073873515032799			5.251059564813592e-07		-3.285699907033439e-08	0.0007715287078387559	-2.2897271049523057e-07		-0.07468328021248656				0.0037726498706655417	0.016254500272894698				0.037152471950614704	-4.829173434613029e-07	2.039241055431147e-07	-1.4128904826908225e-07				-5.1725138154967225e-08	-4.436593878546778e-08		4.4539499967799944e-07	-1.3228699874959465e-08			1.2591685241355686e-06			2.2498157442078343e-07		5.123214951129826e-08			-3.523984451539094e-08			-7.271679657846157e-08				0.05252953394420759	-0.008219267248161098	-1.3526018263864604e-07	-1.1298628618906772e-06	0.045466156677399255					0.04091033530359338				0.026177353204696253	7.174607579029986e-07	0.011317307464921066		6.788162967129567e-07		0.012674588255613252		-2.603116945836139e-07					0.10208650039394504	-0.10718890254261958				0.046248294071821926	-3.975794265604917e-07	-3.195803500744781e-07			0.05879969955208585	-5.117993158979759e-07	1.6518479707805555e-07		-1.1610417638151822e-07	-0.023049957781281143		-5.520835968638385e-07	-3.296537666768299e-07	7.399479138612345e-07	-1.2260000105194609e-08	-0.0029093079411033397	0.02374970313143467	-0.0023582167708415683	3.552278975731676e-07			-0.03579470252034463		-1.4252074006551381e-06			0.09189593690923437	-0.18742468457654482		-2.766435351613557e-07	3.514243919809416e-06	-0.05086507117535752	0.010359858438516136	-2.2741001047479323e-07	-0.022247415566747034		-0.08864526517379077								0.045525943419065705		1.1842733624104834e-07																																																														
2012	3			-7.178930223113787e-08	0.01692310882379617	-1.4793852014854172e-07	-1.330398084599998e-07	-7.874481814036175e-08	4.102392825723027e-08	-9.869664128997812e-08	-1.627659518174498e-07	1.8004865083127753e-07	-7.892926666417486e-08	-9.635183016890127e-08	-1.4062645968418e-07	-4.226380447784499e-08	-7.819032673537928e-08	0.04999162151947752	0.10028086517566484							-7.774344450664158e-08			-1.9978584713050156e-07					-6.696313427029754e-08		-1.2796353402948376e-07		-6.371751345017984e-08			6.092804163069602e-07	-1.3506693475072533e-08	3.223711021330059e-07	7.566209014844182e-07				-0.06646349166311152			0.0043819740372309625	-5.513663315993518e-08		0.09637245487836082		-2.795822543055932e-07		0.004893080921286885			1.637023731480635e-07			7.043122314994523e-08	0.0033023031767127			-6.51987501620852e-07									0.026953853900728398						0.0007866784683068309	-6.651149611350683e-08	-0.0831002415804547	-0.08092010221070783	-8.56017775258464e-08	-5.874272047729002e-07		0.004440780893387809			-0.22252497911631686	0.14853003767234635		0.007519289285671383	0.002695613743829069		-1.6607350339365492e-07		-1.2020354167464375e-07	-7.249165554287696e-08	1.943923034860401e-08		1.869778272096071e-08	-1.3517266780655666e-07		-2.0370399324702425e-07	1.7735181148045116e-07		9.992967876591949e-08	3.7928471926685584e-07		-2.493771873302719e-07	-0.1553129523528483		-6.526703190750418e-08		-1.1339398162343238e-07			0.12266460377676536		0.10429425688944917	-1.401832664408924e-07	-1.4893004693698722e-07		0.086701201988384		-2.692078575287628e-07						-4.3997459607177554e-07	0.16411093737096655		0.00956802542190695		-1.3105408775273146e-08		0.03385400834993877	-1.2911659803241786e-07	-0.05196944398721835						-0.1725559423565473	-2.1445507512879363e-08					2.6955735164574546e-08	-1.9744659780669343e-07		0.09170244543570891		-5.355780189187369e-09	-1.5150174025370983e-07			8.299213045945273e-08	1.2448557924223174e-08	-2.1794731725673952e-08	7.51784336770278e-08			0.02528136097373652							-4.756536904138589e-08			0.19202334288050527	-0.4555833550714705	-0.006420432745783739	-6.44790817264459e-08		-7.614271633266482e-08	0.020967143161095974		-0.030197154572905047		-0.19261263157858907		-3.9274097696419026e-07	-1.942006153123184e-07		0.14677737293864934	0.14414514114276472				-0.09149747306590628																																																														
2012	6				0.008584704432027275	-4.8058322393785774e-05	0.00213984571766233		4.136344249089371e-06		-0.005751985077015633	-2.700105875076364e-05	-6.031628239360846e-05			2.0419668940487485e-06		0.025516933221206385	0.04076030410608389								-0.10397725738917987	-0.009341131503959064		0.05996222669375006			0.035745745347315803	-2.8490008173846016e-05		8.478333808193857e-06		0.005485137252741568	0.0036218943650382185	5.2689396439270914e-05	-7.053003140516153e-05	-1.5832200128045844e-06	3.504383507685366e-05	-3.8394663022864705e-05		-0.0840908670020376		-0.031292517067956646			-3.0593778764164277e-06	2.846578467042195e-05		0.04967887891445555	7.54042456450765e-06		-0.030438334974636997			-0.010062650593824477	0.04403569769663831				0.005775940207991826			-1.085639268709236e-05			0.07918923767523703					-0.0013092829714702204	-2.723294614215217e-05		0.04996031725450348				0.008291864823026358		-0.0417081832591182	-0.05839090906652532		-0.010914241524327926		0.0009572665576065573	7.861007300780421e-06		-0.14890747800082305			0.008751898039853977	2.3142750741812588e-05				-7.046143459888749e-06				3.81358872839516e-06	0.00398557751152987		-4.854736571706858e-05	-3.2044379760112036e-05		1.2245429518476142e-05	-1.3574344672676582e-05		-1.652011591128538e-05			1.5011888305366767e-05		-3.4910183614823415e-05		0.09351952991276999			0.05029926516152936		-1.988017112307859e-05		0.0463771298151459							-0.016949166677362897	-2.2880652975148227e-05		-0.03410498068523466	0.0041485879840865835		-0.05413767964309145		0.021634626887062993		-0.027243436290021572			-4.7053295273461706e-05			-0.08024713954836521	3.86479017026063e-05			0.08222827389453355		7.287231013899881e-06	1.974701973267495e-05		0.04391872493752205		-0.009290444848119465		-0.035675836595278204		-0.040485453325774835				-0.016294640580362185	-0.04323060517385185	0.01747819580997115		0.021169931686990925				5.3887646637694526e-06			0.018796667073350527		-0.20970154759469625	-0.0033855958638615282	0.01265557586800163	-3.294837622541458e-05	8.992694198384965e-06	0.011820831616133974		-2.7380235973560416e-05		4.150972737530423e-05			0.4999407491364894			0.10302067565133541	-8.278552775504819e-06	-0.052672292230005406	0.006787742202483459		-0.2303630156760116	-0.0655900254176317	-0.010421350976534283																																																											
2012	9			0.02909904374850624	0.0076644494744716836	-0.025600974661385993	0.01776075295359647	1.0533327204134432e-06	0.0036237752300752103	-7.397370927640471e-07	-0.039405544322588665		-0.002281968383303989	-0.036720290154874005	-0.04108755716090701			0.023846038281769007	0.021628070209768376	0.005387951077265874	0.00362659966724646		4.026682249925762e-07		0.01750069193341907	4.5731419265370395e-07	-0.07498803845124667	-0.01564923167254031	1.3716777962431015e-06	0.04672110401506954			0.01606466521633877	0.004437280760200249	0.026444597240298878	0.00912758106185031		0.005834322950642263	0.015077392350339607	-1.2329576209729079e-06					0.08236633972337083						-1.3365946550924615e-07	5.146858752709277e-08		0.04558374983861613	-1.0563590231518858e-07					-0.010914678312678127	0.025154350716547525	0.060575171354771064			0.007687634315715958						0.09386557786918966		-5.674657053258506e-07			-1.637958548306954e-07	3.481986671421354e-06	0.0045122350953723704	0.023138029005080274				0.009431331864843538		-0.036127641407483244	-0.06974659822635608				-1.8856929544900725e-07	3.2742114360619646e-07		-0.17484763887136598		0.044780841837921956		-0.002723789949165376	5.066669356909171e-07								0.016166497828305742				-7.477448715970176e-07					-1.8287483526855195e-06						0.03098273919839698					-0.03020206511194409	-0.06772280370695415			0.03085326728383366								-0.05539826237985982			-0.12201123905907135		0.026018064638580755	-6.269500781944643e-07	-0.041000493035053966	-0.0272588720990241				0.075106522662873		-6.648142255428833e-07			0.05034335579510204		0.009490273299354632			7.15553867098742e-07		-0.010010133686497799	-6.328131919246271e-07	-0.0042934112652616005		-0.12063227995343166		-8.445759093945504e-07		-0.010328513489240845	-0.011810365483313467	0.010077476327798065		0.04468014870244292	-0.022212856377828077				0.03958882954810447				-0.04669288632383674			-0.17816889909190334	-0.06426449265739267	0.005960518401537702	0.0021090014438793553			-0.014840015974419512		0.1961496294262569	0.029894050886337193		-0.022541875490948198	-7.126444449359498e-07	9.028366162006385e-07	-0.054450659101523566	-0.005459229338176061	1.775854960308657e-06	-0.2789691560893775	1.0865370255544746e-06	-1.6482404890463797e-06	0.49999846643924967																																																										
2012	12			0.0421053806833627	1.3687563479447138e-05		0.03597813421123272	-2.7087250726934484e-06	0.015498101449258663			1.7215135198306066e-05	-0.0011232918188485742	-0.02079317962461496				0.01636991768422738	0.015330491740879278	0.03900374353030224	0.02708345353075803	2.1655246668147463e-06				4.4983277506828245e-06	-0.10192388498797128		-9.920480325300589e-06		-0.04013263653621547	-0.0008450013789331312	0.050822867098882694	0.025143066970489597	0.08181887205395216	0.034977381727734465	-2.494564340013641e-06	0.03208702513932492	0.05385895867866172	1.6827325834377397e-05						-0.01612367926987037				-6.749956060820136e-06		1.0877737977508264e-06		0.06700767833032094			-7.582589595359963e-06			-0.045143211391497844	0.057533513582426817				0.00831879266696485					0.01262316008792685					-0.04123731327238294	-0.004084243891918109	-5.851588062132241e-06	0.026201787963264608	0.0396055943416142	-2.097343717927478e-06			0.024286183121127597	0.00452016203884658	-0.04126843319201021	-0.08617813207598508		-2.6966179840763886e-06		-4.8742187098187355e-08	-4.37199059734921e-06		-0.09023579840877195				-1.5664707316725204e-07	5.2251999081945885e-06												5.850052505086864e-06					-0.016945935207224618		-0.010814060432596482				0.055604096632812496			0.04280930361971947	4.307212514956645e-06		-4.303463307544889e-06	1.0970438244160137e-05	-0.031624215913551794	0.15791838325974425			-6.139872214937769e-06				6.558153636288296e-07				-0.22351142555414358		0.0444426734678412	-0.020497376906179168	-0.07431029416690513			3.7488806631614213e-06			-0.06129303270109838				0.10808615245324707		-4.041891984035249e-06			2.2394143219243504e-06	-4.039397629457331e-07	-0.023894372901103723	-0.01752375205956154	-0.04161886697495521		-0.12992718055505312		-0.01617979554531859		-0.018948665841453213	-1.6574005588996806e-05	0.006701472254367561	-4.518377355574616e-06	-4.289560817393763e-06				-1.33572327131717e-06	0.05251190828304197								-1.497790627457221e-05	0.0074642512561388765	0.026346046301719262	-0.09856791072752998		-0.04435926777320536				-1.5499243171000746e-05	-9.046582415440933e-06	0.01891138923964052	7.696140621212254e-06	0.017536919362704035		-0.06989415826455772	-0.24913782395725848	-0.01688940240914745	-0.014690555663198566	0.4212422453532628																																																										
2013	3	6.137458125898472e-06		6.234311812938018e-06	0.031478064033681426	1.171884380209161e-05	0.042587344336056356	4.36613539521144e-06	-2.716790947806042e-06		2.3779569709919424e-06	-1.7774378269936773e-05	-1.3176579875307897e-05	3.342339003402445e-07		0.004927609823855458		0.06545814395893826							0.02839534456259325	3.176407542242219e-06			1.0944514557998699e-05	0.09770197368658565				0.023355272690508223		0.0029321150259797235	5.696989050746796e-06	0.07785448336559662	0.10721134167604596		4.418887637996976e-06	-2.367457684974758e-06	6.7311918229629784e-06	-2.6115237233844806e-06				-0.06419441079518877			0.014451956270026134	4.611545991185808e-06		0.15780304959031005				0.033009516889759116			1.1315264682480176e-06			3.244105168545642e-06	0.01274811370504232			-2.911777044304613e-07			0.25236564341583234						0.004601389959145325					1.2409938115267073e-05	0.041582649520873295	8.132780527368129e-06		-0.1598170702627814	1.5621582062523534e-05	-0.007724170356264564		0.005191410547772337	0.016371738045514974		-0.22435795253205967			0.03999500833052135		-2.543927532262602e-06	2.6016896376449694e-06		0.025963823642433916	-0.006361932541261054	0.017736229293411003		-1.8370022759433699e-06	0.019606882517789376		2.080234804479456e-05	9.591592135280008e-06			1.4610417112019438e-05		1.6216160889969887e-05			-5.310220404956718e-07								5.441886587195225e-07	1.805981539630199e-05	-1.423600363928038e-05	0.048468809626087		2.5109497142770472e-05			0.05051475409399325			1.7082109576128644e-06	0.13158338943046255	-0.0505699371814185	0.025434272621669723		-0.28941330752379496		0.09588715740343115	1.1509939868270257e-08	-0.09647350772748899											3.6441318085836774e-06	-1.6783641850914843e-06			0.011872572163406779	5.824179790644081e-06	-0.04411712528484111	0.044221466663194896		-0.037153062613287074	-0.05200134281761212	2.019118858181148e-05	4.216969056808163e-06				0.020174303895508665		0.01513985439592495					8.695269961245126e-06			0.17866111343006622		-3.81050436229599e-06	0.04788420317576305	-0.06548153367716615		0.008634682149931126	1.870055587324177e-05	-0.269541251950188		0.019295112269018436		1.8164223204868553e-05				0.1005442723645647	9.740195626512139e-07				-0.47887575713914776		-0.0758298678531543		1.8783991088022683e-06																																																									
2013	6			0.04937409632341735	0.08128092734601065		-9.953623507008225e-06	-2.1225718278167143e-05	-1.1576998006701803e-05					-1.519353746698273e-05	-8.999199817616436e-06	0.048117130947461784		0.06008783075039225	0.047755844039651774				-1.1675555613755844e-05		1.949774716419818e-05		-0.01904286011966655			0.03923605531003312	-5.933017613984943e-05		-1.9408454688206677e-05	7.213105180073172e-05		3.2765401039778417e-06	0.11396521625084033				-0.30827229116305105	5.3975446174001896e-05			0.1799711191436363	-0.07202841164056695		-0.034097261054265034		-4.775606323490737e-05	0.014441766182582513	0.00975995497802607		0.15645254820006887	-0.04034664917172707		-1.597206991164442e-05	0.029319591408904742				0.0016570138221746562		-1.9484985874715464e-05	0.05957883399118499			-0.44319556629351764		-8.692316861085173e-06	0.18805979505409892		1.5452013553912716e-05		-1.4619920537179676e-05		7.511458125737314e-05			0.12504049598902736					-0.039514548810598314	-0.15221363512515754	-0.004502160397582703	-0.15974694456254182		0.007156928705174669	-1.5251472730584895e-05		-0.2844993672642728	0.035905451648535695		0.06345483141299517	0.018376650441448962	-1.6773901316674318e-06						-0.027500241586901987				0.05147156728053708		3.362984853003252e-06					-2.6770394466149814e-05		0.03274556815041932					0.07446771660674051		0.08507015160305112			0.04811574273464194	0.018430982895824892					4.857243746932805e-05	-0.003583778793703146		-0.22677250061707374			0.039187643765850357			-1.0669453545892422e-05	0.10656289241038566		-0.0789936341629507					0.012614965416253275	-0.14705379829324236	-3.4830283543609797e-06			0.1645664736924623		1.4117465151247083e-05			0.00011922681186550531			0.0589395051258241	7.060762015769746e-06			4.990145132309393e-07			-0.05525183568530563		0.046608485876439745	-0.0043000385304876884	-9.252789686969292e-07					0.0826345980802388			0.018035283509676443	0.09919712586392462	-2.1991597787110882e-05				-1.5295063178334673e-05		-0.17416648657316708		0.08686677894078706		2.5136109472543496e-05			-0.041084051849748754		0.09760918970356178		-2.094343353562719e-05	0.018598514134671177	-0.10481851891629791		-0.056657207558082553	0.06638341262080713	0.00010871313847791433	1.5031277172237961e-05	-4.77985600532921e-06	-0.05957253463441106																																																						
2013	9				0.033046912238858264			-0.0058019172868706	-1.6624309695986803e-07			-0.1603513566926791	-0.08560597277982088			0.03411305928508544	-1.1755725173606607e-06	0.0349327710168981	0.027610310275020273	-2.5814475767598213e-06			-1.2928023294348978e-07		6.836074534760872e-08	0.02334710505285932				0.047673852807163075	-0.013560372127803626		5.366474054923641e-08	-1.5575454687790466e-06						0.01951012498612629	-0.16299862616904515		-0.07747657761544517	-0.11636788378387271		-0.02127755166569379		-0.05700973911893193		-1.1948136847549813e-06	0.010868242931063433	0.01595002197445453		0.08794436860002383			3.595595256475408e-07	0.047558712224484476			-9.99105330343821e-07				0.040326156643106924			-0.10459361299487928		-3.8969153193685157e-07	0.131073631782273		0.006129034334296526		0.007404803245325761		0.009265405207277427								-0.033639411369074605	-0.039991465287570714	-0.009832663410589753	-0.0643579750110132		0.010905695746123385	0.0025471687897352297		-0.10262159283013673	0.05528622744310617		0.04929562782811153	0.00845103099479804	6.7432150155244615e-09						-6.371167227361312e-07	0.04721884809149056	0.041620320364099496			-0.1424891410471178	0.025931914746330813					9.473188510961173e-08		0.04581516506500366					0.06212107786572371	-4.41111345527334e-07	0.05071678926129891	0.013816806535780407		-4.2082968522353783e-07	0.03808418874262458		-1.1220128045761354e-06			0.030181964322134214		-7.452781588339649e-07	-0.09862188740350103			0.02696502500989585	-1.0617499723465816e-08											-0.08234049613381222	-0.006838093133227722					2.1063207422973022e-07			0.021060288085700703			0.05345425895860808	0.015627654657085894				0.03930839341305072				0.0199496943583284	-0.04722089265266421	7.475821820832934e-08	0.013820807138156511							0.05881351644182536		-9.531885849814411e-07	0.04973063502534571				-1.5861029045151344e-08	-0.050058566976571496		0.025637688510062928				-6.979006313856191e-07	-0.05300637569067624	-1.3017173708690582e-06	-3.614326247252018e-07		-9.534247985189921e-07	0.0153373914129456	8.279257725183584e-07	0.03259666957517239	6.187373492737183e-07	2.1936769421749346e-10	-0.05169509567509213	-0.49999930306007584	0.1567182745959595		0.5000012853412233	-6.877906120356157e-08	-4.4776769286836816e-07																																																			
2013	12	-5.106392485223211e-06					0.006204512595529147	1.2443175847021979e-06	1.956579351319509e-06		-5.06324008489379e-06	-0.061749407402564876	-0.02575448611912743			0.03562823981648844		0.053318503229633274		1.0364406906552353e-05					-1.780076000145938e-06	0.012082701969073753	-5.618254965185454e-06	-4.763850345680624e-06		0.02168431250201467				0.008588263344408128		0.006993980912263846	1.4696016153757736e-06	0.0393416936480762	0.05638433254405954		-0.2024987200469313							-0.05632287752346103				0.010639757717070033	0.002830008191098535	0.06038964974297564	-2.460834590741031e-06		-3.822548882270459e-06	-7.296636986783223e-06			8.506945562198537e-06	0.041989661818799415		-1.5755815654440162e-07	0.015050762761164614						0.0938373661603831		3.59485380924433e-06			-2.529524718062191e-06	-9.689802302263274e-05	0.0024079608690548556					0.024917109058349998	4.239949538014893e-06	-0.019415832570917644					0.012470500298239713			-0.13725889432225274		0.049725504223515654	0.03593689767060658		4.323954666471665e-06			0.0419986026507912	-1.1092943684737341e-05			0.023775391463971854	0.04110776713210202			2.1370759720432377e-05			-1.751834612345024e-05		-7.334762211442422e-06			0.01744328433827662			-9.687371972053984e-06		0.08003790315040588		0.05943863118877895		-8.793741983780312e-07	-7.680266177027704e-06	0.003153315496844875									1.455317894840669e-06	-6.7746393898948056e-06	0.030764319891333422		-4.073074253448001e-05		0.014221069990696287		-0.013631750298407371						-0.13983702324691819				0.025234167437254297	-2.9482921637997074e-06	-5.652967231474667e-06			0.03225432075947065	-7.929337783089019e-07	-5.901342880451376e-05			-7.223602492684779e-07	-0.028594698970608907	-7.827432090009419e-06			-0.01909993470192356		0.012471407946522888	-0.009598664235112601	0.0001539327999450331					0.041223711415386076						0.06009087142713511	5.1128567258948374e-05		0.007076811064502126						-1.82594248973346e-05			-2.044068260797211e-06		-1.961377337875314e-06		0.1576040947746386	2.7267802866797306e-07	-7.527595507818347e-06			1.340590036909658e-05	-1.5154814894547998e-05	-0.3623454847356156	0.14344731214898715	-8.535573798612168e-06	-3.744501700005968e-05	-1.3374417118913856e-05	-3.220462861609561e-05	6.624346645851051e-06	-0.15115619990480011	-0.15439214127647405																																																
2014	3				0.014587459350813332		0.0443801326881874	-0.020274647406609083	0.019387243740729938			-0.00031248764701699534	-0.023793196141585222			-9.721013600777287e-06	-1.232818335539008e-06	0.019064623010427738					-0.014466975727772016		4.211505756437265e-07	0.004847361849325327					-0.0386755220505349		5.37695494283377e-06			0.0430517969532587		0.06332302435460382	0.10041330393083457	-5.844513322308889e-06	-0.047315497181452996		2.2030951937568256e-05	-0.02975964795131321		-0.0565654656289221		-0.06542602239032748			-4.098139999034498e-06	0.005294047782593017		0.09005935056638954		-9.369280862010457e-06	1.746785746223812e-06				1.5034775305773755e-05				0.030470084011606325			-0.00013076454362347204							-3.446869513496475e-06								0.030615102276303863		-0.03878659361104031		-7.155410989201226e-09	9.357452991084452e-07		0.005805854805833447			-0.11976409253763173	0.060531448060289574		0.04093819599928444	-5.963659732718474e-06	-1.3053459403846018e-05	-3.2623935341965256e-06		0.020944034207341707				0.014688181687649914	0.017169211403627333		1.691678487323312e-05	-0.08990664325873811			-0.03424868659883626		-0.00984849233266365	-0.011523986295200262		0.023171037616871015					0.054930473594281846			-9.888177024831508e-06		-1.122464952995826e-05			-3.826752484491289e-06					-1.807335021844826e-06	-0.03291065756445861	-2.5661856108096506e-06		0.010511194132585474	3.0585328204992476e-06	-0.2220595472704066				-0.03952606906016274					1.2599137060628757e-05	-0.1307650604785337	-3.0806282582320536e-06			1.8743069878418776e-05			4.098951672899702e-05		0.03814538710318489			0.029357500650948023	0.007837298945610919		-0.14235082019479006				-0.02844511976061566		0.007689744222744785	-0.07952903619167564		-4.752970158322659e-06			0.03225979505661115					-8.849920525889807e-06	-0.04665847851867715	0.024787388440262983			0.005687471585148665	-0.0065516622548858995			0.031399141092647166		-1.6033427422246214e-05	-0.011021337126457463	8.734666469663631e-06					0.08306007273813747	0.01877779403795719	3.665771568943687e-06	-8.489714980763369e-06	-2.0013905779608917e-05	0.031667149040840656			1.4331631974706486e-05	-1.3618120089959325e-05	0.49996721480771383	5.9517904925374925e-06	-2.3047773046403635e-05	-2.3677151973285065e-05	1.0235207878025736e-05		-0.18418079032272996																																															
2014	6			0.022334070323026426			-5.158510440180483e-08	-7.383229857275489e-07	-2.4900613416249197e-08	-3.431155674156651e-07	-2.235183063728866e-07	4.2406688945281693e-07	-4.412873625353052e-07						0.039294769808412004	-4.726850486051683e-07	-4.810552868336954e-07		-5.72420152454521e-07		-5.920839909526149e-07			-0.0015905111773632252			-3.798896410734063e-07		-8.387816709640237e-08	-1.131243878494575e-07	0.010281568876021956	0.006654083943323922		-2.819243260269528e-07	0.004137814228662181	-1.2579019456744132e-06											-9.824885519112175e-07		-3.0463665397430445e-07	0.04744689345638075			-1.748813168379441e-07				-1.4740220834954863e-06			-1.4236407345509428e-07	0.019372006554955887					-9.227183379654855e-07	0.08640299269935323		-1.180852547377238e-07			-9.408236898023679e-08	-7.324602090725877e-07	-4.3436847966241934e-07	-4.87635232274465e-07				0.009884373375460895			-2.2658802347184322e-07				-4.95971706613844e-07	-2.3353511413657427e-07				0.03193229190839308	0.05070821297207723	-8.095398430269811e-07	-9.612709857242893e-07			0.012396769326871624	-2.792567728475935e-07								-1.3012910512342204e-07					-4.388276354923535e-07					-0.008325966727500321	-7.821220961365749e-08		-5.873790819983756e-07			-3.728576881880279e-07	-3.005615360279716e-07	0.03365637361017975		-1.2356466153509856e-06								-2.9419553825736634e-07	0.026085524061529034		1.0020145859111902e-06		1.1652392655912861e-07		-0.022161348654202023			-2.3618215923861917e-07			-0.14326196829282617				0.02089286133981692		0.0003901257784209869			-3.7721485828958243e-06		-1.3152008378969918e-07				-0.03385635046066328	-2.7559722661955717e-07			-1.035700378231409e-06		-1.45849974871426e-06	-0.03103715135966765	-1.7710140155807458e-07				0.05230497880267237					-0.01627649347486171			-1.1651640460691512e-06		-1.8512755606277016e-07		-3.814768961526344e-07		0.041057868348746					-0.03583895577668035	-8.904941051669311e-08	-4.4234363891275587e-07		0.053739330026725325	1.6117571683809703e-07	-1.3506178272045426e-06	-2.1829755207063575e-07	-1.0347667633714213e-07	8.807247455101806e-07	8.194028409340895e-07	-0.4325852428579515	2.1403300929559094e-07	-2.8956694357849226e-07		-6.822134165069218e-07	-3.137124755107205e-07		-9.448982470296117e-07		-0.06154578880058494	-4.1834244200770264e-07	1.6487203437841244e-06	-4.795094129806021e-07	-2.078337035398443e-06	0.2175373600138228																																										
2014	9			0.005127204757270561	-4.505014046643409e-06		0.05475032640049353	-4.471873025643578e-06			-0.031527101707835445					-5.6668105548000375e-06	-1.4346694829138076e-07		0.03644934448969388	0.018614701819962873					0.02545439369612861	-3.2081226262573057e-06	-0.0027210252992415115		-6.378857592703014e-06	0.032683028174983336	-0.04051571981873704		0.0035709903482071736	0.02621387548409548	0.030400235257130287		-3.3665248889354708e-06	0.05509561596773268	0.10046579002574647						-6.271115837007994e-07			-0.1110377025947219	0.026966991531054745		-2.856905497210373e-06	9.908080484685937e-08		0.07355611860533612	-0.04388746696082957	1.960960318739724e-06	-1.1532815633104056e-06				-1.6169258062936425e-05	0.03124354333860877								0.015659291163665892	0.09378552997513344				-5.617617454047811e-07	-3.6412316214630614e-07	-2.3080242414935457e-06		0.02036657460712179				0.05155984761777876	5.4959011242209185e-06						-1.8585513105324473e-06	-6.713602122820397e-07						-2.0510310535816654e-06						-1.6808242997503448e-06	-0.04947153547917226	1.7119818482387848e-06	-5.094345881275378e-06										-2.2849974352229796e-06	1.4034100632972668e-06			-0.03604150312222411			-1.6197363625266642e-06	0.03382624325786663	-1.3687107378213446e-06	-0.05700259251845854		0.044735630319325786	-1.1455841382495342e-06	0.005293939424567973				-0.05739782965543461			-0.013453890679680038	-0.0824844910698577	-5.550207509919995e-06		-0.35095592098747497		0.03438065237052985	-2.5406718575991174e-06	-0.03843338284930698					0.0197246275461447	-0.17705024358611204	2.9597781747688463e-07			0.04211646783527762		5.624123088184397e-07	-1.6681183068443568e-05				-0.016921528215182002						-1.8383081318563582e-08		-3.749714837325511e-06								0.14359228002021485				0.021034255074786106	-0.043405049770178616						-5.124639630167467e-06	-1.288393695319661e-06		0.04502553370311146		-4.775374257502259e-06			-0.07968021345449502		-7.19537276643756e-06			0.04036650823996897	0.013421098621402271	-0.044627691594574206	-8.850297343799405e-06		0.034185116901196265	-0.5000107837593109	0.055697431437819515	-0.02932544590129258	0.00953429055489078	-0.004219164099417983	0.06359972319333003					0.1637477574300061	-0.1629940552575756	0.000993121280594096	3.6558443730777844e-06	0.5000123446854834	8.256976472684061e-06																																									
2014	12				0.034599944302727746		-3.9440666476842975e-06	-1.612149916925914e-05	-5.4663362273376475e-06	1.017787464824906e-05		-7.1058322137920974e-06	2.0720597097875966e-05			1.5006873154502247e-05		0.03527844451944909	0.05650148844203731						-2.4263576324071203e-06	9.725178053014626e-06		3.7297841810082687e-06						0.013899345795260098		0.0027581623403983824		0.025918663167959856	0.04892446154244507	0.031901996961851815	-0.00012246225246295388		-4.075963362570621e-05	-3.7666860984373906e-05				-0.005558196136543872			0.009934938153587439	0.0014688119831501843	0.012850882319971337	0.08480825484611586				1.9544189984089548e-05						5.8795560156575064e-08	0.002063673605978962			-9.78425765358759e-05		0.009391442298193466	0.11205481092333935		1.9473631813514587e-05		0.01781930317102411		2.8378265436863226e-05	0.008268366381428815				-2.867104102803869e-06	0.024881431037286333	2.3660308848781458e-07	7.434145305023977e-07			5.1682945794416225e-05		1.5745284429382156e-05			-5.231453288478841e-06			0.015375344600752065	0.01592144607999331	-3.321076880344981e-05			0.012428155610521824	1.7742399723025696e-05	0.027182472650250693		4.904187394249593e-06	0.0019128204468037192		3.964026023718268e-05	-1.1288334307160436e-06			1.1505001966200007e-05		2.865809024647367e-06			6.993982840727888e-06								0.027507791049845985	3.422160287717709e-06		0.011762686559952917								-2.1948813521107206e-05		9.432290081107557e-06	0.005064828554169956		1.671047610176245e-05		0.04309807772466561		-2.087655928706906e-06			5.921347615525335e-06			-0.032352600058811985	0.002745469549849918					1.7284820389027424e-06					7.205189659324916e-06	0.02656975109870589			4.8485620717385796e-05	4.879318376314943e-06	1.5823432501504395e-05				1.1384305363279269e-05	-6.240447729269325e-06					0.15769677661056242						-4.730719062817178e-06	0.0206618942124476			4.779538088790809e-07				0.037487019706435365		2.4446555384779523e-05			-0.0293790053609672		-1.6127020225132238e-05		0.2788612318984711	2.1086810387255993e-05	0.00021151884128560623	2.90751999505283e-05		5.467127419736324e-05	6.065206139964365e-05	-0.09400438709879484		-0.11105110089294015	4.609429503257867e-05		-0.19120985901316048		9.51730079486663e-06			2.6933217792075527e-05	-0.15700375156104643		2.0136794923594684e-05			-0.49986779074323173	-0.09774406790748892																																							
2015	3	0.08933151459942329		1.6788083053876404e-05				-9.167048854292616e-06	1.3954997639888584e-06			-4.3627209454353326e-07	1.0574296489237227e-05		-9.504118732771998e-06	3.6944493151875445e-06	0.11755066354787361		0.043294067677386805			0.05158127047526312	1.0179852975776928e-05			-5.515218005895123e-06				0.04377176336998968	-1.8314499483741777e-06		0.016869472390772907		0.09656206964275507	-4.4030873320669415e-06	0.025082514759086613				-2.229454891244004e-06				1.4748882896148975e-07	-0.0774703929849649		-0.11633509899835624	0.08253556830355993	-1.595556158887035e-05	-1.5369168616039e-05	-4.471323952917081e-06		0.10869845989945282	6.9925697650805495e-06	5.166456357765653e-06	-5.748844986131599e-06				1.5852487934842795e-05	0.014323688032224358									0.12466820463300371		-5.79246213252956e-06						0.0698348996060502	0.06746931179219319				-3.2108024664597526e-06						-1.6942098222679703e-05				0.09369399413152492			9.366766533478377e-06	-1.1732160428436485e-05	5.051101581842433e-05					-0.034887766886759757	-1.535955436742294e-06	8.766354665646675e-07		-1.834525237034313e-06		0.017947552929895964					-5.145217701879381e-06	-1.0634562546569623e-06	-1.165459309574158e-06					0.08344779739067602		0.047189305486721345	-6.800570248904524e-06		0.0981365457408554	0.041477104735279505		0.08695371161698477								-0.06523913667178886					0.0502909254394511	4.37242501996825e-06	-0.028667735569280907					0.015890950855313814	-0.10498585586454302	-2.665358974295667e-06			0.0709272708973085		5.530546600350212e-06	-8.830464891617307e-06									-2.577260664954483e-06	2.851335438086089e-06		-3.056561752565711e-06		3.2262846571204956e-06										0.006244069125555957	-8.9982198108643e-06		-1.1421213717344296e-05	2.5414007709405652e-05		-2.73066350582862e-06	0.11485957792130487			0.06038447242450424					-0.08981118347846004	-0.039014585766107966	-9.240931251761045e-06		0.2624078810922827	0.030906192602380554	0.030274157839213944			-2.7745959060557503e-06		-0.1668585267150893		-0.07088197758056677	3.350887170095332e-05	-4.510434441456769e-06	1.4317378871364203e-05					5.281725831736532e-06	-0.09876910810960382	-0.0695961577065245	3.0052482842068614e-06	0.16407418296459247		-2.357381224703027e-05	-0.4999811593922704	-0.5000796173148784	-0.13981767864778724	-0.12432051721295076																																				
2015	6	0.05365636677850691		0.005340430366293932			6.153626614573627e-06		4.693688300483472e-06		-4.4412496610458545e-06		3.2881825579016424e-07		6.045536661102985e-06				0.03264873640496144	7.98666225249307e-06			1.0400263540479453e-05		6.636724103940875e-06	1.6668445374524936e-06			-1.7100105732548152e-07		1.1680023570127458e-06			4.01725992080437e-06		-7.983289929590475e-07	0.006894232002459453	4.149505756662925e-06	-8.43800977084032e-08							-0.11415788519188363				-1.3438781217648385e-06	0.015614997624719107		-5.708249299712788e-07	0.11734101965474406		0.03091146738611397		3.6517402404801275e-06			0.005106466450834605	0.011287811714504827		1.6190779705144173e-06	5.654647695323458e-07					4.691280598280914e-06			9.38495728059311e-07				0.0030264918089203886					0.0021476027209978415	1.0904346421574262e-06	0.0018777933481503187	-0.05116070308426755									0.04874752505834112			0.017941560320337734	1.6873075951049306e-05	2.4007656933261022e-08		-2.955854173481386e-06	2.0459826835352257e-06		-0.07896812945891582	1.0486500213191646e-06	-7.299166589438734e-07		-2.341909420217737e-05		-2.9520442893967823e-06					9.619463558003974e-06	-0.06088338418606607	9.774919978422405e-07					0.05648126273078349		0.03624989885160038		-4.146394877360635e-06	0.054168381114865036						0.024521878613309466				-0.02730032108957705							-2.8762923904684365e-08	-0.04821682270662331						-0.13319265897316934	-4.597604223939904e-06			0.1025492576110561		1.9523851335161386e-06	-1.577307927157726e-06		-3.7550404030056177e-06		-3.4621696169781523e-06					5.439344836554305e-07			-0.021767050418433874		2.7106506007523098e-06		8.578195801458878e-07								1.9474326364772467e-06						3.327228859659801e-06	0.13729639872891683	-6.152973265017055e-06		0.04483904911105892						-0.05051024997472207				-5.637163984001699e-06	-2.10641291407373e-05	-2.3229974258650897e-05		-5.5331516160383025e-06	-0.0006082964525734342		0.1399382329404254	-1.8046912449167807e-05	1.7351167380833803e-06	-2.398379729976561e-06	-0.0006222211410828608				-0.07111757829525217	-2.3948437811608885e-05	-0.13995809964849745	-0.21660202719990015	-6.115143502674157e-06	0.06066701686001302	0.04346458347982551	0.15810004500627703	-0.5000100005460204		-0.20670042477369033		0.5000145980309776	-4.433019039728982e-06	-0.05833614149003352	0.06932204653497412																																
