year	month	ABC	CCU	CL	CQB	DAR	DECK	DHI	EBAY	ELY	EPC	F	GM	GRMN	HAIN	HAR	JAH	JBSS	KO	KOF	L	LEXR	LTRE	MCK	MED	MGPI	MIDD	MTEX	MTH	MVL	NAFC	NUS	NVR	NWL	OME	PFGC	PPC	PTRY	REV	RYL	SBUX	SEB	SUP	SWY	TEN	TIVO	TR	TSCO	USNA	VC	WBD	AMZN	ANDE	BG	CHE	CLX	CTB	HSY	JNJ	KTII	NATR	NLS	OATS	OO	POOL	RAH	SAP	SHOO	SPTN	STKL	TAP	TOM	TPX	URI	VFC	WHR	BZH	EL	KMB	MDC	MNST	PHM	PNRA	SENEA	SXT	TRW	BID	COLM	CRI	EXPE	FARM	FDP	FLO	GT	INGR	IPAR	JNY	KCP	MAT	RDEN	SKX	SNMX	VGR	AVP	COKE	CVS	DPZ	GPC	RAI	STMP	SYY	TBL	TUP	ARDNA	AXL	CAA	HLF	JAKK	MO	RCII	WWW	MOD	NTRI	PBH	PRGO	ICON	IMKTA	LEA	LEG	THS	UVV	PAS	WWY	BC	JSDA	RL	SEED	ADY	CROX	FOSL	PEP	PG	SAM	CENTA	IBA	RGS	BARE	FACE	HBI	LANC	SUSS	TSN	UL	WINN	ADM	BWA	HOG	WRC	BGS	ALCO	G	HAS	WBC	ETP	GNTX	HOGS	DAN	SMG	WMK	DPS	HNI	JCI	ATVI	CSKI	DL	CHBT	CZZ	SVM	BRFS	DOLE	LO	CHD	MJN	SPB	TSLA	K	PRMW	TTWO	ETH	SODA	WFM	BTH	CHEF	EA	ZNGA	LKQ	POST	RNDY	BNNY	CG	HSH	PM	BDBD	LFVN	NGVC	WES	WWAV	PF	COTY	CSG	ABEV	ENZY	PII	SFM	ARMK	ESI	KATE	CPG	FGL	SC	GPRO	NHTC	DPLO	SFS	FRPT	VSTO	BETR	BLD	KHC	ENR	NOMD	UAA	MDLZ	RRR	TPB	USFD	ELF	ADNT	TWNK	NBEV	CELH	WOW	MHK	ROKU	APTV	DLPH	CRON	HFFG	KDP	VNE	CPRI	TPR
2005	3	2.2623586449613655e-06	-0.031293792361560595	-1.4089866895922548e-05	-0.04485029800866644	0.04690012786339934	0.06445679769414442	0.04202035030713033	0.06967108679731024	-0.09127378704074442	-0.07920059801546211	-0.046456675139418105	-0.07637170181807842	0.04947001570773803	-0.0742173218211165	0.16413484984790977	0.1857404133426281	0.006266714573861341	-0.33715439670614156	-0.09081276893652299	-8.644357570768795e-06	8.649076619913571e-07	-0.07175084257083533	-4.359736780547101e-06	-0.029762074614928906	3.705503003363207e-06	0.021560116296267584	0.00567181662918667	0.06815897943565123	0.03777128539579471	0.02058254074420973	0.04383692648567795	0.1344773763535517	-0.04735108583990048	0.030897521590852496	-0.048144356659452284	0.26512966575289126	0.017784956001857092	-0.05039355680836265	0.057686021704444014	0.1252652963283828	0.14363176836007988	-0.10626744154628148	-0.024221479187761477	1.805224165621622e-05	-0.025283536028008834	-0.15773433306830462	0.0007576473588566329	-1.0106773503094462e-06	-0.011275576763243773	-0.15806578854460535																																																																																																																																																																																																									
2005	6		-0.0665470078602269		-0.012259237003345153	0.028939541398334667	0.042680299650015886		0.021641195091602686	-0.054617058161070015	-0.049169015254222063	-0.04889374023474022	-0.08259502905060864				0.15040185630631522		-0.4242188526128381			1.4979544306949706e-07	-0.08739137199353991		-0.0356183435974155		0.03774750454651269	-1.4726321857361792e-07		0.033880595276685126			0.0927116116870162		0.018317537192634924		0.4244330368284489				0.03580067045544294	0.07835598265865885	-0.19175284631788153			-0.004864718114169089				-0.037521019194208534		1.1317589416409286e-06	0.1356183981911684	0.07142831451112337	0.06821934121200735	0.013795195503301381	-0.028626685961434573	0.1805093388066975	5.32337096829241e-07	0.056393560555289976	0.01435458715396364	-2.1845859623836225e-07	-0.002940372010003145	-0.028274973642134917	0.12380501249148913	0.07382470909279323	4.209355096926675e-07	-0.009940438302237477	0.02117254612228171	-3.2726777044933065e-07	-0.4999993449110425	-0.03352220551314057	-4.943350646829772e-08	-0.0013448250677810703	0.031708731925991544	-0.055643967190576675																																																																																																																																																																																
2005	9		-0.09614032659239316	1.977889408533283e-08		0.047486874211512584	0.032493003774929585	0.09744427989560438			-0.1453794317175845	-0.12173852683508775	-0.07740819711815827		-0.1120129917222917		0.3991495378618978	5.472013981068319e-09	-0.45967689484591767		-1.5954730850046388e-07	4.9519743926278045e-09	-0.1478581405368076		-0.050336661204606295		0.02813462671067145	-1.1486703399505958e-07	0.1309814585695491	0.04269622288667994	0.0136605465882285		0.18610209538832573	-0.0380857289116828			0.2655289014068351	0.03167166833886958	-0.026340530187495666	0.11280795506924805		0.2614943055391131	-0.304695535604846	1.0589821570025933e-07	0.0006334809538546312		-0.31402482837190365	0.01178411661469878	1.9750203577914774e-08	-0.03565027840505001									-2.3200370626380022e-07										0.07081237218619856	-2.601395394669078e-08	-0.06447557123707344		1.1935214945476133e-07				0.11125238929727922	-0.08183015665449668	-4.982255177846071e-08	0.09194784465227807	4.325022672492299e-08	0.1359648461877132	0.07832743895197936	1.4314015727551815e-07	3.599145974910035e-07	-0.07472054700362273																																																																																																																																																																						
2005	12					0.05527858226254359			0.045406188251136195	-0.02784097007596063	-0.14008604327674548		-0.09587831460057096		-0.08344888104722788	0.09583900663034449					-0.028330857601459796	-4.313324059209612e-05		0.021382689881467187	-5.4058801488627314e-05	-4.139226916243688e-05		-7.723817854000771e-05	0.14324312361299332	0.03638287813543889	0.002496963251879288		0.2362693440259636	-0.04406639875288964			0.2962696593541262	0.028843982384901195		0.09788672915963686						-6.583278228401571e-05	-0.2859795197816902	0.048619151400612334	0.009698272762602645	-0.0023357853044261626		-0.00013450709715079836										1.3419923192432121e-05								-1.0950808004083258e-05			-2.789660728760136e-05					-0.1698033092850942			-1.2928365083728118e-05					0.00018502763552079627	3.731852535732497e-05	-6.705901299177662e-05	6.85522896576861e-05	-1.9101644564797785e-05	-0.45564775670701113	-5.385404797063784e-05	0.21223879217540761	-5.732703284921562e-06	0.15911138187742477	5.493756703306202e-05	-0.12798497542052062	-0.02581658270833981	4.4743348813930534e-05	-0.033533603878715436	8.196905788463984e-05	2.7520849217696717e-05	0.03199104243308167																																																																																																																																																					
2006	3	-1.681699821748048e-05		-2.0402071671428868e-05		0.04654640633098105												4.900034666980744e-06					-0.20441185828510458				0.10307894218706713	0.010613823244387683		0.045558857005362656					3.856479168170935e-06		0.2744951895860486	0.06894487956504429		0.13439820872973932				-9.379645517363088e-06	0.03685330412975681		-0.39449165102866635	0.049747464914775864	2.946898834274405e-06	-0.008275389303270552	9.325813357469956e-06	3.6084577582890463e-06	0.17958343262930718	-6.037652365606362e-06					-2.414998872541066e-05			-1.3218712932968523e-05	1.0159959922190427e-05					3.6770100511030143e-06		1.2203343375939095e-05			-1.2918460774443575e-05					-0.18042013705243434	-0.1175602003066146			0.15595355148585702	0.09224612339165564		-0.12950751893694484	0.16534025097397265			-5.112034459611111e-06	-9.40345619631791e-07				2.35159568616954e-06	0.1285415913851659					-0.4897959150903341		1.1468253356526162e-05		-6.6528525445928825e-06	-0.039938040533158935	-5.746976765429139e-06	5.035813333373243e-05	-1.974522218976003e-05	-1.9260982751162812e-05	0.07253172637692647	-9.223572032534415e-06	2.396127859086192e-06	-5.818765153064343e-06																																																																																																																																											
2006	6	8.286162059505956e-07			-0.08350296783383473	0.08045152777711607			0.033682583962564794	-0.05746237475734911	-0.16027916334667366	-0.23633964579035058	-0.13762988462235853		-0.0455479622108857	0.05010140738694858	-2.679752929919615e-07	2.153134390485633e-07						1.3449664245449416e-06	0.015069727278748305					0.03820146703539948		1.1175892860018157e-07			-2.8826112194986937e-07		0.02733977677698726	0.047722962985959426				0.08019697553788144			4.4585708302269657e-07				2.592396130255797e-08					-1.0225498798691978e-08									9.760959259729692e-07	-0.019781161806617233					0.03770244834794695				-0.0006714065535882627				0.019681370332208997			4.6698047954958426e-07	0.055205064178126415		0.10740670002226126				-1.6369147184244647e-06			3.640524669324206e-08	-0.18100221935674898				0.11834365286423322			-0.07569205416203574		-0.12502380951280445	-8.480944888093412e-07	-4.3620843707468264e-07	7.050032138130504e-07					-7.959608333621302e-08	0.35725408788334795					4.797637113700765e-07	-0.059143271863169526	-0.050183177491084925	0.15637014923326556	0.00752435839716095	1.5814993173301573e-06	1.0502816412838273e-06	8.636929747408403e-07																																																																																																																																			
2006	9		-4.5741896560324626e-07				0.004033759327954001					-0.19223298784256157					2.967401060051301e-07						-0.18245958901314618		-4.643464591866776e-08	0.016971605174594097	0.012640672772386051	3.35968861578509e-08	3.586191349692139e-08		-0.017345694194698346						0.07934471012924937		-0.08645591469209776		0.057125098031192686	0.016529607717999377	-0.09542379551983166		-1.7092750094291358e-07	-1.5807910837824978e-07			-6.898325631922708e-08	9.252164590859367e-08		-1.3421533904816404e-07		1.8980154040591766e-07	0.07996449559573612		-0.15311817866716315					4.7226818500262195e-07	-7.290917297925158e-07					-1.2182690242824618e-07	0.030297253988307127	-3.0248562520704843e-07	-1.5830792960373306e-06		1.2411047404805834e-07	-2.265601326489922e-07	0.008578546230394321											2.784489903016093e-07		7.829182150535996e-08	-1.3841531556152672e-07	-3.084174799171857e-08		1.8011052423668508e-08		2.031367259696187e-07		1.4121603330121474e-07						0.09210314061992865					1.0305902552749683e-06									-0.021729311404016505	3.5982102188560344e-07	-3.330556176667867e-08		6.250614844896514e-08		8.570445463539577e-07	0.35117656338342856	-2.5097900243454966e-08	1.1426951554724409e-07																																																																																																																															
2006	12		-0.11650519144375078	7.45764151416748e-05	-0.12311931161164309		0.06342354103792955					-0.153727622366952					0.1043866174127678		-0.406947392635116				-0.2835251219137842	-3.455074379140089e-05	2.4140588114318425e-06		0.05295524121980568	0.0006435654767106944								-0.1556233730551774		0.03982045230598649	-0.14417456695917735			0.14142986286656906	-0.459201207183824	-2.504519383807818e-05	0.02122410963864281	-0.037948441962076314		7.482074642733828e-07	3.060521210350131e-06	-6.828356734563544e-06			0.08749585979825188				-0.20378596548754163			0.4337242959744143		-3.230222309824273e-05	-4.07593818852707e-05						0.08937913872035545				0.060171964558726275									0.013493443841846083			-2.0127272551379487e-06	-1.7201337362582264e-05	0.029656804322849197		0.045930488191154334	-8.398474085826592e-06		-0.07471762660319822				0.02450437850819525					-3.3079470354200724e-05	0.07319170606858792		-2.8479701503692435e-05			0.004370770682925742											-0.01562974529394791					0.49885908458543243			0.18558856637459434	0.2700850199318156	-0.06533497066362233	-1.529294057763113e-05	2.3602866528454956e-05	4.9226705240183905e-05																																																																																																																									
2007	3					0.09745393458738871						-0.2547906505993064	-0.026748746020125877	0.10781127237387352			-5.587617928219323e-07						-0.37812896561271064		-3.985033107426617e-06	0.06710179253654532	0.14796659796323633	2.0152354382261125e-07		0.07871606588171425								0.024204410659603964						-2.0321019789179827e-06	0.0494351010696471	-1.0753953244992167e-06	-0.3073133801210781	0.0066235337928857016	0.02575271314882953	3.1638810110769277e-06	0.2653503722765655	-2.718490067290914e-06	0.21077784378843964	-1.7418370191504584e-06	-5.310881575438377e-06				2.3146411237324672e-05			-0.02531398261019744	-5.4508799007660576e-06					0.09876316034107568		-2.2331056124781974e-06			-6.785614452022141e-06	-4.367141273858804e-07					-0.20338363134303455		0.031808341556456225								-7.776748236174737e-06	0.0034726550457208267				-2.9053296820786998e-06		-1.9809464805415734e-06		-8.997615224381922e-06	-6.324829092104778e-06			-5.7912058007612035e-06								-1.9866648586798864e-06	-0.0887280878469379	-5.918708440476339e-06	-2.057622465791215e-06									-0.3379000635399325	0.291351092488781	2.497383855264127e-06		0.1157996368601384						-1.1420879733434564e-05	-1.230701837733695e-05																																																																																																																							
2007	6				-0.05147030457028597	0.017169142628058184	0.04783794781956838			-0.019481350946069394	-0.019262767414808736	-0.10131434644333347		0.026208121094971122				-0.006911170425449719					-0.14049322792055008		4.373987406958547e-06	0.023559557313922234		-0.004523525492599605		0.020431125833718117	-0.011812653742823797						0.05644743401217546		-0.055017878085016604			0.07868590013130067	-0.2846995463580754			-0.051176559163818115		-0.04028456995148293	1.2494195771698602e-06	0.010254050747787503	0.07037264795672687		0.046978621495412654	0.13265866925072567															0.048777848976640156					-0.06651045377343318	0.2199000528195514					-2.6938540811498214e-06										0.0005734152456664001	-0.3824362009854115	-0.09589571701607148		0.04786932006706668				-0.016710700553107253		-0.2750913101991182									0.24204262899784543	-0.028217386643609132				0.05124613440001137		-0.07887416364863814	0.07276609463604562			-0.0341213117314756	0.1573304662670809	-0.13987003103234502	0.06165401273282193			0.2746582190606979	0.11707659058011737							-0.07113840740276721	0.5000104189375241	0.15081009173169	-0.5000043871508143																																																																																																																			
2007	9			7.977792819419971e-06						8.072162722371217e-06			2.1721507210543694e-06	0.04472228182639161				-0.002179625498498163						-5.2176270666253665e-06	2.1898282416279034e-06	0.02145138397674389		-3.9530999625106866e-07									0.05624315379803461					0.06031624186526792		1.3642197569554202e-06		-0.020866331713975887		-5.286477769789418e-06	-3.5386576847966416e-06	0.003151039339890232				0.0972989708216428					5.539223690986791e-06										0.043745421281145745	1.2070165441433891e-05	-0.026817217650172333			-0.0034921668283104386	0.16576264450005848						-6.085514758081734e-06									0.01170362027002668	-0.2422914932553785							-0.02754596304257173		-0.02249572191105396	-2.820422252563906e-06	-0.0076069028046971635	0.019108720318232082		2.087062681247488e-06		-1.0872337168349476e-05	0.009960844479000983	0.19383592382041137	-0.00948535563011742			0.050397972521183235	0.049220815222344214		-0.06533820068297225			0.06239883654283593	-0.013713915355962721	0.08512686772430167		0.03561632630117578	-0.20577918553223148		4.0460582564836265e-06				-0.03114706238415146					2.523881431778277e-06		-0.49999847632770816	4.334015109658076e-06	0.16869245980051834																																																																																																																	
2007	12			-3.122690650766863e-07			0.1997566732868974	-0.03247036877188239						0.1566394815648613				-0.011765291680903489							-0.025635601493213537	9.092677297273158e-09		4.3530472464665213e-07										1.5743677631153082e-07		-0.03759244219852928		0.12960603310247792				-0.03923864927462515		4.409662737461691e-07	2.1674486088379436e-08			0.05141031324197317		0.2794877479404235					-1.019759588549047e-06	0.4089464536718189							0.04149222590228561	3.994905745502169e-07					0.1531115859597711	6.500086438661334e-07			-0.08749863781828857				2.5314499652176517e-07	-0.0925248234530865	-0.05375338557145827		5.352201516170811e-07												-0.45188353151620336	-0.2260679304539181			2.3235295810486776e-07				3.755569426744825e-07	2.765098190366793e-07				-0.04965542303800616			0.030116857855229547	0.06058783993378138	-0.03738670996156596	-0.29341723820576393	7.777196129798781e-07			-0.10997304950619617	0.04636101074592529	-2.268455823424191e-07										0.027542747315395365	-6.825768305378819e-07	-0.22760275891878023	-2.0310782094667388e-07				0.019317912221629468	0.04176872436392114	1.3999462579443262e-06	2.9935336906272457e-07	0.1303147656947827																																																																																																													
2008	3				2.6270760038650347e-05	0.08385102284135978	0.0749687272522387	-0.04566722983418372				-0.018409883023575584		0.08801602733286051					-1.4243054877938474e-05						0.03730548126261108		0.061566161676054096	0.009094846998283196	-0.022710344710476733	0.047402691817515455								0.023662448046457497	-0.030903639538257723			0.030112164723334646		-1.985102220686787e-05	0.02784667716060277		-0.03507536003564594	0.058236859460991684	0.00932034929296083	-0.0011343330429830218	0.18611445635660312	0.06387026629525996	0.07502687247505722		0.13766802497513536				-1.6086340778423302e-06			-0.07576182329612308							0.02990689244831184	0.10099045352836421	0.22257440363449024						-0.037311680620624926					-0.13556384485093578				0.10248137057230808				0.03417659905400624							-0.11653772535899697	-0.1834929190139095							-2.2095314123988988e-05						-1.5447370465602908e-06	-0.0568749158139187										-0.03576233434803422	0.008007820548354147			0.20251135470826212				-0.04215032889952897					7.201932677099877e-07		-0.5000669034043974	-0.004028773330937029	0.041432393441416436					-0.4725418764480163	0.0728588198669358	-0.014961027356020045																																																																																																										
2008	6					0.14001587156838197						-0.3082776844531153														9.947309033459467e-08		-1.1273843929434923e-06	-0.020043306999247102						0.0600364589207098			-1.102465203891995e-06				0.08501031839844712								-0.06916794596501535	0.2101867754177053	0.059522403629675605	0.1315505660935227				-0.03939386639002748		-5.833423221137249e-07	0.3870030793021777							3.5950555907272827e-07		0.06396475987191881		0.23144986406051699		-1.0820045878531652e-06	-0.0513293659424261			-0.10763587155668394				-0.12212634438672003			2.2679025750171952e-07					-3.810016321630406e-07				0.0818989151569682									-1.7708754617872132e-06										-0.3371949771026508					1.439440458433734e-07					-0.2747536351290713	4.728376666109695e-07	9.120831735763445e-08	0.1063090691007843	-2.776662096302892e-07	-5.36862503402322e-07			5.061741475787691e-08				-0.47764203249141374	-1.8923219109669118e-08			-3.534850355838066e-07	-5.53678314434817e-09				0.08607984568663207	1.369642730734832e-07	3.6662922533492354e-07		-8.144834894782893e-07	2.1858115726768002e-07	-2.9129097220222815e-07	1.9317357977180823e-07	8.976422492443714e-07	-0.07811003876001779	0.05976683246564208	0.18288412487532912																																																																																																		
2008	9						0.02992027658251361			-0.0226167715006789				-6.634147643082378e-07			-5.318973453222321e-07	1.3638344005947518e-07							0.024817886664448216			0.0036673473079141534				-1.3650729279361165e-06						1.487462093883633e-07	-0.00777664018448337						4.620866178249968e-07	-1.48674854952948e-07						0.021514360543722227										1.0680716037528768e-06					-9.339172353654016e-08			0.01844599817736989	0.20102974772155213		-8.825537553500789e-07									-1.9816947274680438e-07				0.04636141829655483			-1.1572239520391553e-06	0.0001336698614282313		-1.472404872066298e-07					-7.210336129330753e-07	-0.011577584451113116	-8.174696395121796e-07		8.255208860362363e-07	-7.816605458649e-07							-7.981977868753524e-07			-0.023183151174476464					1.1054147549329837e-07		5.790095203543614e-07				-3.8206605206168984e-07	-2.296224405052025e-06	0.008825550626437464	3.596031726047202e-07				-1.8659959961372251e-06							-6.341585349063368e-07	-0.05933383162829016	3.439103961377956e-07					-0.33976881240864415	4.9491969815852e-06			-1.8920228751214545e-06	0.49488308489881855		-1.5006425090961584e-06			-1.4976203809088398e-07	-3.9155604129383735e-07	0.059269594515121544	-0.030700017891197237	-0.41390562208349163																																																																																														
2008	12					0.09703492134683898	-8.133682314521955e-07	-0.019968786244259573		-0.03016977081956021											-0.051247664065790566				0.024085181905287266	-0.02374810512906109						-1.8620138782538152e-06						0.007093012308543114					1.1638974708439355e-06		2.0544610670007632e-07	0.00874283069357854		0.07103356404312999	0.023035866408779006			0.03512739194891583	0.10141049355229959	-1.4167250326578578e-06	0.052291083434928574							-3.8043663535532943e-07						0.04508585034676338		0.026982793437242577	0.16042279909920323		-0.031830380048637044	0.02062700890322136						-3.459446144312624e-06			0.06951679442150527			0.026380500536733922						0.019828252541455406	0.20978688699465126	-0.003581213866756872		-1.8450349369943534e-06		-0.09134702037509773											-0.1697185430211326			-0.04440502540931364						0.033978607529280246					1.4071258272654192e-07	0.12424550977061352		-0.048259075140101235									-0.025179604772586805		3.7579380781837413e-06	-0.051232852544542774	-0.028524987670338627				0.10477532042295316	1.0251780512446282e-06	2.266653460499327e-07		-0.19805547848819052	-0.4442101408062741	-2.300131456185084e-06					-1.0870857559639117e-06					9.092407038655574e-08																																																																																													
2009	3					0.07274056936665466	0.150382891285958	-0.07126701040483929									-0.06868983301164462						-9.683968554819513e-06			-0.10281106127099808		-0.020849768619478435	2.5799808755456854e-06						0.029241951779308047			4.71636521145972e-05				0.04889551138085171		7.203344506851502e-05	-0.0039866193691820324			-0.011162612318820094			0.08180083236762833	0.05895142836318523		0.08086826604683169			-0.08767692536628241		0.16018198643491247	0.4456775381958044		-3.078267511234189e-05							0.0750207567765728		9.126563527050451e-05		1.7636364878534337e-05				-0.13129349636634746					-0.07443752556308557		6.126013071381792e-05		-0.09500279820311774			2.2265503596649036e-05				0.1723517061769082							3.731844139706758e-05							-0.059912169583322405						0.0854374838856064		-0.17245816789821977							-0.11406387688428948	-0.038297489943895285	-4.8674585387227644e-08	0.1714092395576053	-1.4642639515625809e-05		-0.14977775397061388						-0.28065688794926325										-0.0324640508963468	-2.734690761105549e-05			-2.368427762666188e-05			-0.26719507380752133		0.1461541773111455							2.218054215553023e-07	-9.347338440236733e-06	0.0027822408435159056	-0.00011951038196035511																																																																																									
2009	6		-1.3283345227716802e-05	-1.6227427457036693e-06			0.023703209478614342																-4.614282269465487e-06				0.020969301958695778	2.2186058799428756e-06	1.0336313750935233e-05		0.005437557696587843							0.0002548346267096456					-0.006480805907083145	-1.1444857532694411e-05	7.670861572490963e-06			0.016400878211209155	0.004306538151905938		-2.8335597844330207e-06	-3.933794175072534e-06		-1.1069819976681254e-05			4.833679146186507e-06		1.5404939492372428e-05															4.261088298676303e-06			6.945338799183657e-06					3.036602646058904e-06		-1.7893945761896474e-05	-2.0156736156833285e-05											3.3075337014850143e-06				4.893119789869171e-07	4.97471708911834e-06	6.225758425765329e-06			-1.298063805036747e-05		-3.1436114791667233e-06								5.764645227930059e-06		5.314841238248893e-06	1.390482640775597e-06				6.7261751747102905e-06													-1.7466088967296954e-06		-0.02729584396582819	-1.5282145585306438e-05	-0.019544199250636544					-7.688799783623082e-06					4.510673565333974e-06	-1.5029351221167097e-05	-0.022552371359302974			0.01988265553390477				-4.7830135116346125e-06	-0.024897797862110767	0.21970478770015986	-1.8872914054079705e-05			-0.22398181557166422	-8.336853059183562e-06	0.014178564365003353																																																																																						
2009	9	-0.03194182803083357		-1.8565970306798074e-05																						2.8382858291530505e-06									-2.8922666328099165e-05			-1.493694107643678e-05						-0.007393612619417129	4.4474432589083285e-06	-1.7621537623272845e-05					0.11740959024271491		-7.286674048669917e-06		-4.358306524809421e-05	1.2449304183945524e-05		-6.359562945421231e-05													-2.3845125650538656e-05						3.994908048229556e-06						-4.11792820751359e-05		-8.9049571088649e-05	6.14034651867273e-06	-1.184971260851122e-05			0.04197201767099343	-0.3339427240337311	-4.779233877239613e-05		-1.53833042216089e-05			-4.344185232183473e-06								-4.629997082391929e-05									-3.2645387681095515e-05	9.162525354711415e-07		0.05744373543715175					-2.75981338113768e-05	-0.0505894374837946	-0.22665213929602018		0.06164040514739872									0.045331973301214704		0.045046152981582446		0.013565201890992909						0.28797722874448		8.405242133690346e-06		8.801614839177264e-06	-4.852975449201423e-07	-5.4220882456569344e-05			-0.28421927613370573	-2.6687595869298196e-05				0.24552300875795988	-0.06631412154059806	0.21233146959389962		-4.130461592444032e-06			-0.45775686778934194	0.3313033592095004	-4.176808713723456e-05	-3.725151657492906e-05																																																																																			
2009	12							-0.005532381685135174		-0.055969507670637436						2.5530074422363625e-07		-1.9450610941328178e-07							0.0217469443692447	0.020274475224959503			-1.527378350199414e-07									5.5350271451390296e-08	4.7330891114296467e-07		-7.089082494148687e-08				0.010823178375717264	3.3730311915438813e-07								-4.0724800090320524e-08			0.023947245008145938																0.0036798982669772515				-5.23468214874463e-08			-0.0027316357849480064						0.028813635029411415			3.2077194840427634e-07							-1.0197442137729429e-07	0.00878821130599934	-0.11145620663895553		-2.6249197444834264e-08	-1.9904764690811372e-07	-5.897152001016507e-08					-0.0027774313458502806			-0.007502679792973667							0.0012876645922943217			-0.002236477763385407		0.001395546506435614		3.386647507327033e-07	2.3360518947908644e-07	3.539694688640194e-07								-7.087093019035466e-08	-3.718811974755516e-07			0.04530966610327706	0.03033346734378636					0.059964498677320614				-0.44017951315443576			2.571939944261733e-07									7.599604008734685e-07	3.8697029923853745e-08	-1.1729824757404388e-07	-0.10526020347276827	4.2339264067618797e-07		-2.0052819851767473e-07	4.5075848962467395e-08			0.47727840633325064	1.625934419248792e-08	9.849520589949117e-08																																																																																
2010	3						0.08328508811803265					9.011842933301285e-07											-4.048685134922995e-08		0.010444931245097705	5.64782235173953e-07											-0.018482821933067252		-1.3286028129824575e-06				-0.0009819030686760229	1.9478381903620562e-06	4.5417658359506214e-07						0.08203528762318738			2.1392675078538448e-06			9.434909423604027e-08	2.2562777672531547e-06	-3.894614945572768e-06														0.0023964016616055636			1.3297564351928548e-06	7.003585944277178e-07							2.510098196491221e-06	2.707351117950649e-06	6.686136369731962e-07				0.031229177239369788			3.230281670882016e-07				4.2027205275727114e-07			1.878997137213758e-06	0.005525649731162333				-3.165019720956807e-07		3.5083115300674717e-06			2.3740080070619977e-06				1.10139598044211e-06	3.056222596841626e-07		5.118266464297017e-07			3.4840498986605095e-06		-1.044206466768228e-06						-0.13239345081549617						7.357659138676395e-07	-6.571001027480694e-08		0.013183542207480926		0.0015393786267038686							-0.07782049660484974		-0.32903353248470124	1.422987824214736e-07	1.6143519115474237e-06	-0.0206543889665522			3.255244883100887e-06	1.0482041760279115e-06												0.12551852547670667		3.438987397252051e-06				1.3821221048152646e-06	0.22417519613055423																																																																														
2010	6					0.06176787409977127						6.320639451960027e-06														3.495356731969616e-06													-1.2583938823725515e-05			0.03764550394649947			-7.994208883332625e-08				0.01680170117057659			0.07405962689896664		0.02345337186161936			2.73668725504588e-06					-0.014891024328999579							0.02423938472611552		0.04692776376765555		1.6237231882133768e-05				-9.265680041420306e-07						0.021272550044744182			1.2133132374661353e-06							0.08038371587975436				4.0347649624388085e-07			-1.007359447640994e-05		-0.06696449365754936								2.0337317614627182e-07					-7.474852932765777e-07		4.920067395851862e-06			1.1578234799361026e-06		-8.847985305144124e-07	-0.010920872937844736					-0.13286712403003342		0.13880004495005385				-4.199432307570715e-07	0.010584256412249363		4.587852615436349e-06	0.01021464455973148						0.035676952677273006				-0.42293270068299293						1.5460274365001453e-06	2.107192816225386e-06		-0.16870350646989657			-0.4205949535710622	0.08104714012373516	0.04576411091882727	-0.043554467244327544	0.3321416784312974		-1.0649511922684552e-06	0.07581333448497216	0.011994206227820036			-0.016800086116420244		1.6525823087794938e-06	-0.005639126712297181	0.17527103285774356																																																																													
2010	9		-9.549520993111692e-05				0.20917283521888694					0.024067831615448305				8.793504022773611e-06									0.053351297085859346	0.0239958699934222													0.05616981985765965					4.5965437362914675e-05	0.013944423946206564									-4.592991231711522e-05			0.01889126559206997	3.983723158153581e-05				-1.3155575152132804e-05									-6.498502870974986e-05		0.18674497586304908			0.07751317576504535	5.65510533439462e-06						-7.117333562677082e-05	-7.190003376633982e-05		0.04387545940743854				0.049577963133387096	-0.1857730757671418		-9.922159009043442e-05				-4.878312552305696e-06			0.04899963288379563	0.06059500482990408				-8.979901644499238e-05					-0.005069264359781648					-1.1729005349224759e-07		0.12164456769425148			-0.013138497784097333		-1.1924778861169939e-05		-0.0975294470904918			-5.830665889480698e-05							1.3898533776333873e-06	-3.54764681792292e-05		0.06789271461006341	-1.769065298027419e-05	0.041224780596182516					-3.062631853873772e-05					0.014771075640378398		-7.564022689199125e-05			-0.2714661262691101	-7.163375183793285e-05					-0.3519801652425493						-0.0794824176000903	0.06126287666000269	-2.7394237333358443e-05	3.5140654954114576e-05						-0.16859628118284745																																																																													
2010	12						0.12182144778210982					0.001008576900254305													0.026660824671528832	0.011229929507003321											-0.05749536779626345	0.03412237741888593	0.011296489360975723					-0.007239255296872412	0.006576609899202954	0.0275988592612413								2.3900399583784534e-06			0.005119317344460684	7.537409355340325e-06	-1.8582565377972652e-05		-1.2951649411995905e-07								-2.055791959564529e-06				0.061295467958011524				-1.9605746962830956e-07			-0.004398589190258944		-0.02528811739716143		-9.862501158332356e-06		0.02756855144065497	0.047861629359555916			0.042997628252756284			-3.5156809461585444e-06				-4.682810090072377e-06			-4.469172437517943e-06										-6.131716741914705e-06				5.724970880925358e-06	-2.1348527032131695e-06		0.06236941643653374			-9.051452404386008e-06		-3.4483017864374997e-06					6.465014758235819e-07	-0.14137098877560736						-3.926934543968412e-09	3.001246972855568e-05		0.018580363147950127		0.032940869318504505									-0.04734317163934037		5.925060276701318e-06	3.890313552140443e-06			-0.14250611981787675						-0.28268919053618957							0.01564706626891316						-0.026946794146857418	-0.04582490141064128		-0.22965404087382155	0.027174086860961382	0.42888733884278374																																																																										
2011	3						0.07099695165931975					0.001939960489757907	-0.10377018983210974					-7.728813121540932e-06							0.021212710147907175	0.019228268634989786		-8.178304517637684e-06			0.01581782799856944						-0.032361330945080355	0.0022227444354558524	7.507692297262382e-06						0.01233494779747241	5.467021351033095e-06						0.0323187034339513	-9.552845457025096e-06									-0.032985636126177366											0.02804857957318158				-3.5356696303735945e-07			-0.045490185129069105		-0.04190303319742836				0.03527692651099686								-0.0015148586965679466			-0.0022892076142018523	-0.0669779992746297		1.452971907283582e-05	-2.6614127130154616e-06	-2.1066891524032297e-06			1.013916775452413e-05												0.03293478279878268						-8.660637125584811e-07		0.030576862467097524			-0.09729790308331378						5.913320098102712e-07	-8.011769713402782e-06		2.292157561925759e-06	1.1767557227042588e-06	-2.4105525886586014e-06	0.03691515029614019			0.06422083383434918					-0.0008016137378823558	-0.023709028825978015					-0.07609114122851267		0.04088954975071933		0.006274711705243438		-0.2980207770512855			0.06790271966344998				-1.5828169673734659e-06										1.9724665425906345e-06	0.18545931405881352	0.11863939888637827																																																																									
2011	6						0.10764934637346872							-1.9185934695755776e-07				-0.04089593171592486							8.191487517454268e-08		0.07345080917696267	-0.02918910171176282							0.036029988148445546				0.020089400148512633						6.804490683264e-08				-3.927838221908811e-08			0.04986205242508797	-7.925694461069931e-07	-3.7823072440663166e-07			1.9607338380190954e-07				-3.29904892058675e-07									0.021686401725484698	4.233505806894568e-07		0.076999648707242				-0.025494079111783474							-0.09840977121218673		1.4346979823952708e-07					-0.4975807084091402						-0.03681917231417207			0.03317785984021984	-0.006698781212430424	-0.024551965796724754			5.515776058498975e-07		0.006082853132157172		2.386327831204729e-06						3.760868272308119e-07				-3.217314541059983e-07			0.002175743464791623		-0.05444557387669427	0.07537765749371987												5.246058998908186e-07	-0.024289685308817137	7.411441373818921e-08	0.1044945136994054														-0.2660673932180712			-7.095891470325658e-07	-6.907374269084995e-07					0.09295124351980089			-0.04900518042257848	-3.7061383251296295e-08							-0.17251652324089897	-1.310116239401419e-06		5.4184737284229195e-08		0.4829956470319277	-4.6963952527315694e-07	0.1429434585780269																																																																							
2011	9				-0.20141106904052647							-0.02286487308803471				-0.11856265763918022									-1.595705610283176e-06			-0.08596915922969314																	-1.2174501170236814e-08				-1.611167303803286e-06	-0.1659785169436899		0.10109506699541489		-2.2607502605298598e-06			-0.0032567572408591914		9.516794600276114e-06		0.14746977322804128	-0.08354540754998525				-6.0241846466330185e-06			-5.060101643123016e-07					-0.007004957974183523			-0.06211253562060604								-4.864304344765685e-06	-2.9316083205359327e-07							2.6629984530128935e-06				-0.10230757800436688				-0.06691036276980598	-0.07647984814120909			-2.494024318774285e-06		0.08195581285079853				-4.441038135891771e-06			-3.6187446906269597e-06	-0.015398013474970471				2.785419209432908e-06			-0.00341826812475078			0.14859335376824132									-0.016948880102209785	0.036843555933953276			-0.08837959623552805	1.699485235725942e-06	0.25424849848804254	-1.6137088177342623e-05				-0.15688971460190845						-6.813122613395064e-07				-4.955124920252019e-06						-2.2234452312669383e-07					-0.23940096023192825	-3.3650482672736875e-07			0.2801560552826478								-3.3773621475333115e-06			0.434413308607701	3.937228533572227e-06	0.0321005652418891	6.873657996933342e-06																																																																				
2011	12						0.18327507363313544					6.909842241653472e-07						-0.05198746506233955							0.0280543302106248			-0.056625377773126324							0.037418183153724284		-0.1125614182519351		0.04184766119465054			-6.196345894118105e-06			0.012611904890701074	0.062167155474489366			-2.094006763791243e-06	2.309924985461789e-06				-9.627363211167993e-06			1.360952140913369e-06				0.07585902688198358	-4.925770514666328e-07									-4.7304377854545e-06		0.14890256522664222							-0.2785002780256716		-0.14383472177879658		-4.797261565826529e-06		0.037447866778985976				0.042253124064051885	-0.4417985722086937		-8.764635111723212e-07							0.19425667871025912										-5.49923673749511e-06					2.731249717995985e-06		0.1923937408607392			-4.906614790700012e-06		2.9179461796257053e-07	-3.068046494482559e-06				-0.04613637371195141							-9.485392796164978e-07	-3.991455039474553e-06			-0.010026021750548182	0.06456833830390515	0.21566637068391772				-4.416032164337821e-06				-0.09606035961503902							-5.967088761072055e-06		-1.0370117053535819e-05					-5.899050224636296e-06	0.015869166991221467	1.3969384791659878e-05		-0.1392148676025327	0.024213209739369728	-6.458902377773634e-06																	-6.486028666346641e-06																																																																			
2012	3			7.141688237390869e-07								0.012409417441607853				-2.605610597810447e-08			1.95013051051204e-07				-0.05071155743550872		0.012852748847663789	0.012081919665368665													0.03926958615722131					-0.03567061666441703	0.011720172268447526		-0.11582216953387221		0.0032487305788899004				0.03030681261089099	3.227705892221497e-07		2.5465041567125015e-07	-1.2757602300666976e-07	4.301804422919564e-07	-9.005442168420085e-07		8.893232720003218e-07	6.904051978045782e-08												0.04284023699128769			-6.992358421467101e-08		-2.1595966387360676e-07							0.026649691219261137	0.01770442478165001										-1.1085930977314082e-07					-1.2083452154765153e-07			4.860670238969214e-07						5.121986108242712e-07			4.434330498511232e-07	-5.6385757871629386e-08		0.11770291190750722					-7.363187863432713e-08	9.545328399452168e-08											-5.683100333977107e-08					0.02852189988300353		9.606599887214186e-09	1.3039954092973984e-07								4.083938959433797e-07	3.7178063622149307e-07									-0.3648142540651113			0.039734300392367146				0.024066875573185757		7.631523792683964e-07				-0.024264401414097015		-0.16223583469426925		0.20102153551483146	0.13338253438971676			6.197653937371244e-07	9.755854815073706e-07																																																																						
2012	6			-7.342256337540909e-08		0.03221842790726003										-2.716312107620154e-07							-0.027233845620793253			-4.844286007607425e-07	0.06292855993202179				-0.009032421532500225								-5.392250431307073e-07					-0.05298069879339208	0.001212392340332924		-0.13274114780239074						0.01320811298148738			1.4746371650607433e-06		2.8885251581286897e-06	3.937040390356202e-06		0.054424354059426604									0.01424550977809836			0.05624412169483226	0.013974242285893087			-7.711413620781221e-07		1.690782762070679e-07					-0.034637118804347784		0.005858121727461724	0.009996388994913306			0.028001858138104057	-0.11258342811597091					0.015040842555455122	-1.377363201879098e-07								2.410848961247699e-06						1.6420014974119832e-06			2.5284306082515936e-06	-9.885505621436618e-07							-1.5686398397837844e-07	-0.009819536384849122											0.008704906218223358			-0.017904666835287596	-0.05021453789405145	0.02164748191716831																					-0.229358232043625			0.022461376413344798				0.015201671339131057		-0.028828392083272637								0.13444428542989975		-4.5924143851244816e-07	-0.061743132144713254			0.5000009637090801	0.04908843366593182		-0.006273642319073859	-0.24913893493492126	-0.036425865243646424																																																																
2012	9				-0.03768574226936396			0.01628259651271803						0.024473005997346222		0.013098446270905678	0.03129698679944583	5.460271039937961e-07							3.9829436443742846e-07		0.0566440252210736				-0.006576205349363859				0.013356063087203966			1.741123755889135e-07	-7.352086740890006e-07		0.04474471921337979				4.19015580907284e-08	7.480440575833764e-08															0.03187770624787146									0.016487683889063773	-0.0295412657840919				0.08161248506895231		0.004388573390280587				2.399249417656694e-08			-0.03720464592675939						0.032448119797773345	-0.07402273891673508			0.008883103152642013		0.019237554482253942											0.05997616946568864																-0.008066983596906217			-0.0021667966944814558								0.02046965294420052			-0.012930531588945205	-0.005580418039243434	0.013761005493379021						-0.01715494783887131						0.06124947166238484									-0.03333126783900355						-0.058157093382792964	0.0072748287696087904			0.07349367575326815							-5.689116961854131e-07	-0.014915920010191722	-1.1904959095722143e-06	-0.04997515667576264			0.09607706017432031	-0.019984522821371933	5.220748112140624e-07		-0.31156402304595193	-0.026081203354578714	0.01780675897558216	5.610654348580571e-07																																																														
2012	12							0.0397408724428578				-0.0006270051667023125		0.05038822912642846			0.06554389926588369	1.3188785014313494e-06									0.07055364820009893				-0.057234039385960424						-0.044949597977540334	-0.008407346301017861	-5.939281057367175e-07			1.743342308153813e-06	-0.06212753194374397	-0.13145747403167804	-1.5351014902232963e-07	-0.0007696067397574411			2.2220788696888425e-06												0.05563063062356881	-0.009899306442815135								0.029535755429236588					0.14195967001674545		0.02645042413739114			-4.677891389906606e-07										0.04955741047100652	-0.11678101318607385				1.8969823122658368e-06	0.04205458317691261				-2.6648685167943448e-06	7.236390543527666e-06				-0.04178435069703341		0.10618100608238801										-1.1141195047144023e-06					-1.3932476582061193e-07	-0.0328506219284898			-0.05583115327664937								0.045732031256475826			-0.023625819138990724	3.7462094493201324e-06	0.011460028033969326												0.049696793176838824																0.011589935520892432			0.012671313881731395	-0.029787671885213113	-0.025739570649792112							-0.020254289775296128	0.028690827775126052					-0.11398439992089968		-0.282239555694512	-0.03336388242870488		-0.021463575582584913	0.27572546323715663																																																													
2013	3											0.0133292696165168				0.08300103619647535							-0.05200952293413373		0.01891646742083852	0.006346753805233397			0.06877067736208017										0.005464262566233957						0.009891057889387708									-9.407056092696988e-06		-0.031523311208413445	0.029677249292950146	-2.1199558811478555e-06	2.2394245001885278e-05		5.3444210789789715e-06	3.4860013672951416e-06											0.0675489220532486	0.0730234016737281			0.03913527237732873		6.36731101941097e-06							0.043470554638069765	0.05318933467585738						2.6500590596603893e-05		-4.580413578172067e-06		3.1045481849942007e-06			0.2484682973920442					-0.016537538708817297					-6.465216892698134e-06				6.093783446615446e-06	0.007292051665487876		0.02397883597378033					0.0014405295287005409	-0.0666169481780621	0.05942706968291293						-1.0426802692344398e-06				0.10421748228260137					0.034997495366643046			8.354358872864438e-06								1.2483893527638214e-05	6.2975398741141985e-06				-0.03269974315693604								0.10013678668760638	-0.2089658921876165			0.026299056888631937						-0.309588305786452				0.17128714889131066		1.2867919140042267e-05		-1.2162045637513284e-05	-1.290927448333597e-06					-0.49511222115042297	-0.07633258902874664																																																																
2013	6				2.523530465705338e-05	0.05031976784215061	0.0379796423534975			-1.6606500317829694e-05			-0.001324924086632095			-6.379205648079217e-06					-0.13281176641122883		-0.06132787550414848		0.013943023822680407	0.0107549603294057	0.13051708593464742	-1.2517738850547713e-05									-1.7731698918416316e-07		6.1652393984569e-05						0.00874842314663771			0.022635185979547858	0.017766778297956504	0.0001083395198025394		0.0319134510175796										0.033540352553846374											0.01449065796763743	0.05811090665578582			-3.2113340667809684e-06				-0.05196200187343954					0.0382093798866244								-0.00011804688534795943			4.611482769913633e-05					5.663350340519633e-05		-0.05691785540226669																		2.808106559610603e-05		0.0502953318471952	-9.566282553307326e-05			-6.802947259940627e-05									-0.05216059383409331			0.02682485492153107			0.05530137515647517			-0.18736663811884144					0.06365823065522298								0.0016520117254998034								2.8698346397743794e-05								0.07891776757019829									-8.31237421368355e-06	0.0104834899346284		-0.12513203499492628	-0.06300092868448877			0.002138371843521893	3.6162556641968057e-06	0.00019933076613926447	-1.9976074100202062e-05	-0.026398979225006326																																																									
2013	9					0.04749797176122347				-1.635336554853874e-06			-0.0012580889390857895	-4.813665837100758e-07							-3.1584771583221235e-06		-0.07094582119995962		0.017398173261963717	0.025224713325972224													0.014704795717451915				-0.03129658371222615		0.016926758469289805			0.07344756971382099	0.014504216535950005	3.0071583380180435e-06			0.05112550308058905	-0.014107799110619301			0.05427340771690557		-0.23507076057382661		6.211909991860574e-07	0.07208364526137265											0.050607803376429734	0.07307359252746122												0.039890114185339665								2.1084775529887095e-06								-3.1358017094471888e-06									-0.07609478467795752				0.07666646844667838									0.08238093216259561				9.670444876868147e-07											0.027987647688765774		-0.12910129603031245	-0.1241650889047663		-0.05566835137261817		-0.07421142952488488																													0.03499018913873692		-1.5726494489398678e-06	-0.058321411739347205						-2.202997129278537e-06	0.00867063479536561		-2.9637239778974184e-06	-3.693103783644599e-07	1.1201836135501868e-07	0.023079217337477444	-7.015043112305293e-06	-0.5000049641375681	-0.05258954694648616	0.11831512735159776		0.5000008444367559	-1.1303734979473571e-06	-3.45608259040006e-07																																																						
2013	12															0.027573808046875148							-0.07518019828551846			0.01875140081791833	0.07865338886661344		0.01676868735551949						0.03082855474585804				0.00601777314060678						0.018391139258512407										-9.100454702258714e-06		0.052201143077270085					0.03847745224340416								0.0388027487984942	-7.660371226534384e-06		0.014903990509537545	0.056829682273743465			0.009442668629330539				3.882093634118578e-06			-2.2432405096157826e-05		0.04270222618315397				0.02025143221168739	-5.658429180501287e-06					0.06053349028085576									-0.05226593935486456		0.03383345863117717								0.047850338940915574			-0.02309268692649407				-4.740157390559707e-06	-0.00011356563924086907											0.024416270018278112			-0.01681701302307161		0.01812582032216609					-0.023901211024385038											-2.7673317261642055e-05									-1.7800585299538222e-05			0.012567176268894148	-2.2716131322154774e-05	8.014159817410653e-06									-8.189167263898244e-06	-1.8980344978088045e-05						-8.524815649992209e-06		-3.094953083588904e-05		-1.1992286894218754e-05		-7.586761791177357e-05	-0.38775458525086787	-7.554862910856559e-05	0.14319038421473818	1.2467872368699686e-05				-4.2666580416985525e-05	-0.1325492017608579	-0.09906682659185391																																																			
2014	3			-0.09929390910150712									-0.01938391300603249	2.6685008759996285e-05				0.006610423909067471	-0.07445293697875295		-0.04131612826461391		-0.07233435986964287		0.002938333577108201	0.010306093984716937		9.611647697238013e-06																	0.008829102661381821		-0.1445898653023454		-2.5261683197010135e-05	-4.983834756466969e-05			0.03333872961024124				0.010107548891942106		-0.11185633231979601		3.8895611158834694e-05	0.03887333086881145												0.060861702061786975			0.046303664890953306		6.40067302808267e-06							0.02068314362283255														-2.8134626022633396e-05	-5.301203512935197e-05				-0.06472724781108248				-6.711427126283147e-05		-0.0007981915146743223				0.03548386829539624				4.332836313436586e-06					0.0486360324767772				-1.8183839250314272e-05											0.018555107087583487		-0.05728015283553911	-0.06885791720372195		-0.08529345963422358		-0.13871754346433282			0.09458073561970372																		0.01655713976441828								0.04520607194358012								-0.023004229565097435		0.004392078161879109		-1.1485235144620664e-05			5.585776082464996e-05				6.629526813227054e-05	6.871651275052631e-06	0.5000955502461846	1.1541263509319127e-07			3.5361021471449614e-05		-0.00048655650473359625																																																		
2014	6							8.914185233746845e-08						-1.4065741851972942e-06		0.03637017840849303	0.04476199454037741										0.06324499812708811												9.639187567671019e-08	-1.0802177080244092e-07						-1.518296149619639e-07			-2.2166022057094112e-07	6.055791474232443e-08											-2.1006272789356736e-06									0.02581835527705301	-1.1780223697103078e-06				-9.939169515941236e-07		3.117729575744019e-07					-2.958595348695396e-07		-6.800218320007195e-07						0.003044084670248128				0.0019024358371439538		0.011919042219971176									-0.010556655450676624		0.02266469437339209										1.1370670079868378e-06						-2.7102311652636885e-07											0.012470246479226423			8.764578045595814e-07		0.004568180935230201																												0.0005259743353415534		-0.035229240903602375				-4.654765056803431e-08		0.04893195596070437			-0.050730496543193816						0.09756805526897258	-2.2378870776517596e-07		-5.320434470912085e-07	-1.3248888248510734e-06	5.651900898924393e-07		-1.4786489840121347e-06	-0.4266414746454913	5.210778643855399e-07	-3.0234258492996347e-06	8.005731880205854e-07		-1.3273212260717646e-06	1.85563748132114e-06		-8.015500631091586e-08			-1.202658896355447e-06	-9.167347580371671e-07	-4.220056401042974e-07	-0.02810947214118609	0.17748759635138614																																													
2014	9						0.04676505117427821	0.01165662773059745				-1.3026000226169936e-07		5.786308643142946e-07											-2.255401423604367e-07	-2.9754153239503933e-07	0.09401575000138002	7.392371815255127e-07				0.03680855087426225							-9.764172002699488e-07						-4.904433665978241e-08				-4.909467799617663e-07			-4.634667211609402e-07					-7.418048035115224e-07				3.5158720706681783e-06	2.651435078808488e-07											0.0591523095322039		-2.6599064618975134e-07						-0.06722657158069299			-0.12627511769962751		-1.3559252052333475e-06				0.04175478355234464												-2.423489156890397e-07		-0.08343698983834495			0.04557905510198657			1.1068660599358742e-06					4.418897442185229e-08				3.408330901881193e-06			3.164059679914057e-07			0.011188832384976309												2.8237193328207224e-06																						0.015904885008634746	-0.0713989853599903											2.5685464178687333e-06							-0.11678778911815131	-1.1696256126793333e-06		2.0344653395430264e-06				0.056960774814324634			1.1553315666427802e-06		-0.0660765557614578		-0.49999768021832963	0.027209343766707132	0.0678695384640005	-0.027646418403693813	-3.221956470547901e-06	-0.01890423608496021	0.06288353060084839					-1.5287441061544721e-06				0.4999953719518576	4.51417191457287e-06																																												
2014	12															0.03828946479242652	0.12150261354063514						-2.0093849488187076e-07		0.017280333339650455	0.008120525769171823									0.027215112737265176										2.293512296295507e-05								0.057014595859994285				0.014400585174573658	3.485661424497951e-07				0.0034540805570095773								0.051101803508231014			0.03539332860453369	0.04188132350801458			-5.42464296345459e-07							-6.027224548649942e-08		0.014642330279743584				0.06580164517729906						0.0641410302092732					0.043554443800004394	0.010059226978186826			6.62677154730095e-07					1.2514754056742258e-07					-2.900200982794409e-07			-1.5886062998194157e-07				-3.0135227494195265e-07	5.358365577964889e-07											0.016938813906589634					0.004332659040804843					-5.613057865759204e-07					0.23922512518553443																		-4.952486009635843e-07	1.989589471540949e-07	-5.283055183892557e-07						0.05026836641286877			-0.022491429839054528	3.045732822620656e-07						1.495679886558766e-07					-1.013199150557139e-06	4.768991332052597e-07	-0.05839013379548859	3.2625061578624175e-06		-0.07807783480438261	9.233844876755049e-07		-0.15852336012598928					-1.65973217006225e-07	-0.15220017397617194	1.5325175753067041e-06				-0.45496164027184993	-2.8940008277429417e-07																																										
2015	3						0.058074154854785974						2.0774974789718458e-06	0.025428996007477972													0.14204636262089174	-1.4524286159270026e-06																	-1.5454299786154198e-06							0.0010349652943926774									-4.262347285222411e-06	-5.684453048262615e-06											0.054521781046065115		0.12723791400774193		-6.734663697655344e-06													0.06407979463451026												1.4159202963452027e-05		-0.01864404665012446			0.09104078614202994		0.04806200084812823	0.004510834368092064					-5.4697385165382495e-06				0.02830600115696504			-5.076311852051127e-06			0.0284401643839816												4.4053701531818426e-06		5.315083005989364e-07				0.11456238159375572																0.018048357580460396								8.404047662624764e-06			0.19438199957380367							-0.035618474937475844	-0.09784964528702478	5.323552950681867e-06			0.016685355963168537			0.03994579317043689		0.04560273426420766				2.2552773290809845e-06	-0.17516405061005272			-0.04450565814760817	7.341820362918327e-06	-1.0042938101196721e-05	1.4743104521736723e-06					8.516777213758007e-06	-0.09418145637155986	1.017290946339053e-07		0.22437264266444404		6.990303668216803e-06	-0.363949726907223	-0.5000146342064615	-0.11288849642868387	0.16988842029824486	-0.05345841139962739																																						
2015	6						0.032375625118805255			1.2388195270647089e-05			1.4733832557303426e-05								-0.14277608550267684													5.412317027628792e-07					0.005537464150868088									0.0406193389243182	0.010623596877610976	-1.0612910796346045e-06		0.010272567028276721										3.217865333821345e-06									0.025406721478505936						7.435646322304086e-06						-1.3184393118239747e-06						5.157339374932132e-06											-0.03012771689937487				-0.10505867470650761			0.12221514876688423			0.0012121492900547448					6.023270031089475e-06							7.637405640916524e-06	6.389158712130815e-07					4.471857362404222e-06						2.3061989435382728e-05					9.06029983302412e-06				0.05353127070727141			-0.16107199601384764											5.353998934443912e-06										4.8119727193227124e-06								0.040736690341307134		-0.06886149264359878								1.2094604977642333e-06		2.0533335569887678e-05		-7.066004522111207e-06	1.6744788876005184e-05	-5.602227563035658e-07		4.077951967435936e-06	0.128524526536564	6.918389764753135e-06			5.497822375827314e-06					1.514615468599535e-05	-0.20788051757410192	-3.386353982435159e-06	-0.16758398798467	0.052094127478126064	7.971012802015043e-06				-0.16292678911726924			0.5000124636034556	-3.9186673717096855e-06	0.02294190148898232																																			
2015	9							-8.483741921826545e-06		-5.233302283573238e-06			-5.72603670574559e-06	1.4668643506325292e-06					-0.10358628275410976		-0.14855972606381773				0.019719628501213112	0.043612638505924145		0.012731067127218753											-8.20674272093152e-06						0.014988457198235775				0.029939730246539942	-1.372698810029285e-05				1.2632207066021266e-05					-0.07828577651875257		-4.003008324848624e-06	0.10314273478016618					-2.296817384141164e-06							0.11363291141332187	8.741299029528181e-06							-4.057347178551195e-06								-2.825655181892005e-06												0.015338047649629231									-0.009659719944967895				0.09125395886273058													-1.4214574440443248e-05									8.534771850516066e-06				3.6589750518442016e-05					-0.15450931603871187																													0.0792169895862634		-0.0737711436859969						3.2214486686028406e-05		0.026183311121793253		0.06881849984620624	0.05945429134470581	-2.6553108895955344e-05					0.4826684637614241	-1.952053079754973e-05		5.578085510111266e-06							-0.4327348144787577	-1.4512158707366545e-05				0.346652989558498			1.1125776760934612e-05		-0.5000756515422434	-0.0001566432193021207	-1.4802102214016354e-06	-0.1047957482997605	-0.40110579976712357	0.5000723209388427	-8.027086760146554e-05																																
2015	12										0.06896035849743509		-0.07407548432108611			0.0757766039846868										0.02537028083958763	0.22183865329265082		0.036036393824837816						0.0632734387754186				0.01078500956561768						0.007711040569604192									7.111249835051938e-07			0.04991251232521725					0.03557428786635534											0.06500381758565134	0.055164986339848274			-2.443998384934724e-07			9.046821471069977e-07				-1.6673640141383648e-06						0.12068672245760036					-1.2224225265520615e-06									-0.14685722465268816											0.010170516928177508	-0.07726069797541867	0.04818793271696337	1.064988534539737e-06		2.768920665484423e-07														0.048687512891375566										-4.5974151150163106e-07		-0.07525980581557996																					0.00302198902777035	-1.3903180276560265e-06							0.06359914449632642		-0.16125279472877857		6.470844547035658e-07								-2.6134240901961675e-06			-0.04200070679187065	-0.07093476981832703		2.476464986540872e-06											-0.18081830003829003	-1.7230463025896894e-06	-0.09436254570043578	4.65128689117321e-07	3.5587194026768054e-06			9.703592565915274e-08	-1.4226702089346026e-07			-5.108522868061412e-06	-1.4558041078426176e-07		-0.08693423486963923	-4.7613623598124625e-07	-9.834974633634562e-08	-1.588165408006183e-07																															
2016	3															0.07424365359826803		0.07700763212480359							0.014058388757765968	0.026034740171991998	0.20616912731565182								0.06258269757807737	-0.14741155294217623			0.013728272317933304						0.0005555995357660535				0.02210485247335674					-1.463376145614272e-07			0.018992672906101044					0.03472436884638312								0.06813233226244537			0.07032469382195994	0.05373620799050513			0.0018566422926352521							-0.0051361868350998435						0.12818931203040812														-0.09226761866699106			0.2889737349815232								-2.9339143534672905e-07	-0.15341842653961207		-1.5126200292161182e-06		8.090339720376475e-07				0.13861286248507346		-0.03549335798911502								0.06028217171757737												-0.022247932008181065																		-1.2255878533373271e-06			-3.2043500167878085e-06								0.06031719864441785		-0.059052311939082634		-1.1794416128441148e-06						0.07626420350538678					-0.011644811061056727	-0.035092870776184136					4.718681419454198e-08				-2.2598392093153052e-06				2.833695003983024e-06		-2.330145027855779e-06	3.6423647999348783e-06		1.1686783354577001e-07		-0.19832497202438068					-3.014031315172235e-07	-0.4787298082483109	-0.2580700450600292		-1.2703085119351307e-06	-2.3900023762641175e-07	2.293412313267804e-06																														
2016	6																									0.026908175438605363	0.0816800058423397	-1.295502977996186e-06								-0.09776898506097902			0.022955660799178608										3.542222883685338e-06			0.05238184606381567									-2.1365163875102358e-06	0.04218279763439038											0.03139760061120356		0.036534694052266455					-0.08884360096263005				-0.03228960036268135						0.03169636425965557												-0.0035504324026830584		-0.11267276451789378			0.09604103748348933			0.04255975673732619						-0.1245383907769185		-0.03654708322832988	0.1472946595367591	-0.04691359500588745					0.07277023651969004	-0.055098434601912286								0.019469198278010944			-0.012587233820617544							1.0890473832776592e-06					0.06315198820344789											-0.1014290147187474									-0.14294278910766273						0.032737616665621055															-0.08891587406027128			-3.2886264628394696e-06		-0.08616428031492153		3.382222398921908e-06			-2.154855265359615e-06				-0.01334946542546953	-0.03940468621707916		0.18994645621428158	0.424452751369262	0.11990537793731236			-0.07904114152540635		-1.2186889246342703e-06			-0.0594875973411331	-8.027271690147289e-07	-0.037668211990508224	-0.20221821091384568	-0.0726305297830395		4.4201973694964816e-07	-2.030711025581913e-06																												
2016	9																	0.0700615554593045										-3.5527682917513357e-07	-3.4387233656782567e-06			-1.6969602114695094e-07					0.05987972367682056		-2.3390524190718648e-07			0.026495226158169505			4.6124422210852215e-06	5.97669767331794e-07			0.03465540473600777																						0.13469765009156762		3.4140085418736376e-06																	0.15571433328196105					0.1074157487943329						0.05648815555185914			-0.19233952323110937													-2.0163003110091984e-05					3.821551055997251e-06															-0.017255508978471848							0.025133017320558632	-8.898467474255324e-06				0.2216750378091138																		0.0024832940051648595										6.010725037607174e-06		-1.107531746579175e-05						0.04018726601636443		0.11731690365137405			-0.009221468822661906	-0.22573948985744488		-1.0210549881407593e-05	0.31352368914278594	-0.012314530012556496					-0.21438057180149322		-4.290454377854662e-05		1.3120632201858946e-05	-0.20553520032957565		0.371748523750094	0.05128875309645147	-4.679852544174128e-05			-0.1763543529206325		-0.17976854696656114				1.1201357111741979e-05	-4.2105519622392326e-05	1.0595032698341167e-05	-1.4395991019705672e-05	-0.0557064095502844	-9.592967539855869e-06	-0.500025553485044	-1.617323383600178e-05	9.715017613562331e-07																										
2016	12											1.7387409055012076e-06		0.03020454151513519											8.156797872955236e-08	1.5885008387655878e-06		-8.233218357874742e-07											2.8382408411957396e-06						7.00298609270689e-07							0.06975418905476616					-1.363641517192655e-06				0.018394379848220278	2.4730503535868497e-06												-1.5097449263396314e-08																0.07287906080304352					0.07346253430504808							-2.880010452656672e-06					0.16789933703512125			0.037847707599848054					2.6491825734075086e-06	-0.15720718482945703	1.5387015091201968e-06					1.2468923206356063e-06																	2.5342332776494524e-07																																2.4244805996814023e-06	1.458273909108958e-06					3.8088577512319293e-06		-8.370321941420529e-07					0.3126662896244658	0.019851871953089243		0.07684795693100048			-3.912302424056222e-06			-0.029263588779581212	0.21246259836525436		6.01641701560994e-06								4.997348846150255e-06	-0.06533754643984109	-8.995881452474014e-07		0.15815872981106555	-2.6846008434651438e-06		-2.033478290943907e-06	-0.16409003801016728		-0.13444552355516154			-0.02549632669275641	-4.9581809539779335e-06	-0.38420270897406955	-9.356311941426127e-06	-3.795676697124371e-06	-1.1064523552498517e-05	-3.002415716707814e-06		5.684557250169852e-07	-0.29037716827480786																										
2017	3												-0.04473162505449597													0.061207234686400595	0.2387308073158729	-1.4426416553303838e-07	0.011787759473385142			0.03140637699536455							1.4544955178503118e-07										-2.165644144375004e-07			0.11988834468633128										0.07225180013552915									-4.8732679375419115e-08		0.05333211648314798	0.10702029763999295				-4.4763066670323245e-07		7.129007148742629e-08																						-0.02165959009698273		-0.09219137337283508			0.32951007006312627		0.3947063656655592	0.10698733729632055						-0.21623784618830286	2.468721274441622e-07	-0.08860633737216232	0.4112465966230616	-0.1056708081517674				0.10209609038737988		-0.02782207792868358																			2.0579947299886018e-07														0.06138231280412582	-0.1368875791982396							-3.2380494532181526e-07												-0.02179598340258128										0.08623171230448537	0.09468791678566826			5.033142025231018e-07		-0.1415310259275012		0.12355133544273458							1.990675483073716e-07	-0.11357867494285193						-0.23790800378868077			-0.42334211358707025	-1.7928227037788677e-08			5.854793359905827e-07	-0.32993367341716623	-0.2405942793456092	-0.07281520105519676	-0.050362005670908636	-1.3678677966532602e-07		1.3715654643873902e-07		-0.04035608538244218																									
2017	6											-0.010741108885286225		0.01878825366269059													0.1033354078311058	-0.001893988536352509																	-9.84610317609527e-06				5.1285750416024284e-05			0.03758404352963652		4.950441412074153e-06			3.522990789096458e-05				0.004966750513952361	4.287126756804363e-05							0.00781985374883949								5.396433064903333e-05													0.058789841892220515												-0.012127040211511531		-0.0773390812761962	-2.4103426131980633e-05		0.1375467631504578			0.023281843830009447					4.490843925111225e-05	-0.13799025002849796			0.029227904857781206	-0.10575983681624078		6.249607540002298e-05	0.006133249558593181																-0.00736355296440169	-0.0372626964964371				0.047250526178808774																							3.3487079509867765e-05								3.2653556275724784e-05										0.012235860898160254		0.04992183794373752			0.001652519216848792				0.15159339566255461			0.03159737472164233							-0.02759462335479456	-0.07844496333951674	-1.852057770808999e-05		0.14348714274219918				-8.734972781663043e-05		-0.1284545401017189						-0.00014826034208718518	-0.04519165952040249	-3.85129434395404e-05	-0.048159647103426115		-0.00010873905386332224	-0.22132553539885524	-1.840394686194789e-05	0.07455514131668438	3.811722427248313e-05																							
2017	9											-0.02823996422635539		4.5260499697500955e-07				0.01577984531236715										-0.0033194527262364023								-0.05480991563770056			1.2462512151039765e-06			0.009073278947454506			-8.120967667294438e-07	-0.010032012003796942		1.575037078750922e-06						-7.539028110246637e-06			-0.0069439222489905165				0.011112605980959197	-0.00231199213935401								0.004952593943171473							2.2132348719157442e-07													0.022950993618623756									-0.085046826566071			-0.019295206960790286					0.09134780819803548			0.04508505110942402					-0.02523199146686658		-7.494509154745369e-07																							-0.037496015705732945				0.05901086338568454																							1.8438467572466477e-06					-0.04400277887809477					-3.587142934621875e-06	-0.09379297923857743	-1.1358390873024127e-07											0.04493778396115375				0.17716217023419512			1.3525273051774771e-06			-8.299235630865866e-06				-0.03320667674913786	-0.0744855378832505	-1.5999861687736915e-05		0.4764238984888112						-0.21947523155795617						-2.129810303419775e-06	-3.726285211669478e-06	1.8266679384511395e-06	-0.09991762466774425		0.053590698937439986	-0.062358612386242254		-5.030758902790877e-06	-8.086765001995311e-06	1.956666607503747e-06	2.2961010449144253e-06	-0.11141379347997804																				
2017	12																	0.004902581490292869								-2.7697317856676482e-06	0.02039192811860254									-0.09385387256050791									4.1796035672912124e-07					-1.1105107863743929e-05												-4.693622558635701e-07								0.002863076302442839				-9.28218763500892e-06			-7.590449186978711e-06							-0.0132266892016112						0.02498744875996208						-6.4723333920966455e-06								-0.10827782343011574	-4.113801846506819e-06		0.09671806964365974								-3.6225242066337416e-06			-0.05899226354233074		-0.03636428168010686		-1.002924587086279e-05								-0.09349251433307049				-7.4186111370667865e-06						-0.0616832189897443																											-8.969628789622616e-06		-0.09239984971537417								-8.55638268101207e-06	-0.10174691533727684							7.060141263083629e-07		-1.6710573933758227e-06	0.15374167739868497	-7.549106871805642e-06				0.022299547076857114		-3.80843232817409e-07	-3.5843131090682765e-06									-0.1352448258031291				-0.08521242591566866											-3.248087014352597e-06		4.08165476302004e-06	-3.6779291319846714e-06	-0.2090746247758298	5.084346650158903e-06	-0.042788075034305775		0.42971701170268717		2.133974103439094e-06	0.39236065069772036	-0.010598693893019036	-0.004959649549076005	9.100382058400167e-07	1.8883143844338156e-06	3.7435745895119243e-06																
2018	3											-0.0608398716447454														2.6031353610495643e-07								-0.10782756023751439					-0.05249281459251103						-0.005163957298567531							0.05838568304464152					-0.02207752119448494				0.03422523524192967	-0.006660973849246814															-1.1697546087128493e-07																									-0.019515545458821473		-0.18267910354230785	-1.1972298907670427e-08					0.06941466001417537					-0.009028733877118472							-1.9161268650856277e-07	-8.735378369082616e-08											-2.0829536270656682e-07										0.04871027942087521																							-1.0615416821084123e-06						-4.686764706752e-08		-0.011783482165562324				-7.098047025889102e-08						1.299804305417387e-07		9.891353879568564e-07	0.2615995873552472	-2.085448835069765e-07	0.11411229171457965				0.07846316766532933	-3.025287308950228e-07	-3.627014535500984e-07				0.10350373302169656				-0.08339515992666409	-0.06140635574025748			1.1013386522959363e-06						-0.023613311146491234				-0.18859288843374847		0.14524745636501152	1.9777685750104058e-07	-5.3638463433267106e-08	-5.88100078214502e-07	-0.39873687884886844	0.11378864341440453	1.1364457791507598e-06				-0.025405946460809035	0.23176813615745193	-4.5959392421366136e-08		-4.208018224830578e-07		-1.9023783819086594e-07	1.9899121729412415e-06															
2018	6										-0.04540967564293043		-0.01596562685664425		-5.893553976843024e-06			0.00579224521367763			-8.845220298293229e-07				0.007781048286162744	0.009202627689384775		-1.6674249387141333e-05	2.218553693120558e-05																2.0655568037188246e-06				-2.1936085051783956e-06	-4.588411961518511e-06							-7.085961229802276e-05														-1.537004930091695e-05																														-7.078694686482667e-06																											-1.6026512877316417e-05																0.05748319923828258	0.0157047874337056	-1.6404123378502267e-05																		-2.398450598899119e-05			-4.191858552410277e-05						0.07632042053320737		-1.1929385035702114e-05		-1.873607971187668e-05								0.016612988621990402		0.0009450864496375914	0.11387404237442865	-0.01142042209322004				-1.270611459101486e-05	0.17166260706948674						-1.312168244428264e-05						-3.139928693060004e-05								1.8546820251675465e-05				-0.05427643464564035		-4.963050094017746e-05	-0.03748987079591234		-3.998251155503537e-07	-0.24206743895575594	4.5575393136992975e-06			6.601048543977804e-06	-0.4655992657826947	0.077916472561264	0.06347191814995268	-3.8298566993113205e-05		0.05331118694520126	0.4999251563666296	0.14362095772559494	-0.5000833278404058	-1.2308159920496597e-05	0.059075773747787705													
2018	9		-7.934995645480915e-07	-3.722135699296911e-07														0.008762761713344676							0.02103414747631388	0.010084838771860142													-0.015361053066824967						-5.297558656448023e-09	-9.926008117442016e-07											-7.257875819929118e-07					-1.0268335707096822e-06								0.0182412343545668				0.015114414606625262			-1.0769484298795258e-06							-1.3312993603985003e-06												0.06312973649445197									-1.311358857516073e-06										-7.995088123303938e-07		-4.778848350356405e-07	-0.057159235405824835				-1.351854090007947e-06				-0.05495822759960868				-0.025561853153150564				-1.4654155583638065e-06					0.0164363481835843																												-3.5756092181534903e-07		-2.386209154350297e-07						-1.1685999397965839e-06			-0.10590792834649988							4.5707160778987485e-07			0.2588674999504877							-8.821143074380165e-07							3.3945428875041685e-06		-6.063979890426498e-08	2.4250272403845057e-07				-1.218608153628573e-06		-2.6822945844586484e-06									0.041303490770982595	-2.3394709456630385e-06	1.242104943347287e-06			0.0773744362207326	4.873612050310576e-07				-1.1543819311207476e-06	0.22538846891175904	-0.1925677163071561	2.7663367682728146e-06	0.058566118924972696	0.13722549092212008		-0.4999998700847249		-2.0471102911919233e-06	5.300109390684282e-07												
2018	12												-0.007814173311778388													4.0787320657443094e-08								-0.22355323324906548											-0.02164043611825361					-0.008529571968864457		0.06516982980437291			0.06017252303706396		-0.040986723205031					-0.06155885323736614												7.569455959092175e-08			4.892487619555637e-09																0.03067404435258814											-0.06476394543784413	4.33108803704209e-08		0.1273427290300411			0.07467595340499314					-0.05038497549729672		9.591229214795564e-08					9.27581508120758e-09												2.2816488664841604e-08										0.08136814595600615																							-1.0947761366728001e-08						1.0228166061499547e-07		-0.027531559602149234				1.1202240107648395e-08						4.4022948748336145e-08		0.001233933239481547	0.2577966329190525	-0.09100748861459705					0.08107285467663108	5.5705559713369214e-08									-1.3076636515193946e-08	9.48302705376057e-08									-0.11055932635942793							-1.2204113032075615e-07	-3.256135586445058e-08	4.109329290125564e-08	-0.39719639872163376	0.08083341293236407	-1.4718649075491744e-07		2.1020821883136598e-07		1.2630124302019895e-07	1.7129083712336824e-07	-2.2930469886257348e-07			0.378448592178702	2.8893153742406305e-08			-1.121995864323928e-07	-4.834855959364987e-08	-2.7230061464351616e-07	-0.13326175343653476										
2019	3																	9.874761403738933e-06								0.0012040888887799846	0.038866611581649925	-4.181994517911598e-06	-3.662437692554537e-06			0.001890611526022467							-6.299207879244421e-06						7.706764988077175e-07				-9.093413369463346e-06			0.06846282563344717										-4.549905078614948e-07											-3.1520386496704316e-06	0.003960496166299717				0.012220599583681267																													0.11126063501630232										0.011399686516943978	-0.029418630795559803	0.019012582082518076	-8.370088263979682e-06				-1.0521411542105798e-05		-0.057896558674302843														-4.426744487366782e-06				2.1849808723912406e-06																-2.7639806078655844e-06																		-0.04453299498420367	-1.4456506427688828e-06								-4.0662418118297775e-06		-4.825550907450271e-06				2.048304551548494e-05									2.922862655930059e-05		-5.985213761729585e-06	-1.0603553610430839e-05				-2.5512495960495836e-05					-2.5392662765429144e-05				-0.06969354797353917		1.6047901204383892e-05	1.4110486081609224e-05	-3.554609723628507e-05				-0.004728789293725909		-1.5933069086578978e-05			0.0746300461070203	1.3014599423018125e-05		-5.553461413707732e-06				-0.09762198196219278	-4.3894552437261e-05	-1.010898576675865e-06	4.612671387162346e-05	-0.15104845940075678	-6.135059315718823e-06	0.11215452481976286								
2019	6													0.0227650488386128	-5.005127731622707e-07													5.791048840781661e-09															-0.03802765507009343		-0.0026408694083433866				3.8095514488444534e-07			0.060591507973790336		0.02507689311560488			-1.440995721692636e-06				0.010871877715550836	-0.007625644961686583									-1.7578855588562388e-06				0.05750532847063469			0.030102942384770005																					-0.054829934917622454						0.03606361586969378		0.0866350927547994			0.04171497476483704					-0.027849311515604578			-0.012528747153364864	0.05052873304946114																					-1.1625803075134071e-07																					0.015248006101741223														-0.007280969080166059		8.633765953650314e-07										-4.581011927114735e-06						0.024012923743491066	0.053742557229649816	0.03499707782277507	-4.6618884068137024e-07				-1.8079902430159934e-06		5.08584136991257e-06		-7.950219818938978e-07	-4.216429192936806e-06				-1.7769582260704996e-06		-1.8576234274869058e-07					-0.17232408154753712				0.01896734241902896		-5.425092942894492e-06	-0.01020026779279531			-0.05982847085325926		0.00016475517460154816	-0.1717963543784435			-2.284487221368783e-06			-2.492522772537398e-07					0.00932080638817794		-0.0036978914237249688		0.2536709502809703	-0.09646623957978206	-0.1668677158011896						
2019	9												-0.049079356561379135												0.03316842916114214	-3.3348789137590043e-06													-2.692687857437766e-06						-1.8204732134434208e-06			0.037175799671874524	0.011128936816698694					-2.3626046311425845e-06							-2.719711997557561e-07	-2.926827222425534e-06															-0.05598780895906998																																								0.037729806295080215											-0.022979397752406455																		-6.0569894468874074e-06													1.7495717969408963e-05	5.935491349340828e-06							-0.00707797110363795										-3.4623361850356636e-06	-0.13553367592380872	-3.103403562953139e-06						0.08626935957367915		0.03778395513732041						-6.722619111229699e-06		0.13748450356135367		0.07707144667508675			-3.2233697330356424e-06				-9.216314258415161e-06		-5.182218325004516e-06			-1.0676693679029158e-05		6.285567271105815e-06				-8.653070763706008e-06	-0.23249276500726726		-0.2615560921248291		5.097276320786447e-07	-0.06109103101055111				0.13049778273273394	-0.06232317344930613			-0.49998573958198		0.17216847008344752	0.10663664595564393		7.289927247285208e-07	0.11368125727781223	0.3408610348749298	-0.2731492668834323	-8.624241921086854e-06		-3.0232048458085093e-06		-3.9494987168026154e-05		0.3397281353927985	-3.5288664011366316e-05		8.90537858851391e-06					
2019	12										-0.013100452249974056							0.05959470920941562							0.03910502221044046	0.026442966331055414		0.017798010474848067																	-2.436416796044114e-07				0.04956064504337225					-1.6162869772170452e-06			0.01603690061358515																	0.0372387469668865			-1.3849125256092637e-06																			0.09493904702224137					0.06616217741888797														-1.4470499247192423e-06			-0.001032096543769871								-3.180321557289901e-07								-1.5681322201572911e-06					0.04870880993594991																												-1.0853866328817279e-06										-2.7800517229046044e-06	-1.2935198532276203e-06	2.2777362461386913e-07									0.18445421347780633												-1.4652389271979186e-06		-2.669667096976421e-06		0.039145907228481595	1.8659937561379358e-07	-4.6419812365295235e-07			-0.0014437388082365657		-1.6965917894210882e-06					-0.17010353436164416		-0.04666118806054228				5.986695708577128e-07			0.13781348427638437	-0.2328974748014018		-1.525354602976717e-06	-0.41727661541705546		0.18870616030437254	-2.806354287436969e-07			-1.8068922314123298e-06		-1.258126361037617e-06	-0.0389908034546388	1.7179714331388803e-06	1.9146901616605103e-07	-0.0783068662429119			0.1429464000460491	-1.159021317592916e-06	-0.2287567276620653	-8.490826785309843e-07	0.07993682974214651				
2020	3		6.916939511096725e-08																							-1.9734633905552895e-08																			-1.3395271465238963e-08							0.0343115726247507			0.06517478373626563		-3.915368154164581e-08	0.009729400763878552				-3.291758636768231e-08								2.1196638423577665e-09				-1.073583604915687e-08			-1.4098413401558436e-08																1.0780756802788523e-07												0.013475780818519877					0.012471657741102255					-2.9250178701803363e-08		0.014649888620629322					9.485600842512263e-09												-2.419729385191368e-08										0.01685439317255312																							1.6874415433988796e-10		9.237582294182362e-08						-5.2886673598294424e-08		0.010794549726166967	-8.337041371034025e-09				0.07647988156038443		1.0275914133161116e-07	0.017686647344980638										0.0045065936330135085									2.9043788570115348e-08	7.459806002022593e-08						1.4221241267075837e-07					-4.846507348238157e-08					-0.00229606404621111	-1.723598555357019e-09						0.04534343550899619				4.475294120718702e-08	-2.0150564077509348e-07	-1.804644117273365e-08	-9.497538497567388e-09	0.0025364403139885904	5.7492657932134874e-08		3.0683080345586044e-08	4.611340198236957e-09		-2.0769793498657653e-08		-7.020827238097727e-08		-0.0793753290704495	-4.9560964201062e-10	0.039945633566043554	0.029383162814758043	-0.3116724556695962		
2020	6										-0.044268067045050506															0.02246560965850559																			0.00993153809526557		-1.4784973250338146e-05									-2.0535365127570837e-05													-1.0171701039100102e-05				0.014257600732223924	0.04232501280102469			0.004339914611817788							-1.4620119451475032e-05									-1.70231618528383e-05																	-1.0739575947436365e-05					0.01142678045883004			-0.009313789484735643				5.089419899200935e-06								-9.783683145666483e-06				0.03015993132663846						-3.6298997658388295e-06				-1.0566636533481974e-05						-1.2510834714948232e-05									-1.095610496540482e-05								0.007481093784773405		-1.186708679944222e-05								0.003823964762363063	-2.7242786412819797e-05							-5.616825793101921e-06	1.5851566029289065e-06	2.5677283047648154e-06						0.024472684929457807												-2.0274263092080521e-07				-5.373967870506354e-06					-0.01407896975156164	3.067237777803134e-07	-0.018695590237546383						-8.420510803331196e-06			0.13797959926971315	-0.05695044475116762		-1.769513940459648e-05	-0.11424893375936593					0.02441748292321259	0.03476539080945309		-1.814721859859578e-05	-5.572401117473747e-06		0.008071276244801799				0.1092026020123511	-9.34639601595428e-06		-2.045485647233323e-05	0.03696887154710311		-0.39105677496653185	0.1268176417384875	
2020	9			0.005143169382687692											0.005998692796098494										3.5200121065401744e-05	0.03091620909626034		-0.006360756830278177	0.03664300828204018																				7.841636519329801e-05			0.12611100231068315																			-0.0719315794271471		0.034364200305418584				-0.030621214737672025	0.17594999196290248	0.09860979544577222																										0.07054225267660731													-0.03580284521390321							0.04106050384718812					-5.1206723281027956e-05										-0.02450784996657373				1.1323248329806965e-05																	0.0029520783540379876						-0.029592679752820303					4.026462805080551e-05							-0.18549485745922015								3.730586750289038e-06						-0.08320186554021011		0.14010536980903382							0.018050378202242166		1.7020139743778472e-05	2.7977440531140683e-05				1.7110793342868755e-05							-0.055167738698859554				-0.12010053727301424		-0.03303130533444095			0.19968967460152032	-0.07400766348123693		0.21328120643706502	-0.26409389303378566			-0.15369975724830418	0.08420521770846454				0.06623632445703342		3.853000571031041e-06	-0.04051199591046534	0.03999625118323871			0.19450558588930686	0.15062628050382487		6.057385548122723e-05		-0.12047639829140748	-0.13869160176522113	-0.08426887047572154	-0.18365500110073232
