year	month	ABC	CCU	DAR	DECK	EPC	JBSS	KO	LEXR	LTRE	MED	MGPI	MIDD	MTEX	MVL	PPC	REV	SUP	SWY	TEN	USNA	ANDE	CHE	F	JAH	NATR	NLS	SBUX	SEB	SPTN	STKL	TAP	TIVO	TOM	VC	CL	MNST	MTH	PTRY	TPX	TRW	TSCO	BID	CRI	ELY	EXPE	FDP	KCP	NAFC	RDEN	SNMX	DPZ	JNJ	OATS	RAI	SXT	WBD	HLF	JAKK	MCK	SKX	VGR	CAA	MOD	NTRI	PBH	CTB	LEA	THS	GT	ICON	TUP	ARDNA	CQB	IMKTA	SEED	ADY	CROX	GRMN	JSDA	WWW	AMZN	BG	BZH	COKE	PAS	RCII	SAM	CENTA	TBL	TR	BARE	FACE	HBI	SUSS	WINN	HOG	IBA	WRC	BGS	ALCO	G	KTII	OME	WBC	ETP	ADM	DAN	HOGS	PNRA	SMG	BC	ATVI	AXL	STMP	DL	FLO	SENEA	CHBT	BRFS	CZZ	GM	PRGO	SVM	CSKI	DOLE	FOSL	LO	DPS	JNY	FARM	MDC	CLX	PRMW	SPB	TTWO	IPAR	SODA	TSLA	WFM	INGR	URI	BTH	CHEF	EA	ZNGA	RNDY	HSH	CG	PEP	RGS	SYY	LFVN	NGVC	WWAV	BDBD	LKQ	PF	CSG	COTY	ENZY	POST	SFM	VFC	ESI	CPG	FGL	MJN	ABEV	GPRO	SC	WES	KATE	NHTC	DPLO	PFGC	FRPT	SFS	VSTO	BETR	BLD	ENR	KHC	NOMD	UAA	RRR	TPB	USFD	ELF	ADNT	TWNK	NBEV	WOW	CELH	ROKU	APTV	DLPH	CRON	HFFG	VNE	WMK	CPRI	EL	PM
2005	3	1.1763894151194457e-07	-0.0053017468411497804	0.09546016577627889	0.12042188643668202	-0.12103310115596083	0.014858882082073805	-0.2716981135679752	7.249518728893518e-07	-0.06764372559602731	-0.0775420769998616	-3.3500066516970833e-06	0.04586043571617	-3.868376440201725e-07	0.06416700731720773	0.29801789191899547	-0.04456439037861347	-0.05100187558127151	-4.0894817640426844e-06	4.573134526695152e-06	-4.3981639014966486e-07																																																																																																																																																																																							
2005	6			0.042229041325059544	0.08122535908825537	-0.049137926249669485			-4.3975452259221186e-08		-0.04776098614020363			1.161859995851546e-07								0.20369486130169448	0.022105714755648466	-0.06027432267194687	0.24231098733585488	5.116958877835179e-07	-5.830105890596235e-07	0.027468186305675026	0.08015986385690547	0.025153999993269956	5.997941142300126e-07	-0.5000000154317265	1.036402047374984e-07	-5.882421064067393e-07	-0.06717443766527838																																																																																																																																																																									
2005	9								4.5357909117028125e-06	-0.1730206273030502	-0.0530236237807752		0.025787396030437	-4.923720503209057e-05	0.05461617286887553	0.26743984158335804		-0.24971134068979187	9.577629050566718e-07	3.685833081865387e-05	0.0026875885478025888											1.097473434809199e-05			-0.07243312124885079	1.8829712804115427e-05	-0.0069990139678497475	0.13498718455246667	0.028330718766428294	-7.124609600648751e-06	2.7061733312118636e-05	0.04133361564903874																																																																																																																																																																		
2005	12					-0.17211276475221585			-8.063414749195964e-08		-1.101815810628331e-06			-3.189912933510863e-07	0.05132492530275336	0.3318909033219501					0.010363245155436856												-8.116726342392694e-07				-1.2717239740603943e-06			-7.144925458617984e-08	5.828631986208091e-07		7.054151291931333e-08	-1.0237709356394335e-07	-0.071455742810922	-2.7911672244947877e-07	0.016503890233368138	-0.111570646427084	0.027852894059084803	-0.08279432958217407	-1.7830270183788068e-07																																																																																																																																																									
2006	3												0.06977333874216753	0.008537593642014105		0.2033729830068467			5.555889022403401e-08	0.0204561239037101	0.00478575160995183						-8.10552058878118e-07									1.109868934315488e-06				-2.141720036865169e-07		0.0712000485854404		5.488134871930152e-07		-9.912152887412077e-08				-0.43041186550850896	0.05464138854870275	2.9219771223176458e-06	-1.152446850791974e-07	1.9564501378151274e-06	-2.9098975048983387e-06	-0.02855250264744611	0.02619416873666754																																																																																																																																																			
2006	6					-0.1727533080089606	-0.0005536648889709791				0.00983238340770289										1.0409456170561405e-07								0.09849127912621325								0.01505193884072624		0.028209617885165374	5.305197516233783e-08					-0.08602290977228738	4.140282766493724e-08		-0.11288778535442542		-0.19518595690466134	6.83659870039706e-09			-1.2055591258267993e-07	0.2912675792835018			0.11032963676266712	0.014220907706345752	1.9623611366997834e-07	6.879722654009374e-08	6.870554138096549e-08																																																																																																																																														
2006	9										-9.650479971485948e-07	1.1015230007127826e-06		-0.006617841949594505				-0.2040289115203904			-3.885744354552799e-08								0.013012549760582363	0.022341809374180278	5.916904427656017e-07		-9.469915262719812e-08								6.595064949089559e-07			5.987672198265495e-08		1.3127411152014286e-07	-0.013935445743940553				0.09957774973855206	-7.258206999698057e-07						2.1175436381581073e-07					-0.12836033737619787	6.729829077330666e-08	0.2180105918193411	-3.431472437798847e-07																																																																																																																																										
2006	12		-0.1139246109612938		0.13306379307957278					-0.2231350953916013	-0.05627449437384473		0.11802295308810716	0.018440368171058687				-0.5000022365057339			3.5537610935741843e-07	0.08969840018236955					-2.672042596451215e-06														-2.5692028674977867e-06			0.127585999058257		-0.0004397477622631935					0.05887640686190415					-2.1062858828648027e-06					0.04896212546418008				0.44419724570760294		-0.11462170793392946	-0.030444123947892223	1.874514754356594e-07																																																																																																																																							
2007	3										1.1268288540173286e-07			0.006345472998659291					-0.028068057607982973		0.0429264062832013						-0.10154985437522658				0.029313774344103576		-5.13347710911514e-09		-0.022420499975183292		0.08849038300497068			-1.6483945515471173e-07		0.08627221276752033				0.005706543217805898		-2.1697494164646115e-07					-1.993762174809018e-07											-0.36085794945871635	0.2538419667073858	1.4260689110899965e-08				-1.9370329881075052e-07	-7.178474078250149e-08	1.55439475310324e-07																																																																																																																																				
2007	6						-5.495857961774375e-05			-0.15907827181447412		0.07022504942169194				0.10520082608543753	-0.09164849036045347				-3.392372679340827e-05			-0.12432618584788437					0.12193038251504913	0.07884214116990054			-0.02100323934452181												-0.009765204133282157					-0.20743781437982803							0.17579575030863492	0.04201504790014215							0.04685695374150282						0.2279803739479736		0.11801952999916562	-0.07399821882806744	0.20047357997249146	-0.499958386008824																																																																																																																																
2007	9						-0.017547252560973475							-2.8378442858578214e-05		0.13520418455794922					-2.1926530686090066e-05								0.14413983236445613	0.101279708186142		-0.39917431686395066			0.025211056855717097							-0.0027138735948953256								-0.17483993732595535			-4.2313540436205905e-05								-8.953207431775812e-05				0.0263227553081146				-0.29161937780854524				0.13277664961785815				-0.10607736469345838	0.0739781143373578	0.10368108063344553	-9.990765803698345e-06	0.24957136491312162																																																																																																																											
2007	12						-0.04545520625542609				-0.023872299495516884			-0.002543650347423142							-1.8429383653139537e-07												-0.041934460669146016						-0.014675289539972852	0.08864339120313773		-0.06709198429994893											-2.529541020648901e-07											6.672098500892834e-08														0.004466645847397253	0.10360029605162471	4.067521442260389e-09		0.02489731973082008	0.1567130165449905	-0.09531760113295477	-6.616539595702383e-07	0.02375268810304306	-0.16190547863816596	0.05072363784703713																																																																																																																				
2008	3			0.11692999364956501							0.05217319350531381										0.006318832514971225	0.09078828543847192		-0.024987113694501337							0.1405322341017911				9.975502637020645e-06											0.05000783263371624											0.26143022643483793							-0.04049132338459826	-2.807063976593896e-06				-0.051754770659732205		0.2573510406940285					-0.5000934580873483	9.271985682119359e-07	0.04944357598945332		1.234627393149296e-05									-0.32461637103916197	-0.08216174535220715	-0.0008166952659143188																																																																																																																	
2008	6			0.0834455335005321								-0.1015296703151408		-0.02623426795924487																0.029407035789800504		0.051651544089370685																			-1.7650050446912974e-06						0.1357723413575966	9.1850016393851e-08								1.929122238522627e-07			-0.21765012624131652		-0.012420930179704583						-0.04754564846609173	-1.2383593450898607e-07		-3.964068281717179e-08									-6.302956233725929e-07			-0.0663920259459391	3.833768470812363e-07	-1.4750910442550103e-06	2.1472138672617999e-07	0.17149539330089578																																																																																																												
2008	9										0.005033842964947874																-1.1373998886812795e-07						0.00036335237245925625													0.011294529767762585	0.027874613235269647				-3.892588863154456e-07							0.08302717013032634								-1.5264880924780266e-06			-5.022542763284974e-07		0.03153905309807411					-0.21037794401682974		1.6329805308844712e-07	0.03331036870704267														2.0163240362163086e-07	0.31859046627390686	-1.1198909155219792e-06	1.1836650085557194e-06	8.260479569792275e-08	-1.657761507968286e-06	-0.3006522034129581																																																																																																									
2008	12										0.05393286226968296	-0.029169382969686623									0.055802748174907164										0.05042473469379174	0.23212544266638357	0.025463378937752704							-0.06604418837719336	0.12363777489487689	0.22017268191491418																								0.14295598335377566				-0.030993253237143407	-0.045510055290445946					-8.001883376333751e-05		-0.0643029223280819											-4.144975541703547e-06			-0.35457378431050696		-9.059756420427786e-05		-3.816502776746628e-07		-0.31379594715499		2.7325497656333745e-05																																																																																																								
2009	3			0.0890692458445828										-0.04993251092667359																		0.07843933509153364							1.983972537659417e-06	1.525314381888725e-06	-0.14624224389409027									-0.05908070658403216		-0.37621005698843896					0.09604542081037507							-0.12859722926204165		-1.5993052165244031e-06																	0.1610679329289159						-0.1203743988527516				-2.259207841122771e-06		-0.09254005425365408						-4.8920059942204503e-08	-7.674908892238567e-07	0.498478269713239	0.049877551347608545	2.5039143518630804e-07																																																																																																			
2009	6									-7.022255098111413e-06				-6.7817347224117564e-06						-1.8721581961261966e-05	0.00455760408080164																		0.00023495998565407195			0.017465560666974772							0.006183551905115873	-1.0087789411889873e-05											-1.2319157586638824e-05															-0.021071044579864938	2.441928233590075e-06	-0.018456214302654435		1.1202187384153687e-06			-4.217774643625472e-06						-1.8874732897138002e-07						-0.024495706189414067	0.02167084185463452					0.24256146909864798	-6.970056254424026e-06				-0.22859639597931014																																																																																																		
2009	9											-1.5732352972528693e-06								1.3767001949508181e-08			8.812541018729784e-06									-0.04027647678178778									-4.884253842219343e-06						-0.0375133622579198											0.0300974670404814																		0.07646980936723437		0.016072146453196903		0.056121205181687235					1.7314888044189505e-05							-6.3591740811627035e-06			2.000435518297046e-05			0.2874953273238447			-0.2017580847471736						3.277552666847712e-06	0.3025234794915028	-0.4892915754129768	3.5834474254822157e-06	8.20036058335233e-06																																																																																													
2009	12										0.024754281807314697	0.012399741379626055								0.004621604388486355													0.03566980606927478						0.029228457308821506	0.12936271397923796	0.02573680083161389							5.58446368752421e-06			3.0877558943669e-06	1.5628425642898302e-06						0.06278954432717741																			0.03990823913190819			-5.0599797565687e-06			-1.7048106175781462e-06										-0.4999962016231127								0.19581283815955938	-0.051797398618205606						6.006292584467724e-07	-0.008501007416276327			3.349000394077212e-06																																																																																												
2010	3										0.04358118556934884	0.008825671892062419				-0.06430583561743607	0.05560478338183721		2.7716706382017644e-05	0.0026002437078528067																					0.014760153573228962																							1.9033592449317577e-06				-0.16722491050681368										5.6409997571901095e-06		1.7819878766169648e-05			1.790804659068928e-05	-9.267114838143541e-06	1.1447578856925347e-05		9.773092060885427e-06								-9.472363311101669e-06													0.10605344263305598					7.187589863427411e-06	-6.233209113772954e-06	4.8045188264335816e-06																																																																																									
2010	6											4.272931021317006e-06					2.1457827221403085e-06			7.935376403413488e-07	0.025477846828552128						-0.09602569022809118			0.009659852838871783		0.11134798473051284									1.0737040103956319e-06									-0.36822804501671524														-0.06832405656171824				-0.31738154968033183									0.03438407071266378			0.0130633187163418				-0.029230234470961913					0.03539042752587195																	0.2345056139669999		0.09796643070851704						-0.016458411632516587		0.33384791952854326	3.066658616001215e-06																																																																																							
2010	9											0.024898988023136066					0.0590118217060008			0.012510215309402823												1.4736601265719697e-05									0.04007510993762892																							0.10197754374351067													-2.0822912447430836e-05	0.031378489636747324		2.8730985462446883e-05				4.5322333741916824e-06											-9.236351794975205e-06	-0.16526316834395732					-0.1093795504835355						2.7240784905889785e-05	0.048369536743462886				0.013836517698323276		1.3632986313939797e-05	3.480190926180498e-05	-0.05748584083184167		-2.41022954190931e-05																																																																																						
2010	12										0.03702621976019588	0.017802611270694824				-0.023367429070895517	0.031018014230839806			0.00926603033105565																					0.03722247965469667																	0.12069585930784191						0.06248251918687841				-0.07456432404615092										0.03351027243181485		-8.84066163594018e-06			-3.80622385635198e-05										-0.01042383012642913		3.7663781103094174e-05	-0.09119586318436916												0.012075602901810875					-1.535772581244948e-05	1.34175687240305e-05	-6.628902530034686e-05				-0.16150393240482372																																																																																					
2011	3				0.1402248603837267									-0.017059079767896928		-0.0887559780167906	-8.127866487693273e-06			0.034501710119305674																				0.07921193765672693																									4.577896968028494e-06			-0.1863536079263847								0.0017489204508846004				5.046354290518159e-06		0.04713288652412335		-5.447506848535971e-06									-0.061288238915762086			-0.31117324297741134												-2.5197798266410408e-06												0.16688295464090006	-6.94872718754914e-06	-0.20385183300873777	0.033033538482745484	0.36576192923300666																																																																																
2011	6													-0.0348822969732938			0.02438260567292865			3.2217612980180666e-07	-0.0014280153894052573																			0.06649414891769402																																				0.004482191066686031	-0.04418707969118318	3.3660049084304386e-07				0.030811249324639793														-0.2826385109064309	8.00953216958286e-07		3.09149428744704e-07									-3.521564362549377e-07												0.30617955518485596	-0.04326448242305366		0.04970079912475394		-0.14877132419250466	-0.012453706986847394	0.08557486014649465	-9.047311320058796e-07																																																																												
2011	9																			2.0286044923563934e-07						0.20210495498154937	-0.13070641732130545														2.249592154095942e-05																							-0.05909355783211302			-0.0944025733056189													0.0018589717827660055		0.08896152681532729	1.1680829692265907e-05	-0.12018179450001264	-7.509681415582591e-05										3.500355573890486e-05													2.140944013961309e-05						-0.1146973766345556			-3.917517932802855e-05						0.1206620723083827	-0.10658633691913964				0.33643661015367976	0.06183654119306318	-0.18620942485961745																																																																										
2011	12													-0.03973725813149747		-0.0626994505814154	0.03521189909413048			0.005718072381589229												-3.8157053895507405e-07								0.13662981482900466	0.022810413290148313									0.2475122759405517								0.1673840386278094						2.1738850555209064e-07													-0.022792913435980146	0.04917738020021644		-1.6534064481819794e-07													-0.0476179622449736															0.01691482064978985	-0.10359440977005699					1.2636890116901598e-08				-7.535800446140917e-07													-0.27480820062403505	-0.13010742132675127																																																																								
2012	3									-0.1623034241485519	0.04643189269065451	0.06263505146786134								0.04858138612354172																					0.11845387789070022												-0.06161055815912244												-0.023370271927511576		0.05875801971974706						-0.00010620946089924756					0.11288030813770332						-9.238632380853405e-07	1.18940051672004e-05										-7.355199680155631e-05													0.11711065104390823					-0.19625565021613722	0.0678270980203306		-0.415369279749907								0.32309861372905735				-3.1637687380495204e-05					-0.09675236150494418																																																																							
2012	6											1.3310862383860334e-07					-0.00970994857455889			5.807789745474682e-08																					2.434655468827955e-07																								2.5444007888084073e-08											-0.03793485321964584	-0.06739720409569858	0.04564862113763667						-9.642686449780403e-08	2.5096410934929203e-07																-0.2698340376242631							0.028225523171520144				0.011111730153800969		1.521867715427115e-07						-4.480855092126667e-07	0.3465625726889005					-0.07751588609364932								-0.2819833239023266	0.4394031671428901	-0.12657668107477818																																																																				
2012	9																-6.539823258760675e-08									0.11419995558429687																				0.08742070311740498						0.19823233052085062													-1.1235980229902618e-07											-0.01764046255505051		0.027683569424140506						0.009797368361753366											0.20287522802784344													0.01341674619156065				0.05721128321856253								-2.854031527881116e-07				-0.03156808373873779		-0.08220792354859348					-0.08097265279682071			-0.4931783138674472		-0.10432578085057251	0.09905622600903123	6.009951338885169e-08	9.438360500348421e-08																																																																	
2012	12																-4.874665674680336e-06			-6.4604329901151055e-06						0.13548139957348534							-0.008646965813806213													0.12119060591921266			-0.12147187084012305																-0.06934654100929401											-0.052693725584531656	-1.5098777802881459e-05	0.031134708717473775						0.07753112272383919											0.13385097556397008													0.030281253699239515																		0.13209583351858326					-0.22895340393359923			-0.44924860390054133		-0.05496982503761948	0.142109658660646		-0.3157811215152511	0.4974674236074703																																																																
2013	3									-0.0048830846299489725		0.021884019455057396					0.02151256888480793			0.016249176590974156																					0.05630006153469224												3.515854234092302e-05														0.062409964092961526		2.6599861530594827e-05									0.04007749888420886						0.08678857982673437											6.388553256252513e-05													0.036468769323214564					-0.17032066642399196	0.0707785334440386	6.71134389069439e-05		2.7964262859651348e-05			4.01338641307289e-05														-0.3380073128056501							6.644017963213509e-05	0.10038148763550114																																																														
2013	6									-0.18728558001090737	0.07854946864109458						1.4691298012158933e-05			0.04951601365084906	0.09379906474646237														6.788929954412744e-05		-0.13419714567006147			0.11237056417326581	0.17658327813323665										1.2544049306110254e-05													4.660902153388134e-05				2.753144746934321e-05																																																						1.244967490553896e-05												-0.45817415341859996					0.1743936108215026	0.15836300669330627			4.136669248475101e-06	-5.634369095656051e-06	1.4561569935964049e-06	-0.06412626956025234																																																										
2013	9									-0.03373849437601081		0.0447996291583549								0.028040425499713837	0.03849122942553098					4.086671898542644e-06									5.12965212769565e-07						0.07199393360254654				3.7613657475974e-07																							2.1767069071246443e-07											7.754182921842954e-07																																					0.086307333244609						6.628511729726954e-07		-0.0398069954974346										1.6188947592064497e-06		-1.2559182627297452e-06		0.06644490024480364	0.01049678593599042				-0.49948418754737156		0.109706455128426		0.11674386396977572																																																									
2013	12											0.04579281429680274								0.03145660168286852							0.11644903359962279										5.218309377306234e-07			0.14864096071667973	0.0917132549808077																		6.831490964972104e-07					0.10477013976380394	8.604686986946087e-07																			0.03554382651103636																								0.01989396187949567				0.11981017219722982		0.1266742386456309										4.738797289349767e-07										3.8524698996071564e-07					2.4741289893800317e-07	-3.4345642788037634e-07			-0.5000000423267259			-0.04691212859504408		-0.29383594110430816																																																								
2014	3									-0.2823838524247232		0.08868411336995495		0.05680394055240967						0.07160791332786627	0.11678017304263331					4.4813844735573896e-05									0.00019100487905921102						0.20144574348072938												-0.14058322994002362															0.00023350829839580554																	-0.3213718701538563																							0.14125791456121872								0.4441506052882355																		0.06812118031043887					0.2927435514525161							-7.622533800675531e-05			0.00011908382622914932	-0.18688998560504674	-0.4999682121259942	-0.05087603208784511																																																				
2014	6												0.08269495294438839				1.110194737398463e-07																													0.012672840772723123						0.03667342579901461																								4.1116006356665234e-07		0.010577452997299666						0.014503559809535048																								0.0052290763867500955				0.03191470854893282												-0.05547652954408497										9.345871830496377e-07			0.0387297486371106		-3.00536360723961e-07				-0.3992297490390209			1.7134633139335063e-07	1.259061340623731e-07		1.938625211010604e-06				3.142627280750377e-07	3.325837168360995e-07	0.22170680434723883																																																	
2014	9											-5.740866953810231e-06		-3.870637011518252e-06						1.8058341909691904e-06						0.0006639981551674736																				0.08981218115000845					1.0456838489954838e-05	0.12018434346753971																								-4.789624339745452e-06			0.048722858293263456			0.03732975188267295																																2.1449796815107715e-06										-0.06921360073531928												1.1114999786776186e-05			0.05042422889951839				-0.4707333998940807	0.005426997261063375		1.0110160490749203e-05										-3.916217113591052e-06	3.516247958512522e-06	0.18735972645409282																																														
2014	12									-5.696619053529783e-06		0.058856548111927								0.019342379786639493							0.11541544618713069														0.09661109688314634										0.07866640123776221																																	0.05903001905219407																								0.026650083848612095				0.17482682182071815		0.0715803764873104										-0.08206760863391653														-3.3650308397292493e-06		1.5828709782881198e-06		0.24258120975892117	-0.3394611512448199										-0.4511500466567621	-5.8767811093226494e-06		1.6759305693109115e-05	-2.2746440181923293e-07		-0.07087983003471747																																													
2015	3																			-7.173037704082638e-08						0.004563246945087294																				0.1076813875249829						0.15770793881391315																														0.012953912950460613																										-2.2067947785278944e-08															0.06037290176854049																0.007280131774483575								-3.894657452120511e-08						-0.11668057925577091	-7.18906764029993e-08	0.1348574079814589	-1.860323208066411e-08	-5.136473451160528e-08		-0.4999998714614306	-1.6455555527565605e-07	-0.09042785308523044	-1.4265335044092896e-07	-0.04607050022687501	0.26776219376904975																																								
2015	6																																		1.5704696515217944e-07																																	1.8194211179206457e-07																7.532764016065851e-08																								3.123670578366182e-08								0.12018712425819995					-0.1796528536913025	-0.038512196141935316												2.570027030680965e-07				1.0087972869176716e-07	0.025811695703261875	3.158614826010284e-07					0.32022996164470025	3.5314354368951657e-07	1.2959772396313905e-08						-0.46636764606266506		0.19032264449014874	1.7819067353127584e-07		0.05862090626823421			-0.030641128463928812				9.947596656006655e-09																																							
2015	9											0.019851925447585326								0.006646462208666481	0.018635799011357906					1.2693050267466215e-05									-1.930918109929732e-06																																	-1.6117071692261127e-06											-3.790354826519332e-07																																										-0.009722643422544527	-1.0427925659772431e-06												0.04305412649734891					0.02382271202981431							2.2385983758601007e-07							-0.18740843222537143	-4.237822828505573e-06							3.4664680290073994e-06		-0.12352406723367819		-1.1098998480128692e-06	-0.16375803334338923	0.37239838669088754	5.632166965208143e-06																																				
2015	12											0.054495588171234385					0.033443756955623585			0.02076007981780645							0.10551653576163691													0.13755551639211633																							-0.04767993287868201																																																			0.09372041677459599							-0.09428521658068455													1.5007649934106444e-05				-0.023429773533647665															-0.15832471771852313	4.259571397550117e-06							-1.861615897073105e-05				-3.5218002837723363e-06	-0.12176246347520771	-6.606525011064524e-06		2.653066105476233e-05	1.3096952893507437e-06	-1.71395560619757e-05	3.0112049886451405e-06																																
2016	3											0.0607977480077565					0.04337595508392276			0.012703892886241725							0.10797886693815222													0.16133994134769888																							-0.10634099055473618																																																	0.16591068607549392		0.06841653271944668						-2.579113583069375e-05	-0.0016984660848710998																	-1.8839361310386334e-05				0.15426117075676735											2.352508572969563e-05												9.907934776592061e-06	-0.23966693481848442			-1.379877032052684e-05	-1.907128014857483e-05	-2.1898276467447388e-05		-0.4269949323076795	-1.3188581083856806e-05																														
2016	6											0.029475473726425297		-7.506283121878175e-07												0.003405536985666586																				0.04315883552990431					-0.011934181759816781	0.13441377015238112											-0.16242783312152054													-0.0180944733609391						0.07502948622032478																																																														-1.105533730213732e-06									-0.030231758756347073	-0.05983773531846784	0.33476526975404425					0.19394229577928845	-0.09998092850509292					-1.4409110603553408e-06				-0.07391042127021714	-0.218954196257075				-2.1602856649234917e-07	-0.13881673424031002																												
2016	9																2.5837677093030957e-06																																																																																											0.007784587665998097																										0.1327536335046027					0.0441895575986076					5.399455793107356e-06	0.3261516413090272	-0.01702697485048347							1.734435731467857e-06		0.3943849907739743					5.256938705376915e-06	-0.15056608274236863		-0.16728657741078062			-0.023415087363415243				1.777041516291678e-06	3.7434978627904227e-06			-0.04699359408630319	5.134279005195511e-07		-2.9185212831334433e-07	-0.49999929928320913	-6.931219383140872e-07																									
2016	12																-1.476130348319752e-05			-5.899824323279206e-06						0.04814575622600258																																																																																								-3.18646938302578e-05																								-3.4346692517531445e-05	0.004228303571925988					-5.470758614582872e-05	0.2495886678525362								-2.286672474498104e-05	-0.09842608791523366				0.4101885553941353			-0.22843649506730518		-0.0674931258689653							-1.3968756262534378e-05	-8.620433052642809e-05		-0.01140309830526469	-2.1015405451453573e-06	0.022916811991764725		-9.524689067562469e-05		-0.3289262294818843																									
2017	3											0.09078959767329797		-1.0645045957097725e-07			0.008412290012395277																							0.11402103372238657											-0.020801102560434062	0.49239272323491345											-0.24080099216288317																			0.206209516394207																										3.8592070889822625e-08												4.641138534517917e-08																		0.14050698890462082						0.05069389347171772									9.314787205925215e-09	-0.11611776314415546												1.5751233466298895e-07	-0.19047790133782205			-0.12009984172245873	-0.3359512165342373						-2.993093709765155e-08			-0.07877751916026705																								
2017	6													-0.008409450255707418						2.91103550303989e-08																															-0.036538711765024164	0.22614164359607375													0.011020789444861078																	0.061830584024918																										4.468688540940454e-08						1.2953049061846172e-07	0.045426615280166185																							0.03191011913479036	0.050470512905313784														-0.09273581468707576	-0.18362396951451887				0.46855490687705154												-0.08683024839363589				3.8459908734133635e-09			-2.9333958352169862e-08		-0.459039083263926	-0.028177862484869354	1.4241054341888559e-07																							
2017	9																-0.022271694047571716			-3.495262003773033e-07						0.07197262776002473																									-0.010565283430021008							-2.0199317388241923e-05																																																		0.02811404780124712						-0.02073413625177903																								0.13206716077825184															-0.07500917392100505	-0.09755380729995833																-1.3755787338533129e-05	0.1398821403053669	0.0933590413297766			-0.23909912253034227		0.15737763924682366				4.358487837583797e-05	-1.3874619340005315e-05	-5.2289778882863466e-05	2.4133358919913888e-05	-0.15751046460526524																			
2017	12											-1.9439428470134096e-06								-3.997897025372564e-06																																																																-5.626055823048348e-06																								1.1313548327984334e-05				-2.0305767058098048e-06												-0.13686451375844208																														-0.18365632986524794																	1.9096119959214293e-05			-0.0033959080747145882	-2.9379658635115075e-06		2.0569077691297368e-05	-0.28196175732304385	-0.05017906509068277		0.36583524019192715	1.1991449644404781e-05		0.3176897102269208	-0.02751324020357188	-1.527928501413207e-05	1.4585934294860951e-05	-2.1168937312579045e-05																
2018	3																			-0.04473737782705206							-0.12579784820364626																																																									-4.0818612227155184e-05																												-7.491456938708577e-05		-0.1426685643951562																				2.245206943758336e-05				0.4431642942325259	-7.700722392657368e-06						0.355665841801167								-0.26586997129589357	-0.24872347253479912									-0.4269955657549849							7.442907250258208e-07				-3.5325238480135845e-05	-3.3188409798555924e-05				-7.656457051311568e-05					0.456201986011494	9.439321179193114e-07	1.1781185595261693e-05			6.145277650541648e-05															
2018	6																			3.79957040722388e-08	-1.0170317266001806e-09																																																																																																				1.1065515828066051e-07													0.002342337235051795					0.007905954778990327										8.739708101722422e-08														-0.10141373408014481			-0.08739460469298622				-0.01674925190844741					-2.989049779477215e-08		-2.7628461938408607e-08	-0.33635166346871226			6.403962065011589e-09	0.04177872406496478		0.09917932313436335	5.411548287926434e-09	0.17223010238273506		0.21847260685076142		-1.5287370297744315e-07	-9.558668723420981e-08													
2018	9						0.039685017244655445					0.00930387219877027					-0.023791414962479097			-1.0472529714786698e-06																																																																3.0860211702741906e-06																								0.003069464685562969				9.829919181070034e-07												-0.04627044280581107																														3.253635177221938e-07															1.1026344809060565e-06					1.9076961841042855e-06					3.1695944560731886e-06			-1.2730020571958335e-06		0.1955006233354429	-0.12533221728431904	0.13585285555623433	0.10894598514223641		-0.29697461215002974		-1.8407519188335665e-06	1.2828420661675968e-06												
2018	12																			-0.010173330063524536							-0.03213872656443505																																																									-9.214795934662073e-06																								-7.446826840762216e-06				-1.9965913004132782e-06		-0.027991065135095125	0.10382263588208654																			0.1692344779918664					0.011197940061990855						0.22815065901853704								1.2237246110622956e-05																					5.40142535996589e-06	4.484693387259e-06			-0.4843327926520187			1.4258194061656806e-06	1.484130032754627e-05			0.12061350692338134			-9.354066472034834e-07				-2.205576040296826e-07	-0.07840558386073052											
2019	3											0.031870641863652655					-1.5891269563684844e-05			-1.0534345601037939e-06																		0.029568295245207567																																																																																						5.332491872393067e-05																		0.08202043014116654												5.004471177949009e-06									0.031095962164145008							4.145827632012693e-05	-6.453871018970694e-05								4.501166101703798e-05		0.15400216547993248				-5.9294784712834315e-05	0.04104992709908685				-0.286363064719449	4.996844251478295e-05	1.1685006331740656e-05	-0.44063088521944793	0.00010967847333204496	0.3571986277818576									
2019	6													-0.03846752499064311						9.673283658442498e-08						-2.5220124201387645e-05																																																					0.10914938991756744			0.1552563441237883																																							0.05541477932473824																							1.4640100937483066e-05					-3.432736483740061e-05				-3.2494231560196727e-06	-0.07084933805332798						0.2156562935456711					-0.2504945669055587				-1.1696428170291905e-05					-0.24411748898771035							0.31993696445092706				-0.03160297289946022							0.07710197783410261	-3.951059639467731e-05			8.882542908420315e-06	-0.29693953580597887							
2019	9											0.005566981566020257					-2.2837883472123597e-07			-3.219430721694024e-08																																																																																																				-3.8988816927501506e-07																			0.159339843370767					-4.669243979910651e-08									0.03310446122770981												-0.2244869874579323	-0.1877260596992314			6.197831299924159e-07										-0.023808733270183086				-0.2268475851353774			3.5283191711308224e-09	0.21608984811321105		-0.050319372425705576	-0.013578156195832566		5.7554356582891475e-08	-4.23223426554349e-07		0.20242745287715885			0.11023852028555227						
2019	12											0.07593257063110392								0.019264065073356474																																																			-7.158253256156137e-07																																																																																		0.14243692575939032	0.062323327657165854											-0.24199075078528742				5.984354943824984e-07								0.3208365721230098		-0.24140556945428537				-0.1525638986147277				0.014977785080618587		2.351520516332247e-06	-0.057790928343527184	-8.25353167965426e-07	-4.900822146089453e-07		1.9039321236481804e-06	0.2796328027506096		-0.3291196935582773	-2.702475987069544e-07	0.1074642674510758					
2020	3																			1.8303252286707066e-08																																						0.03217887112449838																										1.7430319550700194e-06	0.03175455472216176																							-3.0396335415949357e-07																															0.035741116536428606							0.022162668694697515																			-0.004698516550785117									-1.1385433465626671e-06							0.023858434923199882						-3.5380308659236077e-07	0.12174220422419563	1.1684956722014345e-06		2.194041604502395e-06	-1.1766580051805947e-06	2.8800651105260867e-06		5.064364387778081e-07			-0.004944036433746876	0.04501124736224346	-0.3028101598849429				
2020	6											0.04226174769510064																																															-0.036087075524727084										-0.01552001764851383															0.0035847059241647878																								0.011908259475603453							-2.0821491371082416e-07									-1.1715175126296491e-07															-1.1498778307454545e-08			0.07470719637087077												8.009452928272206e-08						-5.104637664183102e-07														-0.0003274364831015673					-0.1431391706945372		-7.707736383098228e-07		-0.31052682461261194				0.06632445550316442			-1.0890640854108047e-07					0.22503016459558842				0.08178454951800772		7.820990133204477e-07			
2020	9																																					0.05727213437737827																																															0.09402454293146485																							-0.07638756706038943																																				-0.21447593485893388		0.22752204996622824							3.874373806219408e-05	-0.029322654864911958						1.4918994373216053e-05														-0.089630594864234					-0.17064171207641463		0.39864279079566456				-0.34500030583771535				0.14113877174390735			-0.09690685129336395			0.36549981745860083	0.2425631635545901				-0.3440368817354236		-0.3969138903234945	0.23671407734106878	-0.00015647102999284912
