year	month	ABC	CCU	DAR	DECK	EPC	JBSS	KO	LEXR	LTRE	MED	MGPI	MIDD	MTEX	MVL	PPC	REV	SUP	SWY	TEN	USNA	ANDE	CHE	F	JAH	NATR	NLS	SBUX	SEB	SPTN	STKL	TAP	TIVO	TOM	VC	CL	MNST	MTH	PTRY	TPX	TRW	TSCO	BID	CRI	ELY	EXPE	FDP	KCP	NAFC	RDEN	SNMX	DPZ	JNJ	OATS	RAI	SXT	WBD	HLF	JAKK	MCK	SKX	VGR	CAA	MOD	NTRI	PBH	CTB	LEA	THS	GT	ICON	TUP	ARDNA	CQB	IMKTA	SEED	ADY	CROX	GRMN	JSDA	WWW	AMZN	BG	BZH	COKE	PAS	RCII	SAM	CENTA	TBL	TR	BARE	FACE	HBI	SUSS	WINN	HOG	IBA	WRC	BGS	ALCO	G	KTII	OME	WBC	ETP	ADM	DAN	HOGS	PNRA	SMG	BC	ATVI	AXL	STMP	DL	FLO	SENEA	CHBT	BRFS	CZZ	GM	PRGO	SVM	CSKI	DOLE	FOSL	LO	DPS	JNY	FARM	MDC	CLX	PRMW	SPB	TTWO	IPAR	SODA	TSLA	WFM	INGR	URI	BTH	CHEF	EA	ZNGA	RNDY	HSH	CG	PEP	RGS	SYY	LFVN	NGVC	WWAV	BDBD	LKQ	PF	CSG	COTY	ENZY	POST	SFM	VFC	ESI	CPG	FGL	MJN	ABEV	GPRO	SC	WES	KATE	NHTC	DPLO	PFGC	FRPT	SFS	VSTO	BETR	BLD	ENR	KHC	NOMD	UAA	RRR	TPB	USFD	ELF	ADNT	TWNK	NBEV	WOW	CELH	ROKU	APTV	DLPH	CRON	HFFG	VNE	WMK	CPRI	EL	PM
2005	3	1.1763894151194457e-07	-0.0053017468411497804	0.09546016577627889	0.12042188643668202	-0.12103310115596083	0.014858882082073805	-0.2716981135679752	7.249518728893518e-07	-0.06764372559602731	-0.0775420769998616	-3.3500066516970833e-06	0.04586043571617	-3.868376440201725e-07	0.06416700731720773	0.29801789191899547	-0.04456439037861347	-0.05100187558127151	-4.0894817640426844e-06	4.573134526695152e-06	-4.3981639014966486e-07																																																																																																																																																																																							
2005	6			0.027149594032184473	0.05151442792429313	1.4541533028736553e-05			-5.16157013059795e-07		-0.0203206887552142			6.942168621504032e-07								0.16977633398749856	0.031168401790031997	-0.01000953229056055	0.18184460958624635	-1.644096140713453e-06	-6.947376040224148e-06	0.027671530394639158	0.028154068020428847	0.012158080132429944	-1.0309160045277036e-06	-0.46796885988495013	2.7587639640081886e-07	1.572366674218399e-05	-0.031167401839468846																																																																																																																																																																									
2005	9								4.5357909117028125e-06	-0.1730206273030502	-0.0530236237807752		0.025787396030437	-4.923720503209057e-05	0.05461617286887553	0.26743984158335804		-0.24971134068979187	9.577629050566718e-07	3.685833081865387e-05	0.0026875885478025888											1.097473434809199e-05			-0.07243312124885079	1.8829712804115427e-05	-0.0069990139678497475	0.13498718455246667	0.028330718766428294	-7.124609600648751e-06	2.7061733312118636e-05	0.04133361564903874																																																																																																																																																																		
2005	12					-0.17211276475221585			-8.063414749195964e-08		-1.101815810628331e-06			-3.189912933510863e-07	0.05132492530275336	0.3318909033219501					0.010363245155436856												-8.116726342392694e-07				-1.2717239740603943e-06			-7.144925458617984e-08	5.828631986208091e-07		7.054151291931333e-08	-1.0237709356394335e-07	-0.071455742810922	-2.7911672244947877e-07	0.016503890233368138	-0.111570646427084	0.027852894059084803	-0.08279432958217407	-1.7830270183788068e-07																																																																																																																																																									
2006	3												0.06977333874216753	0.008537593642014105		0.2033729830068467			5.555889022403401e-08	0.0204561239037101	0.00478575160995183						-8.10552058878118e-07									1.109868934315488e-06				-2.141720036865169e-07		0.0712000485854404		5.488134871930152e-07		-9.912152887412077e-08				-0.43041186550850896	0.05464138854870275	2.9219771223176458e-06	-1.152446850791974e-07	1.9564501378151274e-06	-2.9098975048983387e-06	-0.02855250264744611	0.02619416873666754																																																																																																																																																			
2006	6					-0.2731509284751553	-0.0008748308317277283				0.01554660732964355										-2.1756225814294127e-07								0.155724714173204								0.02379878131453619		0.0446015417886323	1.2715155887566355e-05					-0.13601666489492525	-5.346453378941417e-07		-0.17850036374202613		-0.30868205285950406	5.687516928830291e-06			1.5696931292526637e-05	0.46057756556139146			0.1744612021737078	0.02248466300840105	-9.416614995481272e-06	5.647551057799672e-07	-1.0680015181604462e-05																																																																																																																																														
2006	9										1.2703630726381661e-05	4.7754659560113105e-06		-0.0046776423560607565				-0.1443017684307623			-4.40351830471968e-06								0.009198745375439854	0.015798176836576187	-1.2633132227668103e-05		5.735543785058738e-06								1.7198934528431172e-05			-1.0595522874642212e-05		1.4911893803985995e-06	-0.009856801777333392				0.07043167218730816	-1.0973229501484884e-05						5.370899679595656e-06					-0.09076528615704468	-3.267095978574923e-06	0.15417080984635187	1.976715028252602e-06																																																																																																																																										
2006	12		-0.05574941623597108		0.06644236229174087					-0.1108278238363307	-0.027935669426373773		0.058945829266772984	0.009174717699836441				-0.2531900738655774			3.494089726758382e-08	0.04486837439002439					-3.608222765430086e-07														-2.507519884255472e-07			0.06392292225907464		-0.00019568997649371694					0.029601391197473164					-3.588257757091475e-07					0.024463369757045342				0.22192751135043942		-0.05666670592341159	-0.014780631012648189	3.68485508599055e-08																																																																																																																																							
2007	3										2.087349136465955e-06			0.003173383182493515					-0.014031638506452669		0.021465482295510464						-0.05076854300387389				0.01465867890287792		-6.8478575701526185e-06		-0.01120837755360802		0.04424966014601331			-1.282634022694283e-05		0.04314085035356417				0.00285345507779803		3.327758375711511e-06					-2.215437811505464e-06											-0.18043404002874114	0.12692964172437338	-1.0700295112443175e-06				-1.2192873385085597e-05	-7.742923159398371e-07	-8.085519382495355e-06																																																																																																																																				
2007	6						1.5735157449523343e-05			-0.10427479452845409		0.04600527772217901				0.07698273686449496	-0.05691259041569064				3.4783817349162956e-05			-0.08058120211271472					0.08620197377467154	0.05557124264013832			-0.01817415208595034												-0.001250371033330176					-0.1352698766570585							0.11942667444879694	0.058036109194127446							0.04624637851259076						0.2209811340957538		0.08803375791034909	-0.04541653549284938	0.14430323189440517	-0.5000162208328679																																																																																																																																
2007	9						-0.016422069819256913							-4.274335627896437e-05		0.12648823244309962					-2.391518350164092e-05								0.13482714300376014	0.09473945200129906		-0.3733891162819925			0.023571537559699287							-0.0025543339126059095								-0.16352038439580804			-8.257777850090704e-06								-0.00011067922039564736				0.02465279504650319				-0.2727610888386006				0.1242152904173889				-0.09922247119375913	0.06917546032696496	0.0969832609741071	-1.530937862235887e-05	0.2334311359307207																																																																																																																											
2007	12						-0.032141938517057385				-0.01688007187793916			-0.0017988038793289613							-3.542080638371861e-07												-0.02965245438445369						-0.010377098316128259	0.06267769538242175		-0.047440742462933755											-8.204208064823474e-07											4.0032568912111525e-06														0.00315863333320973	0.07325572958764422	-7.884959315686917e-09		0.01760418563939056	0.11081203418955722	-0.06740002513288881	4.679651764968645e-07	0.01679176954152904	-0.11448597585337458	0.03587123413938619																																																																																																																				
2008	3			0.08601309695974395							0.027619159152681226										-2.068776473225678e-05	0.06277272244297762		5.0464014842319055e-05							0.08487822043366396				4.906287702339919e-05											0.029918620630809033											0.18363462186420615							9.103362190301965e-05	0.007537989310929477				-0.023002430659493533		0.1874010390322409					-0.4828350620548665	-0.020906355737085634	0.0412993010741128		-0.0030735653406916436									-0.18136573109664558	-9.356829360702443e-05	6.758206455412519e-05																																																																																																																	
2008	6			0.0834455335005321								-0.1015296703151408		-0.02623426795924487																0.029407035789800504		0.051651544089370685																			-1.7650050446912974e-06						0.1357723413575966	9.1850016393851e-08								1.929122238522627e-07			-0.21765012624131652		-0.012420930179704583						-0.04754564846609173	-1.2383593450898607e-07		-3.964068281717179e-08									-6.302956233725929e-07			-0.0663920259459391	3.833768470812363e-07	-1.4750910442550103e-06	2.1472138672617999e-07	0.17149539330089578																																																																																																												
2008	9										0.005033842964947874																-1.1373998886812795e-07						0.00036335237245925625													0.011294529767762585	0.027874613235269647				-3.892588863154456e-07							0.08302717013032634								-1.5264880924780266e-06			-5.022542763284974e-07		0.03153905309807411					-0.21037794401682974		1.6329805308844712e-07	0.03331036870704267														2.0163240362163086e-07	0.31859046627390686	-1.1198909155219792e-06	1.1836650085557194e-06	8.260479569792275e-08	-1.657761507968286e-06	-0.3006522034129581																																																																																																									
2008	12										0.015573507421457192	-0.00842516285723804									0.016099111200442374										0.014565173252298266	0.06704554191426258	0.007357559960974133							-0.019052407331949003	0.03569341956256397	0.06354014056131062																								0.041326937122241746				-0.008929813000350739	-0.013117037171424295					-2.1810202283661778e-05		-0.018559555195490025											-8.320712897246525e-06			-0.10227334452185857		2.9173257114721525e-05		-2.674544944377999e-06		-0.09087149496224162		2.751230861508002e-05																																																																																																								
2009	3			0.028178666792168083										-0.015803288035500046																		0.02485915736275724							6.632986997946282e-06	2.5482766538644964e-05	-0.04627421396100963									-0.018735331545741734		-0.11900292828726626					0.030375047856977547							-0.040696322565994016		-7.79454102614811e-05																	0.050955536235973535						-0.03807788961176329				1.6560554489826332e-05		-0.029291310712961535						1.4576857505461035e-05	-7.006164115483912e-05	0.15769486840204278	0.015769291569472287	5.010406889625832e-05																																																																																																			
2009	6									-7.022255098111413e-06				-6.7817347224117564e-06						-1.8721581961261966e-05	0.00455760408080164																		0.00023495998565407195			0.017465560666974772							0.006183551905115873	-1.0087789411889873e-05											-1.2319157586638824e-05															-0.021071044579864938	2.441928233590075e-06	-0.018456214302654435		1.1202187384153687e-06			-4.217774643625472e-06						-1.8874732897138002e-07						-0.024495706189414067	0.02167084185463452					0.24256146909864798	-6.970056254424026e-06				-0.22859639597931014																																																																																																		
2009	9											-1.5732352972528693e-06								1.3767001949508181e-08			8.812541018729784e-06									-0.04027647678178778									-4.884253842219343e-06						-0.0375133622579198											0.0300974670404814																		0.07646980936723437		0.016072146453196903		0.056121205181687235					1.7314888044189505e-05							-6.3591740811627035e-06			2.000435518297046e-05			0.2874953273238447			-0.2017580847471736						3.277552666847712e-06	0.3025234794915028	-0.4892915754129768	3.5834474254822157e-06	8.20036058335233e-06																																																																																													
2009	12										0.024754281807314697	0.012399741379626055								0.004621604388486355													0.03566980606927478						0.029228457308821506	0.12936271397923796	0.02573680083161389							5.58446368752421e-06			3.0877558943669e-06	1.5628425642898302e-06						0.06278954432717741																			0.03990823913190819			-5.0599797565687e-06			-1.7048106175781462e-06										-0.4999962016231127								0.19581283815955938	-0.051797398618205606						6.006292584467724e-07	-0.008501007416276327			3.349000394077212e-06																																																																																												
2010	3										0.037785220783878616	0.0076527189908824535				-0.055488161624208186	0.0481816781927883		-9.447036908442993e-06	0.0022495300104694903																					0.012797308759753717																							-2.5323108434527577e-05				-0.14462559838916633										-2.4950506058963e-07		-5.0299319781683725e-05			-3.5929817366528696e-05	-1.8828954933648625e-05	-1.861431193781294e-05		-3.4430256761786956e-05								-5.678438655273343e-05													0.09183518967311695					-4.6502220339109374e-05	-5.9070709886344e-06	-4.082799333804621e-05																																																																																									
2010	6											2.386971648230475e-06					-9.146417753619732e-08			-8.4250005818466e-08	0.026721931459440542						-0.10071236287764232			0.010131508365757678		0.11678368468528816									-3.4827915612002536e-07									-0.38619118802711194														-0.07165847646336032				-0.33287476174720243									0.036062761288155845			0.013701130160536392				-0.030657063555064996					0.037118432061076026																	0.24593934431848713		0.10274854217860419						-0.01726107470768734		0.3501480400743146	7.289169562679475e-07																																																																																							
2010	9											0.024898988023136066					0.0590118217060008			0.012510215309402823												1.4736601265719697e-05									0.04007510993762892																							0.10197754374351067													-2.0822912447430836e-05	0.031378489636747324		2.8730985462446883e-05				4.5322333741916824e-06											-9.236351794975205e-06	-0.16526316834395732					-0.1093795504835355						2.7240784905889785e-05	0.048369536743462886				0.013836517698323276		1.3632986313939797e-05	3.480190926180498e-05	-0.05748584083184167		-2.41022954190931e-05																																																																																						
2010	12										0.03702621976019588	0.017802611270694824				-0.023367429070895517	0.031018014230839806			0.00926603033105565																					0.03722247965469667																	0.12069585930784191						0.06248251918687841				-0.07456432404615092										0.03351027243181485		-8.84066163594018e-06			-3.80622385635198e-05										-0.01042383012642913		3.7663781103094174e-05	-0.09119586318436916												0.012075602901810875					-1.535772581244948e-05	1.34175687240305e-05	-6.628902530034686e-05				-0.16150393240482372																																																																																					
2011	3				0.057246553444398274									-0.006964602637679609		-0.03623230558517754	-7.668633836990433e-06			0.014084497363527121																				0.032332733223773814																									-1.1066981901413852e-06			-0.076087653399031								0.0007161795410388491				6.606677134112045e-06		0.0192452827364258		2.7114953221511e-06									-0.025030436428221475			-0.12704945452963123												-9.724290370018683e-07												0.06812819460318821	-1.6259690181963166e-06	-0.08322436189314464	0.013494197119105546	0.14933947337282133																																																																																
2011	6													-0.038996941482193404			0.027267238288779347			7.614047306262303e-07	-0.001587449677863619																			0.07437178262433539																																				0.005019245949211288	-0.04939015590790561	-1.083007960941113e-05				0.034471316425463146														-0.315963050297026	6.312223650689725e-05		0.0001475540251174237									3.375489050786848e-06												0.3421337083133805	-0.04857554569804415		0.05559392307010558		-0.166345303475747	-0.013858474861787025	0.09571478931447414	-5.946280044946679e-05																																																																												
2011	9																			1.639819017811231e-05						0.20842487659653502	-0.13473693833980016														2.7840058648152786e-05																							-0.060955962377511275			-0.09730499081818014													0.001941964984840729		0.09178231575251528	-3.801584963947544e-05	-0.12390349228170765	-0.00012648891108330446										1.2419290148830615e-05													2.0378600530702694e-05						-0.11822906071860016			-9.415931818958165e-05						0.12453776475687792	-0.10986082378935551				0.3465670101132398	0.0639398774315821	-0.19197558543021612																																																																										
2011	12													-0.03441347037631296		-0.05429902999756366	0.030494672757732544			0.004951872933459442												-3.262224460630472e-06								0.11832505944067588	0.019754128580299714									0.21435369439483032								0.1449593620058089						1.1977690868155846e-06													-0.019738564864263976	0.042588643292919205		8.463681756006624e-07													-0.041237882539235375															0.01464843965889124	-0.08971519206443702					8.416379289098009e-07				-2.304890969764367e-06													-0.23799198088186813	-0.11267732456876095																																																																								
2012	3									-0.1623034241485519	0.04643189269065451	0.06263505146786134								0.04858138612354172																					0.11845387789070022												-0.06161055815912244												-0.023370271927511576		0.05875801971974706						-0.00010620946089924756					0.11288030813770332						-9.238632380853405e-07	1.18940051672004e-05										-7.355199680155631e-05													0.11711065104390823					-0.19625565021613722	0.0678270980203306		-0.415369279749907								0.32309861372905735				-3.1637687380495204e-05					-0.09675236150494418																																																																							
2012	6											-9.510534360453444e-06					-0.004855132901069158			-3.817286996312693e-06																					-1.3857753077374311e-05																								9.69234357486429e-07											-0.018968487866104083	-0.033704787232977665	0.022824348227290816						-1.1196285285757583e-05	-2.2118923554747426e-05																-0.13485505967944303							0.014111444112346789				0.005558760447484902		-5.944465684506794e-07						2.84108307235654e-05	0.17334371464128484					-0.038786212127502696								-0.14101973432798426	0.21974203091255043	-0.06335248932696748																																																																				
2012	9																6.867935801993386e-07									0.10424988771960374																				0.07980386915894687						0.18096102550623974													-9.902985513426505e-07											-0.016103331807599108		0.025271397893151068						0.008943454687628652											0.18519948363185398													0.012247630615486171				0.052226373806459135								3.532812266439437e-06				-0.028817549567609044		-0.07504258221416943					-0.07391785898571891			-0.4502096470302216		-0.09524121251402179	0.09042506495238754	-3.171234180924172e-07	2.7449622283399715e-07																																																																	
2012	12																-4.098976086759768e-06			1.7527563793605942e-06						0.05531862726979896							-0.003527397335482844													0.049475842177651455			-0.04958367924498529																-0.028305204628951357											-0.021511923876770683	6.117563517144406e-06	0.012708634160824853						0.031651995946747856											0.05465015630662788													0.01235985126992091																		0.053923795567867146					-0.09346148963928413			-0.18340978899166732		-0.022430924727273472	0.0580256429690305		-0.1289437723255221	0.20305807833317266																																																																
2013	3									-0.0048830846299489725		0.021884019455057396					0.02151256888480793			0.016249176590974156																					0.05630006153469224												3.515854234092302e-05														0.062409964092961526		2.6599861530594827e-05									0.04007749888420886						0.08678857982673437											6.388553256252513e-05													0.036468769323214564					-0.17032066642399196	0.0707785334440386	6.71134389069439e-05		2.7964262859651348e-05			4.01338641307289e-05														-0.3380073128056501							6.644017963213509e-05	0.10038148763550114																																																														
2013	6									-0.18728558001090737	0.07854946864109458						1.4691298012158933e-05			0.04951601365084906	0.09379906474646237														6.788929954412744e-05		-0.13419714567006147			0.11237056417326581	0.17658327813323665										1.2544049306110254e-05													4.660902153388134e-05				2.753144746934321e-05																																																						1.244967490553896e-05												-0.45817415341859996					0.1743936108215026	0.15836300669330627			4.136669248475101e-06	-5.634369095656051e-06	1.4561569935964049e-06	-0.06412626956025234																																																										
2013	9									-0.023860734467219646		0.031682615128248756								0.019830582969165008	0.027222664337823135					1.8909708949426296e-05									-9.984289910124937e-06						0.05091633493477071				9.8853053741975e-06																							2.0698737928995687e-05											-1.7957237275931058e-05																																					0.061041207532507524						1.3267067842400638e-05		-0.028153383693799574										-4.062592119484674e-06		1.8642810472220005e-05		0.04698841348596149	0.007429066504376063				-0.3532861572149794		0.07757617377409182		0.08257705821339487																																																									
2013	12											0.018689622286175735								0.012797683067837691							0.047569066664048025										-2.756705027490095e-07			0.061065241258354296	0.037336627462217394																		-3.168912712451077e-07					0.042954891251177234	-1.3106997627705956e-06																			0.014181649742054865																								0.007873430009452183				0.048603838001780815		0.05162948773904996										2.476101990202883e-07										-6.011836662214664e-07					-1.8921392876123962e-07	-6.07554794914335e-07			-0.20729453131607842			-0.018515501058978725		-0.11688767677967604																																																								
2014	3									-0.2864635427324263		0.08983976693206783		0.057535928269373024						0.07256139544241404	0.11832760719577858					2.3653290301505083e-05									0.00011056851096452621						0.20414397686408342												-0.14445021309208245															9.913025671531046e-05																	-0.3261297028477318																							0.14317809887522925								0.45029543587079623																		0.06909037966215235					0.2968559854242968							2.9455074355026007e-05			5.5215714917739184e-05	-0.19234507268944356	-0.5000121689308792	-0.05268265754915961																																																				
2014	6												0.08269495294438839				1.110194737398463e-07																													0.012672840772723123						0.03667342579901461																								4.1116006356665234e-07		0.010577452997299666						0.014503559809535048																								0.0052290763867500955				0.03191470854893282												-0.05547652954408497										9.345871830496377e-07			0.0387297486371106		-3.00536360723961e-07				-0.3992297490390209			1.7134633139335063e-07	1.259061340623731e-07		1.938625211010604e-06				3.142627280750377e-07	3.325837168360995e-07	0.22170680434723883																																																	
2014	9											4.460266181891345e-06		1.860422635422993e-05						-3.261667682192775e-06						0.0004854844314456964																				0.06353618540478718					4.0188368481223814e-05	0.0850371095341102																								6.513648875944228e-06			0.034476298150078244			0.026417600841831538																																-1.541403036297486e-05										-0.04895962704718143												-1.583455952713545e-05			0.03566649686988902				-0.3329308180261394	0.0038311334247742423		-2.4071132231446774e-05										2.6957101536702087e-05	2.2370016476046717e-05	0.13237798863892314																																														
2014	12									-8.82966605650851e-05		0.056351829142910724								0.01850790400979638							0.11049872339019308														0.09251343350728575										0.07535845979614525																																	0.056538083041627545																								0.02552699311952725				0.16744256428890633		0.06852991109323128										-0.07849497037537542														3.1596772784197675e-06		1.5238756239614301e-05		0.2323073998237084	-0.32510517530290384										-0.4317948714385928	1.3848211518885686e-05		6.190480277491326e-05	1.0791834767779134e-05		-0.06819027147172568																																													
2015	3																			1.1021449407166254e-06						0.002833261143250185																				0.07620940491280685						0.11108219526735554																														0.00897411663565011																										-5.693165165446171e-07															0.041961847294327254																0.004836585986736166								-1.2565410369079615e-06						-0.07789296541877921	1.2719025021815656e-06	0.0974134885358662	5.0173772663289376e-06	-3.28243315641805e-06		-0.36592918216439735	-1.0951751022157437e-06	-0.06617796323793934	-3.566838717011531e-06	-0.023378303406530535	0.19006902478899942																																								
2015	6																																		2.8881418405902153e-05																																	1.301161046961233e-05																-4.158470295692806e-05																								-3.511787800990651e-05								0.049091344966320005					-0.07334166828635721	-0.015663274589280803												-1.4159608971236007e-05				6.475284142234058e-05	0.010528661017212785	5.671362870010249e-05					0.13070336650749534	0.00014292756323938278	2.3205951841096833e-06						-0.19043063282408562		0.07773686248381827	4.4714801689204075e-05		0.02375057401755563			-0.01253489156534377				-8.07864370890914e-06																																							
2015	9											0.014034488124663395								0.004698767528863079	0.013180435262084796					-5.159344772919335e-06									-4.716470334891476e-06																																	-7.884761427820771e-06											-4.247457486758679e-06																																										-0.006856212071514423	-1.147003965347352e-05												0.030459459195166246					0.016843663840059628							-2.050904850005096e-05							-0.13251383028753935	-1.1868959123406533e-05							8.719271001715588e-07		-0.08730364730486852		-4.434396525447354e-06	-0.115818828867644	0.2633500618281368	3.8139939083742896e-06																																				
2015	12											0.04720609246118823					0.02896470914206922			0.017985150414345268							0.09140280306787062													0.11914976880364121																							-0.04131101466182664																																																			0.08118135821616117							-0.08165629788121585													2.959395629002824e-05				-0.02023247391056755															-0.13712659304447464	-1.8674294095846683e-05							-4.1640067260770786e-05				-3.4273446311521216e-06	-0.10555991592180879	-1.841853156304117e-05		7.834707012845622e-05	2.8070141705545422e-06	-2.1615892224909994e-05	6.952453410293017e-05																																
2016	3											0.05268933051706825					0.037593192265689405			0.011012722271428773							0.09358019916081772													0.13980331136014673																							-0.09221256427028462																																																	0.1437687897424793		0.05930228459823561						1.649379663344785e-05	-0.0015389560405693525																	2.7142609085562926e-05				0.13367440527093732											7.645838462613146e-06												-3.929233904311405e-06	-0.2076881121559543			-8.06145026305676e-06	3.182597394210697e-06	-1.0878599985462178e-07		-0.3700165682073153	-2.2166041372435897e-05																														
2016	6											0.029475473726425297		-7.506283121878175e-07												0.003405536985666586																				0.04315883552990431					-0.011934181759816781	0.13441377015238112											-0.16242783312152054													-0.0180944733609391						0.07502948622032478																																																														-1.105533730213732e-06									-0.030231758756347073	-0.05983773531846784	0.33476526975404425					0.19394229577928845	-0.09998092850509292					-1.4409110603553408e-06				-0.07391042127021714	-0.218954196257075				-2.1602856649234917e-07	-0.13881673424031002																												
2016	9																2.5837677093030957e-06																																																																																											0.007784587665998097																										0.1327536335046027					0.0441895575986076					5.399455793107356e-06	0.3261516413090272	-0.01702697485048347							1.734435731467857e-06		0.3943849907739743					5.256938705376915e-06	-0.15056608274236863		-0.16728657741078062			-0.023415087363415243				1.777041516291678e-06	3.7434978627904227e-06			-0.04699359408630319	5.134279005195511e-07		-2.9185212831334433e-07	-0.49999929928320913	-6.931219383140872e-07																									
2016	12																-1.476130348319752e-05			-5.899824323279206e-06						0.04814575622600258																																																																																								-3.18646938302578e-05																								-3.4346692517531445e-05	0.004228303571925988					-5.470758614582872e-05	0.2495886678525362								-2.286672474498104e-05	-0.09842608791523366				0.4101885553941353			-0.22843649506730518		-0.0674931258689653							-1.3968756262534378e-05	-8.620433052642809e-05		-0.01140309830526469	-2.1015405451453573e-06	0.022916811991764725		-9.524689067562469e-05		-0.3289262294818843																									
2017	3											0.08492593809624019		-1.698584017129372e-07			0.007868993431669517																							0.10665698495864327											-0.019457648026251752	0.4605916639411492											-0.22524889277935126																			0.19289147006626473																										-5.301773611830383e-08												2.357796192616386e-07																		0.13143232723945952						0.047419747022068366									1.6901014420607033e-07	-0.10861830984229028												5.514227227079465e-08	-0.17817630710261262			-0.11234327547919648	-0.3142534503375185						7.4080224305961425e-09			-0.07368957239116802																								
2017	6													-0.007676779253381521						8.568124372695431e-08																															-0.03335520661219171	0.2064386442243208													0.010060625754046195																	0.05644357608666479																										-1.339667138478842e-07						2.6474272003505143e-07	0.04146877920721978																							0.02912998051016475	0.046073042213171406														-0.0846558880790384	-0.16762520763992528				0.427731042781096												-0.07926492404964074				-2.165280821046001e-07			-8.96012275866399e-08		-0.4190438460598432	-0.025722921454913835	-4.908941897894043e-07																							
2017	9																-0.011137499829636521			-3.208057435954825e-07						0.03599358077530089																									-0.005284207414151127							3.4814518335308516e-07																																																		0.014061449177540914						-0.010365265677962266																								0.06604376144826919															-0.03750963424413328	-0.04878325883336196																-5.95395130978725e-06	0.06995520382934406	0.04665224147911276			-0.11955793821512818		0.07866898317901985				5.443382967762492e-07	3.827635507306945e-06	-4.5285930875305376e-06	-1.751332583476422e-06	-0.07872794948785972																			
2017	12											-1.4597520458642828e-05								-2.8048831034455755e-05																																																																-4.042868841532323e-05																								3.7931446876786673e-05				-9.886683782244799e-05												-0.09677958504971984																														-0.12987833172393248																	1.6210791462824653e-05			-0.0023851553824769324	-7.52038522799917e-05		4.5089739566180305e-05	-0.19937149577564137	-0.03549572378207381		0.2589382480003051	-6.253442411768654e-05		0.22468905952562646	-0.019517831771370217	9.923183824464104e-05	2.1260006245642305e-05	5.797072262273182e-05																
2018	3																			-0.008167389279952362							-0.022971068826381235																																																									-3.3108202929697117e-06																												6.766054870418316e-06		-0.0260497810486166																				3.4246495094536506e-06				0.08088803384490069	-2.942177398097587e-06						0.06492005302234512								-0.048544312395764455	-0.04541087559027722									-0.07799397507276522							-2.810112598319304e-06				1.9800772976912235e-05	1.1572670966240278e-05				1.664469137461685e-06					0.08328320109210025	-5.616245632292884e-07	4.166927867843978e-06			-6.941089020437066e-07															
2018	6																			3.79957040722388e-08	-1.0170317266001806e-09																																																																																																				1.1065515828066051e-07													0.002342337235051795					0.007905954778990327										8.739708101722422e-08														-0.10141373408014481			-0.08739460469298622				-0.01674925190844741					-2.989049779477215e-08		-2.7628461938408607e-08	-0.33635166346871226			6.403962065011589e-09	0.04177872406496478		0.09917932313436335	5.411548287926434e-09	0.17223010238273506		0.21847260685076142		-1.5287370297744315e-07	-9.558668723420981e-08													
2018	9						0.028066163624133833					0.006577808549474062					-0.01682733462878745			1.0577717944011937e-05																																																																1.1369667388302445e-05																								0.002176594328485181				1.4134437873369288e-05												-0.0327193085163877																														3.458405784307277e-06															4.2909503275417885e-06					4.6821102313209714e-05					1.6387587461100803e-05			3.7275266713916135e-05		0.1382438013903739	-0.0886779788118291	0.09610156223625495	0.07701720889664751		-0.2101327475736416		4.517824817808329e-05	-4.8180486079883385e-06												
2018	12																			-0.005087017927248219							-0.016069095090717914																																																									7.616532555965283e-07																								3.62266691567015e-07				-4.345047247909119e-07		-0.013994505108007035	0.051912069083764306																			0.08461900371636237					0.005599366673343251						0.11407838064470872								3.71598926751221e-07																					2.797821520427012e-08	-3.1819633978333096e-06			-0.2421712502153864			1.8401203679091847e-06	-1.4586412616392712e-06			0.060320092078136545			1.9008480213880587e-06				1.0322452592889276e-07	-0.03920627455168109											
2019	3											0.031870641863652655					-1.5891269563684844e-05			-1.0534345601037939e-06																		0.029568295245207567																																																																																						5.332491872393067e-05																		0.08202043014116654												5.004471177949009e-06									0.031095962164145008							4.145827632012693e-05	-6.453871018970694e-05								4.501166101703798e-05		0.15400216547993248				-5.9294784712834315e-05	0.04104992709908685				-0.286363064719449	4.996844251478295e-05	1.1685006331740656e-05	-0.44063088521944793	0.00010967847333204496	0.3571986277818576									
2019	6													-0.03846752499064311						9.673283658442498e-08						-2.5220124201387645e-05																																																					0.10914938991756744			0.1552563441237883																																							0.05541477932473824																							1.4640100937483066e-05					-3.432736483740061e-05				-3.2494231560196727e-06	-0.07084933805332798						0.2156562935456711					-0.2504945669055587				-1.1696428170291905e-05					-0.24411748898771035							0.31993696445092706				-0.03160297289946022							0.07710197783410261	-3.951059639467731e-05			8.882542908420315e-06	-0.29693953580597887							
2019	9											0.008579652163525655					-1.128259822729797e-05			-4.671929085629182e-06																																																																																																				-2.064968696208808e-05																			0.2456005284828115					-3.883594470555744e-05									0.05103577447650152												-0.3459784986481851	-0.28931523960283023			1.6064863604716627e-06										-0.03673930390188442				-0.34952333951971654			3.113706794790506e-05	0.3330401164511274		-0.07755053841090084	-0.020967506796044026		-1.428599850439507e-06	-3.834905614230626e-05		0.31207890655583825			0.1697778094974821						
2019	12											0.04649352117432929								0.0117958986576108																																																			-2.706089486371741e-05																																																																																		0.0872336501272403	0.0381815187396263											-0.14817605166337508				6.565168435920506e-05								0.196481777654861		-0.14785561378729858				-0.09349463358552017				0.009179361688351621		6.451483419121274e-05	-0.0354033270813701	1.6124731166400886e-05	-1.855715993770293e-05		5.260766930372739e-06	0.1712311222688907		-0.2015789808815208	3.4705774036086264e-06	0.06581653831420474					
2020	3																			7.754375203342905e-06																																						0.03938120036668576																										2.7856734966761556e-05	0.03885779534040862																							5.4932592298987995e-05																															0.04376528811529954							0.02710602869790673																			-0.005773212444913029									-5.991358743546223e-05							0.029200726656643982						5.676178705846098e-06	0.14920521102530526	5.442626937026647e-05		-7.110318891316568e-05	2.4337611678605496e-05	8.352690645140497e-05		5.458778837470737e-06			-0.006067929253709266	0.05512290809969641	-0.37100429405672447				
2020	6											0.062211730707680414																																															-0.05311978070543009										-0.022909071515042748															0.005284330847974085																								0.017535265135774497							5.264471367746215e-06									1.222998107016105e-05															9.12016588818433e-06			0.1099811176914546												2.6443680929582737e-06						8.686828805150064e-06														-0.00048393580259805264					-0.21066580895836678		-4.668673111827981e-05		-0.4570850544136284				0.09763959474517517			4.333029522825091e-06					0.33126541169079077				0.12036624120050851		-1.5191905798569303e-05			
2020	9																																					0.05727213437737827																																															0.09402454293146485																							-0.07638756706038943																																				-0.21447593485893388		0.22752204996622824							3.874373806219408e-05	-0.029322654864911958						1.4918994373216053e-05														-0.089630594864234					-0.17064171207641463		0.39864279079566456				-0.34500030583771535				0.14113877174390735			-0.09690685129336395			0.36549981745860083	0.2425631635545901				-0.3440368817354236		-0.3969138903234945	0.23671407734106878	-0.00015647102999284912
